#include <iostream>
#include <chrono>
using namespace std;

float layer_0_bias[] = {-0.105060786, -0.10317408, 0.0538205, -0.026220597, 0.062458485, -0.0018817732, 0.13414259, 0.0039281277, -0.056308992, -0.08764836, 0.112220675, 0.03536649, -0.0053091347, 0.11060799, -0.030158965, 0.054526266, 0.08993123, -0.09997143, 0.039289266, -0.076606624, -0.053781316, -0.06682223, -0.0030527632, 0.101263314, 0.0040684636, 0.12010084, 0.011753575, 0.06627015, -0.0764459, 0.027235337, -0.069565006, 0.059528235, -0.031933907, -0.04343445, 0.069640376, 0.11092244, 0.051251404, 0.036518738, -0.089062914, 0.042738922, 0.06437381, 0.023693997, 0.09776961, -0.07276288, 0.05090561, 0.029049579, -0.0453983, 0.010071138, -0.0073836017, 0.07497042, -0.03947474, 0.10694009, 0.077312015, -0.06763023, -0.026258131, 0.055536374, -0.1440225, -0.07667977, -0.042003945, 0.07632664, -0.072239324, 0.07261807, 0.018273719, -0.062379133, 0.07016205, 0.055061433, -0.06549559, -0.12925385, -0.04187854, -0.049084432, 0.011058938, 0.026373368, 0.1246778, -0.00050934695, -0.016291784, -0.111840755, 0.06762443, -0.13089862, -0.05912532, 0.067432955, -0.022665013, 0.03745745, 0.09349751, -0.027585592, -0.047391977, -0.09455964, -0.0022592717, 0.026092745, -0.024162803, -0.019706674, 0.051997513, -0.0276105, -0.0981223, 0.124029644, 0.045072317, -0.099588595, 0.078357905, -0.07647387, 0.11670464, 0.09834298, 0.07463714, -0.040088065, 0.028940763, 0.059314206, 0.098283894, -0.061832022, 0.064373806, -0.017286189, -0.07593967, 0.002985306, -0.08527817, 0.08501461, 0.03191352, 0.017968824, -0.11482006, 0.051278424, -0.012083068, 0.009027204, -0.033063274, -0.0697864, 0.07078146, -0.026079036, -0.086024135, 0.011807958, -0.0010575848, -0.054681905, -0.072233036, -0.007878295, 0.039929952, -0.09750025, -0.06705299, 0.07167374, 0.120555975, 0.02927497, -0.072776325, -0.04313318, -0.0878263, -0.062366504, 0.051860023, 0.05506902, 0.011511464, 0.061222624, -0.02047617, -0.04110572, 0.08899941, 0.008332975, -0.0075767585, 0.053691942, 0.11275998, 0.0005640357, -0.051030166, -0.13604595, 0.026056398, 0.00034119637, 0.06594375, -0.060420915, -0.10582351, 0.017166896, 0.010731532, 0.03311683, -0.023045976, 0.0014463032, 0.028473405, 0.0425675, 0.005384702, 0.07045718, -0.051370464, 0.12285215, 0.0054852637, -0.06913595, 0.040643446, 0.045602877, 0.05756613, 0.08310387, -0.101611935, -0.040407628, 0.009230766, -0.10788081, 0.0041967593, 0.12187121, 0.06756134, 0.0487231, 0.021963786, -0.059639215, 0.007194184, 0.06306832, 0.005524988, -0.04115017, 0.0052493517, -0.04591728, 0.10512338, 0.08584202, 0.019463107, -0.062773235, 0.06819693, 0.011034879, -0.024812035, -0.009368944, -0.0040694494, -0.06625528, -0.045360245, -0.09414017, -0.02882096, -0.06802479, 0.021863258, -0.076737225, -0.054043286, 0.08097377, -0.027408415, 0.06485234, 0.113981746, -0.05604927, 0.090030625, -0.039626494, -0.09219857, -0.08700723, 0.045327164, -0.087041795, -0.068998285, -0.12086246, -0.08686551, -0.04961668, -0.05718586, 0.12047549, -0.084375754, 0.06474313, -0.019459015, 0.061415177, -0.05344715, 0.008422294, 0.022164194, 0.017648904, -0.07903438, 0.105535105, -0.038732484, -0.10064204, -0.03151528, -0.02747957, 0.03027556, 0.0252093, -0.043466855, 0.0735668, -0.0020198342, 0.09406613, -0.0821709, -0.118592, 0.105269045, -0.004309411, -0.07381728, -0.08841915, 0.008657163, -0.040607136, 0.124124706, -0.10613249, 0.00081626995, 0.043943405};
float layer_1_bias[] = {-0.0049709775, 0.09518816, 0.0066862027, 0.02191529, 0.02198513, 0.024388894, 0.025575634, 0.016902212, -0.016329817, -0.010876196, -0.016920691, -0.040894866, -0.0006149232, -0.059632324, -0.046788182, -0.052364506, 0.006245753, -0.031087056, 0.09185021, 0.03313985, 0.011038879, -0.058845405, 0.03420789, -0.036199637, -0.010144517, -0.03879674, -0.04284328, -0.035323083, 0.0557965, 0.014166415, -0.05846827, 0.014066028, -0.0027500005, 0.023801195, 0.015988171, -0.027799182, -0.038209092, -0.067208454, 0.022386262, -0.028840743, -0.046820644, 0.010875057, 0.016297108, -0.03402376, -0.008948389, 0.044185158, -0.076239645, 0.010792266, -0.05942234, -0.0029972706, -0.049910873, 0.014188032, -0.05627899, -0.0002208165, -0.021306124, -0.049785666, -0.019214751, -0.04543065, 0.074523516, -0.05389272, -0.056610066, -0.03276839, -0.067942046, 0.0474497, -0.051466808, 0.021336492, -0.076734036, 0.014168578, 0.04013421, 0.057282254, -0.02789659, -0.0044466946, 0.06553953, -0.04570519, -0.06412902, 0.013271766, -0.042865925, 0.05047681, 0.024955353, 0.045763046, -0.04381908, 0.00660767, -0.0643129, 0.015700141, -0.07087893, 0.0087503875, 0.039941102, 0.026090996, 0.040545788, -0.006985642, -0.06474946, 0.06415661, 0.026329942, 0.0046822657, 0.027247215, -0.052637238, -0.027740162, -0.07795885, -0.034498468, 0.0052478835, -0.019494083, 0.013644916, -0.066460006, -0.013023732, -0.008073082, 0.061401412, 0.025601007, 0.06495752, -0.022297593, 0.042976916, -0.013225319, -0.069064006, -0.020359484, -0.060360156, -0.021028398, -0.0021254204, 0.009374849, 0.06036773, -0.016493624, -0.027940096, 0.0046536867, -0.04145691, -0.039612874, 0.09545321, 0.013924924, 0.0052775596, -0.013373513, -0.044912174};
float layer_2_bias[] = {-0.022933187, 0.02186711, -0.004907994};
float linearMat0[256][86] = {{-0.00052789866, -0.12701713, -0.28231975, -0.08985954, 0.10325458, -0.07718282, -6.6501845e-05, -0.271512, -0.16022012, -0.023047475, -0.027253516, -0.07307018, 0.00012515835, -0.052978292, -0.22758794, -0.2794938, -0.095532484, 0.06923878, 0.105309166, -0.019849086, -0.09964738, -0.12580922, 0.1055086, 0.09071309, -0.11448614, -0.016315449, -0.12379401, 0.091049165, -0.18960115, -0.057773367, 0.037376437, -0.042261254, 0.040599592, -0.07426366, 0.06313297, 0.022784876, -0.041635457, -0.030479996, -0.081410594, 0.017329043, -0.09121799, -0.10604843, 0.0779733, 0.0896176, 0.086877786, -0.06368499, -0.12940972, -0.055836987, -0.009655233, -0.009022118, -0.036599502, 0.00735436, 0.026613237, 0.02523583, -0.104145326, 0.08461798, -0.1031808, 0.09630068, 0.023806741, 0.0498543, -0.024076004, 0.043309648, -0.052309226, -0.0179185, -0.06678262, -0.09490097, 0.03762515, 0.015310773, -0.010493644, -0.012387842, -0.09560433, -0.054524496, -0.047130022, -0.12221803, 0.15719967, -0.040277764, -0.09265354, 0.048886027, -0.1500597, 0.11308094, 0.07280654, -0.04262496, 0.013944416, -0.06731028, 0.014932431, -0.025502224},
                             {-0.038215525, 0.0534994, 0.11027112, -0.03437067, 0.031426553, -0.019285554, 0.011269669, 0.028751489, -0.021451287, 0.05400812, -0.04220922, -0.010811616, 0.08394018, 0.0305748, 0.13674499, 0.11609811, 0.031914957, -0.0567852, -0.13468169, -0.10907921, -0.083184436, -0.008104611, -0.031359814, 0.048581924, -0.055902965, 0.017589286, -0.10175033, -0.09348552, -0.055249657, 0.016374221, -0.11057939, 0.08367694, -0.08021237, 0.014548021, -0.12609036, -0.020877847, 0.031629253, -0.059730068, -0.051760975, 0.028356535, 0.103995085, -0.11122695, 0.05487701, 0.04874256, 0.074671134, -0.1284998, 0.045205228, -0.046489317, 0.005474391, -0.12305677, 0.03312991, 0.057524793, -0.038064543, 0.04349402, -0.10123498, 0.031046584, 0.027356068, -0.081715584, 0.060214184, 0.0382477, -0.076647356, -0.106598005, 0.075586304, -0.086827904, -0.10833805, 0.07600006, -0.09436117, -0.089768924, 0.02678817, -0.018820032, -0.10119459, 0.01493136, -0.008706632, -0.042260706, -0.040913425, -0.011046529, 0.09514746, -0.0063694906, -0.07295205, 0.0772411, -0.013629521, -0.011798512, -0.038233526, 0.13009508, -0.038910784, -0.06407879},
                             {-0.128143, 0.1332625, 0.15807651, 0.005432192, -0.0076413685, 0.05015603, 0.013607144, -0.07689943, 0.17687275, 0.16544706, -0.002113285, -0.13581488, -0.046552237, -0.034726314, 0.027429104, 0.16381276, 0.20915738, 0.119635746, 0.014347157, -0.035006773, -0.02949868, 0.052140668, 0.007780405, -0.02862092, 0.08407418, -0.08493104, -0.015976287, 0.08420142, 0.061752126, -0.10931161, -0.056116235, 0.025611592, -0.05813114, 0.056613293, -0.06553466, -0.0020336949, 0.0843775, 0.02953931, -0.050357714, 0.10382527, -0.015933724, -0.078436576, -0.018146535, 0.051097814, 0.042458862, 0.08640765, 0.021392409, 0.12725069, -0.017700028, 0.058781337, -0.05816168, 0.11322385, 0.045523394, 0.07110855, -0.07845252, 0.037124038, -0.00474529, 0.09771342, 0.033417687, 0.09625225, 0.06437791, -0.0098068975, -0.013536704, -0.019693058, 0.08828886, 0.11330369, -0.055229507, 0.019732144, -0.08176338, 0.0012931412, 0.043349452, 0.05258961, -0.10319057, 0.010343667, -0.05759217, 0.08265062, -0.033894375, 0.10211305, 0.062033422, -0.099158436, 0.06286926, 0.2141771, 0.11273978, 0.14317058, -0.09565732, 0.063429035},
                             {-0.09217719, 0.2029347, 0.23206814, 0.044949822, -0.05114025, -0.087391414, -0.029780885, 0.10520584, 0.17442916, 0.15358259, -0.0098040225, -0.048383705, 0.03956568, -0.11249448, 0.118146986, 0.31131366, 0.30410746, -0.06378503, -0.142547, 0.104907654, 0.08538053, 0.01897678, -0.0759178, 0.032262128, -0.02455682, 0.054407727, 0.04318365, 0.043553013, 0.1642101, -0.099258, -0.0022134355, 0.021540815, -0.14247696, 0.108345196, 0.061031416, -0.019117514, 0.043061115, 0.20294252, -0.08476917, 0.025277289, -0.023419641, -0.05505799, 0.011441331, 0.021604009, 0.010790347, -0.04617338, 0.13681132, -0.04289747, 0.08327812, -0.02393709, 0.07930178, 0.09041067, -0.07385098, 0.109654844, -0.0095318165, -0.11530148, 0.06930079, 0.070650086, -0.07598874, -0.09397945, 0.03301052, -0.0052235303, -0.021049097, -0.044606928, 0.0750043, 0.16871643, 0.03155171, -0.05328484, 0.10043563, -0.05995628, -0.0066773267, 0.07411182, 0.07813341, 0.05868741, -0.17833138, -0.009702474, 0.069421984, -0.0009762449, -0.05592608, -0.061265044, 0.008916507, 0.06963471, -0.07705877, 0.18056029, 0.00651496, 0.09224379},
                             {0.15180328, -0.20127545, -0.06027961, -0.036076423, 0.07243524, -0.11832048, -0.029360794, 0.035470232, -0.1890927, -0.08399763, 0.029362775, 0.075468495, -0.103277974, 0.021026514, 0.047080476, -0.12030346, -0.17711402, 0.04179067, 0.03521289, -0.17772421, -0.08165321, 0.03178775, 0.03587177, -0.08396685, 0.005325764, -0.027470594, 0.051733192, 0.08712261, 0.12112217, 0.12798735, 0.13220453, -0.021103904, 0.042355593, -0.079677664, -0.047300156, -0.0751331, -0.09860838, -0.054051053, -0.024420207, 0.047969565, -0.07968462, -0.056908514, 0.026000157, -0.124006875, -0.09543833, 0.09897277, -0.028107878, -0.10545066, 0.030830067, 0.13292255, -0.033392042, -0.0859597, 0.0017466132, 0.053142726, -0.009714004, 0.05970343, 0.05151209, -0.08597811, 0.050200697, -0.052366477, -0.118175775, -0.038973343, -0.043057732, -0.045557674, 0.020491553, -0.13071802, 0.1350291, 0.00061602605, 0.12604915, 0.04626841, 0.119801134, 0.015007917, 0.12576166, 0.053173415, 0.03373336, 0.023149088, 0.0061401827, 0.05340251, 0.046551224, -0.0020410481, -0.15864144, -0.15627858, -0.01292576, 0.033558413, -0.0632413, 0.07507834},
                             {0.060212888, 0.121864185, 0.083698474, -0.012075684, -0.02019924, 0.05951966, -0.04664768, 0.18756688, 0.078830935, 0.030792266, 0.06538595, -0.07494078, 0.04102135, -0.05965903, 0.24446258, 0.10461775, 0.08306533, -0.10330896, -0.04554466, -0.14407158, -0.0043373075, 0.033902787, -0.049109627, -0.08705104, -0.09616866, -0.033776224, 0.031764433, 0.089446515, 0.046231247, 0.05142644, -0.12588143, 0.010777672, -0.01485123, -0.10528163, -0.06569609, 0.0019548105, -0.061643798, 0.1765918, 0.06633059, -0.031809933, -0.07394114, 0.021233283, -0.009342187, -0.03135929, -0.024461282, 8.292287e-05, -0.059810806, -0.010702425, -0.06420243, 0.04189971, -0.008942835, 0.041997902, 0.04947063, 0.036701187, 0.064430684, -0.07779512, -0.11159201, -0.0669412, 0.021408591, -0.115672186, -0.012488513, 0.078160405, -0.056767125, -0.02032868, 0.016154362, 0.009969423, -0.10727389, -0.086796775, -0.012614356, 0.014906346, -0.054651737, 0.034111917, 0.09433699, -0.022911506, -0.03790228, 0.062034026, -0.011556291, 0.019726278, -0.049414843, -0.104898915, -0.10745675, -0.04185578, -0.12636772, 0.012162583, -0.0027754104, -0.11073224},
                             {-0.0042785257, 0.027684676, -0.02313719, 0.09114939, -0.053421795, -0.06232847, -0.012400186, 0.06818349, 0.15569858, -0.008913004, 0.090857804, -0.019239865, 0.038557816, -0.077659756, -0.18936718, 0.17962494, 0.14362954, 0.100297034, -0.070357054, -0.01681339, 0.04011369, -0.064443976, 0.02942781, 6.19776e-05, -0.005654455, -0.0226982, 0.054917626, 0.017800022, -0.004380488, -0.10002975, -0.10955656, -0.09390347, -0.07196223, -0.09564634, -0.055142805, 0.11771652, 0.0805945, 0.009760368, -0.055742174, -0.025539648, 0.06943389, 0.07996087, -0.0589284, -0.059916046, 0.006760365, 0.033339757, 0.09445392, -0.06103788, 0.029385898, -0.056787822, -0.05680506, 0.10823148, -0.06281644, 0.07130473, 0.07266145, -0.010709332, -0.007518709, 0.040887963, -0.041374896, 0.08780141, 0.1102211, 0.13342547, 0.029044617, 0.06667803, -0.054247864, 0.027103148, -0.020585679, -0.04276389, 0.08653604, 0.030217187, 0.015782252, -0.0016181554, -0.0789378, -0.013486836, 0.01929794, -0.092124484, 0.035997964, -0.018898763, -0.030248381, 0.121019945, 0.053360518, 0.18224794, 0.050549246, 0.016140247, 0.043579314, 0.07319139},
                             {0.18751936, -0.084592886, 0.15930082, -0.12571536, 0.09855339, 0.07753502, -0.100546844, 0.21327119, -0.031458102, -0.105032496, -0.038224667, 0.04052437, 0.035072487, 0.06286376, 0.26287323, -0.08525733, -0.08889771, -0.12909201, 0.056126777, 0.00034979533, 0.04974291, 0.107719526, 0.038956933, -0.07375742, 0.002279313, 0.09418944, -0.06880023, -0.045122154, -0.06361007, 0.023500266, 0.07750781, 0.037147652, 0.03394517, -0.041919842, 0.09106957, -0.09094141, 0.04671198, -0.09168573, -0.13004418, -0.09254647, -0.12327985, -0.09079371, -0.030201592, -0.12155907, -0.0294559, 0.028281873, 0.0054718773, -0.011747412, 0.03028908, 0.07497871, -0.0015822853, 0.0002634937, -0.1018591, -0.05683712, -0.07302423, 0.017373873, 0.012269642, -0.080929324, -0.039620902, -0.15868711, -0.1470136, 0.066320054, -0.020971788, 0.11043379, 0.09293256, -0.032969214, 0.101629436, -0.038058527, -0.11063763, -0.0631671, -0.10253429, -0.038561482, 0.07932894, -0.07577399, 0.04594148, 0.0057948753, -0.092483185, -0.007445443, 0.10861015, -0.047692288, -0.04192438, -0.116025396, -0.030150263, -0.035723515, -0.043286934, -0.12821464},
                             {-0.07888993, 0.1115903, 0.022203628, 0.02919171, -0.0007607655, 0.06864852, 0.04977659, -0.10707025, -0.12849294, 0.018557709, 0.08861397, -0.046283003, 0.005054284, -0.037126895, -0.072720245, -0.08883391, -0.08263068, -0.0008852314, -0.024816109, -0.005785856, -0.008576282, -0.015396639, 0.013078543, -0.048094533, 0.03400344, -0.010546456, -0.10690054, 0.09757605, -0.113811255, -0.028447852, -0.035715885, -0.080250725, 0.05617215, -0.0765692, -0.05020975, -0.0124765225, 0.025776, 0.06349178, -0.0032217768, -0.09836123, -0.11149269, 0.07235177, 0.082459584, 0.15316372, -0.06707473, -0.08200732, 0.035037708, 0.0176639, 0.01401861, 0.043877106, -0.011166183, -0.016110025, -0.106474884, -0.06932142, -0.072181, 0.012231878, 0.09200131, -0.03466273, -0.10285283, 0.11308356, 0.03482953, 0.09473826, 0.08799145, -0.08853346, -0.06629975, 0.035753533, -0.015718807, -0.054799136, 0.06593289, 0.02343842, -0.061533198, 0.03882244, -0.12711981, -0.03610251, 0.11768704, -0.053268086, -0.04468777, 0.11211405, -0.12787901, -0.08423029, -0.08937901, 0.024276353, 0.10125044, 0.06182161, 0.10623059, -0.08724778},
                             {0.045359667, 0.13689083, 0.1378402, -0.004120585, -0.061383687, 0.09535113, 0.011397686, 0.027878206, 0.12954651, -0.024789792, 0.11281699, -0.055263136, -0.04627153, 0.07283043, 0.07604338, 0.1667351, 0.010274459, -0.07632795, 0.015926633, -0.0694156, 0.01163263, 0.019062193, 0.037357107, 0.016990785, 0.07089829, -0.096608296, -0.11546283, -0.051165927, 0.102786735, -0.04927029, -0.051320672, -0.022268275, -0.07948872, 0.03956079, -0.018500732, 0.0963893, 0.025459671, -0.0042872247, 0.11229159, -0.059900228, -0.039116416, -0.05213489, -0.10148682, -0.020791646, -0.12132798, -0.043166492, -0.008348655, 0.07207274, 0.092671424, -0.110830255, 0.018470367, 0.0309648, -0.11996082, -0.065735415, 0.085885935, 0.021805534, -0.013110395, -0.014252465, -0.019628705, -0.037118357, 0.017759314, 0.06674609, 0.08048079, -0.020662189, -0.087630846, 0.10564946, -0.1060755, 0.04614178, 0.019426798, -0.10995869, -0.10129919, 0.015450599, 0.15230753, -0.015750615, -0.05988183, -0.004274577, -0.0023820305, -0.03881755, 0.1474625, -0.13540328, 0.015950253, 0.011572676, -0.018477134, 0.09297035, -0.12882543, -0.107397296},
                             {-0.020424873, -0.0163887, -0.039407756, 0.11585526, -0.070496246, -0.012542047, -0.025678148, -0.07545421, -0.077190325, 0.10304634, 0.051005475, -0.10041861, 0.0075603426, 0.07819162, -0.08063042, -0.050812405, 0.048660137, 0.060360957, -0.089983985, 0.051107682, -0.08786806, -0.0301473, -0.0756578, 0.0597539, 0.037378654, -0.02534912, 0.07802203, 0.0778642, -0.08393752, 0.08585086, -0.027754081, -0.008407331, 0.046135113, 0.027761184, 0.094306506, -0.046720434, 0.015312301, -0.07511315, -0.065372676, -0.06297248, -0.029032823, -0.04194236, -0.046700288, -0.07744831, 0.097467266, 0.10904662, 0.07413419, -0.060791302, -0.06721242, 0.07492021, -0.110266455, 0.09489141, -0.092077844, 0.04141994, -0.077652775, 0.046380173, 0.025442876, -0.09022865, -0.059833165, 0.009473138, -0.07645231, 0.08664083, 0.09409794, -0.034203555, -0.117001265, -0.092427984, 0.07920511, -0.08957646, 0.061904207, 0.09795008, 0.0073010633, -0.072860904, -0.052630603, 0.031007562, 0.09455746, -0.037826568, 0.067133084, -0.06110958, -0.034334175, 0.04900914, -0.055413578, 0.10377907, 0.10740111, 0.088457264, -0.042078767, 0.05942467},
                             {-0.2154441, -0.08014546, -0.38567662, -0.04242562, -0.026674176, -0.013492669, -0.014731163, -0.37351885, -0.14434873, -0.09160572, -0.07400291, -0.043561902, -0.050338805, -0.04159619, -0.35737893, -0.16606225, -0.33535308, 0.04824574, -0.14402881, 0.115538836, 0.09410497, -0.25294122, 0.05000715, 0.14205417, -0.026854642, -0.051981237, 0.037104588, -0.0013310998, -0.08418491, 0.14451334, 0.099561535, 0.049338367, -0.103634216, -0.058026016, 0.058400176, 0.10719244, 0.054021772, -0.043587968, -0.038310334, -0.07159424, -0.0058165, 0.04176663, -0.14571255, -0.10477202, 0.0014973106, 0.080924176, -0.016411008, 0.05959398, 0.077794045, 0.12062789, -0.096433215, -0.04103855, 0.13152237, 0.053807788, -0.012123325, -0.025322482, -0.12796107, -0.07209488, 0.11035647, 0.09032503, 0.05148239, 0.080819026, -0.018713906, 0.088515684, 0.034329835, -0.15135226, 0.12622128, 0.081135824, -0.035817027, 0.07033836, 0.082675695, -0.011481093, 0.015988318, 0.041708797, 0.12707812, 0.09393144, -0.06405504, 0.003439114, -0.018091401, 0.1553512, 0.1537991, 0.020965101, -0.048038483, 0.073585175, 0.18959497, 0.14844193},
                             {0.04941419, 0.18044472, 0.11140722, -0.023560645, -0.054779127, 0.015337668, -0.008250092, 0.14575745, 0.12398319, 0.09701067, 0.039373722, 0.087102786, -0.004869553, -0.089421816, 0.2896096, 0.13805874, 0.30999297, 0.022696208, 0.013864242, -0.06280939, 0.055287886, 0.12123406, 0.013687797, -0.09741072, 0.053867474, -0.0004740893, -0.01731385, -0.11250791, 0.2073129, 0.034214653, 0.0038951419, 0.103709005, 0.068782665, -0.053739026, -0.10276326, -0.10705293, 0.061388027, 0.1989175, -0.01302136, 0.060588684, -0.028168239, 0.08296103, 0.079163276, -0.0035323715, 0.019763429, -0.1252224, 0.030104093, -0.08591374, -0.008720975, 0.0580762, 0.0612829, 0.0067790807, -0.060601432, 0.11283069, -0.061396908, -0.09760395, 0.004154705, 0.057398837, -0.030894881, -0.10244957, 0.093959115, 0.04607343, 0.039252806, -0.08247158, -0.05272129, 0.06210832, 0.021317983, 0.009805157, 0.016747706, -0.12179475, -0.06517406, -0.07089743, 0.068254925, -0.016250174, -0.14578018, -0.062007476, -0.03662378, -0.10596932, -0.056743726, -0.24950743, -0.016711295, 0.1628496, 0.01877716, 0.17207362, -0.13810778, -0.08711492},
                             {0.060926452, 0.027293842, -0.08014157, 0.07775593, 0.101498336, 3.9005005e-05, 0.08914438, -0.13702835, -0.08355947, -0.00984941, -0.036274742, -0.0074127032, 0.013428757, 0.08282959, -0.18169443, -0.13394605, -0.015696762, -0.09618725, 0.029554041, 0.008532526, 0.09856654, 0.058703598, 0.04696226, -0.013704828, -0.06998636, -0.104986526, 0.04253406, -0.006285763, -0.13133062, 0.06626782, 0.12203599, -0.022717647, -0.01966392, -0.017022021, -0.044802055, 0.0021700647, -0.085065044, -0.066244274, 0.05442767, 0.052495115, 0.020143433, -0.036595583, 0.0023554985, 0.09463616, 0.119498745, -0.049545255, 0.016741132, -0.012376319, 0.036354907, 0.038579702, -0.023256076, -0.10882583, -0.05895452, 0.02898887, -0.020134892, -0.0689317, 0.08648883, 0.0066386787, 0.08140686, 0.033207357, 0.0703138, -0.105689056, -0.056220952, -0.09712548, -0.09922836, -0.1003939, -0.016228305, -0.10149248, -0.021343283, 0.09102591, -0.0025601909, 0.066950515, -0.0074713677, 0.042729847, 0.06369869, -0.02362439, -0.057324905, -0.03271658, 0.08106546, 0.16254087, -0.038166307, 0.014387773, 0.06517979, 0.046816085, -0.029782027, -0.081525266},
                             {0.05141801, 0.15346646, 0.37368393, 0.005025537, 0.096545085, -0.0014474853, -0.00076239917, 0.39288166, 0.1254748, 0.22169797, -0.0094762035, -0.038402878, -0.0037758313, -0.06595385, 0.41469735, 0.35690352, 0.37674385, -0.015652776, -0.13170694, -0.09369798, 0.044214252, 0.25725555, -0.14310011, -0.20540942, 0.052758474, -0.090449706, 0.08545444, 0.040426515, 0.22047721, -0.015476761, -0.09493378, 0.009857304, -0.004570088, 0.120231934, 0.037106253, 0.0059937616, 0.08074247, 0.08765724, 0.036319084, 0.05776634, 0.018082755, -0.036000963, 0.07624734, -0.040899146, -0.12457844, -0.027360804, 0.20256516, -0.04848506, 0.06817038, 0.07266109, -0.085256, 0.13655221, -0.08832658, 0.08234606, -0.04595047, -0.015564195, -0.006289082, 0.0638726, 0.041969076, -0.086417474, 0.15922774, 0.13112275, 0.049633432, -0.032472033, -0.028400848, 0.11721872, 0.07818258, 0.14986952, -0.042081535, -0.05122594, 0.13947129, -0.056524687, 0.12163371, -0.0025568155, -0.13203417, 0.011481047, -0.04007634, -0.08338331, 0.030068241, -0.24914405, -0.019623827, 0.04599575, 0.06633361, 0.10798392, -0.12787494, 0.025727633},
                             {0.083477244, -0.04967357, 0.020542169, -0.068725266, 0.09029821, -0.061523493, -0.0554853, 0.04641111, 0.12825613, -0.037417796, 0.12559448, -0.019202149, 0.07591779, -0.094404675, 0.13943593, 0.11471881, 0.18439972, 0.08846699, -0.0037067067, -0.014901925, -0.00043959066, 0.1273636, 0.03236919, -0.048266605, 0.10637986, -0.043348063, 0.03656901, 0.06355672, -0.07900492, -0.06909042, -0.05222134, 0.035593554, -0.09526702, 0.11972835, -0.12593094, -0.048999023, -0.012386093, 0.13769151, 0.08986385, 0.0024118694, 0.14073132, -0.066198386, -0.066849194, -0.065439746, 0.09123192, 0.036462482, 0.13970537, -0.042321693, 0.09164911, 0.035941165, 0.021449048, -0.016154122, 0.015188729, 9.992757e-05, 0.11880341, -0.11134161, 0.06882291, -0.08139673, -0.1111315, 0.082776755, 0.06315175, 0.08119002, 0.024189457, -0.052009024, 0.08794138, 0.06086216, -0.117513984, 0.00473844, 0.09209342, -0.058129486, 0.10663444, 0.039053407, -0.054958407, 0.10642963, -0.16821532, 0.035375684, -0.018715931, 0.094717935, -0.030000739, 0.030890986, -0.07891616, 0.1229219, 0.10309794, 0.006024795, -0.108081155, -0.08827437},
                             {-0.05876942, 0.16085604, 0.25830954, -0.04565344, -0.06267479, 0.07743014, -0.07643649, 0.26358896, 0.03872295, 0.0400774, 0.065681286, -0.064355984, 0.0562116, 0.078962974, 0.32717913, 0.075280644, 0.2082757, -0.07969765, -0.11637477, -0.062493466, -0.058222663, 0.06440795, 0.058849897, -0.16560358, -0.046701632, 0.06570679, -0.09753222, 0.08672066, 0.14907384, -0.13438816, -0.08353206, 0.00775237, 0.06420207, 0.041289397, 0.08385015, -0.03618683, 0.06627076, 0.025622658, -0.015175055, 0.049386013, -0.08821893, 0.020079616, 0.07203586, -0.03893892, 0.040013384, -0.072471604, 0.024671711, -0.018010285, 0.075542465, 0.0001136715, 0.025912168, -0.035198886, 0.042108014, -0.07807807, 0.03005967, -0.099226244, -0.09226787, -0.00742195, -0.10214221, -0.107711576, 0.020124888, 0.058877498, 0.0839997, -0.055409074, -0.0016724467, 0.077742994, -0.038848955, -0.0866116, -0.0011719787, -0.02972648, 0.002074186, -0.0012893645, 0.058419216, 0.12710297, -0.015696866, -0.06800798, 0.111698754, 0.013574444, 0.06817291, -0.13458319, -0.051661786, -0.02411612, -0.058402017, -0.009607449, -0.098459564, -0.059506305},
                             {0.08441629, -0.073971204, 0.13718823, -0.11669506, 0.10292185, -0.0402623, -0.012184566, 0.01407424, -0.109735906, -0.029586267, -0.10277477, 0.10101154, 0.061381325, 0.07138812, 0.17692383, 0.113438584, -0.09452743, 0.026686188, 0.10365247, -0.095685445, -0.0091245845, 0.060960066, -0.08265299, -0.025862593, 0.019153753, -0.042547654, -0.015048164, -0.044267997, -0.052220535, -0.09775809, -0.039879307, -0.007840588, -0.05466509, 0.06455223, 0.03753716, 0.08154886, 0.009130835, 0.10381374, -0.033784926, -0.08088976, -0.08267475, -0.06419099, -0.08617892, 0.02959606, 0.012601479, -0.011310992, -0.13505524, 0.07449231, 0.08251129, -0.04092017, -0.0878579, -0.026319033, -0.039296545, -0.012420387, -0.044135287, 0.018027157, -0.06348644, -0.02902256, -0.08149918, -0.121787764, 0.024851993, -0.07067271, 0.0787038, 0.014910305, 0.0038169823, 0.03496974, -0.10343023, -0.079612814, 0.03014064, 0.015838727, -0.055906456, -0.038894515, -0.011519735, 0.02798718, 0.011327293, -0.08199489, -0.12136102, -0.060577955, -0.010053014, -0.036881745, 0.0378443, 0.011075727, 0.017892085, -0.009482025, 0.04266542, -0.077283576},
                             {-0.10402871, -0.09428209, -0.086648405, -0.054330576, -0.07285333, 0.073973544, -0.05083481, -0.2596901, -0.006687757, -0.0036232874, -0.084946, 0.044566542, 0.054534525, 0.017375994, -0.32070035, -0.047420617, -0.16012083, -0.088302106, -0.032799806, 0.017004484, 0.071044624, -0.07329551, 0.08405, 0.09302992, 0.018374113, 0.020755373, 0.010685617, 0.014114534, -0.034363355, -0.039485116, 0.09058767, 0.026284594, 0.031220853, -0.061028462, -0.1025718, 0.042283155, -0.09765506, -0.11639564, 0.11378908, 0.012736418, -0.091747716, -0.07543216, -0.099326774, -0.026542094, 0.13426869, 0.120001994, -0.07210026, 0.062844425, -0.054968704, 0.034514952, 0.029416405, -0.1533228, -0.046963062, -0.098138064, -0.07586213, 0.0652221, -0.061147273, 0.10136347, 0.08015705, 0.16046368, 0.05310701, 0.043491576, 0.06701953, -0.008159028, 0.07301853, -0.12899868, -0.026068192, -0.14694911, 0.0375745, 0.077980116, 0.028017046, -0.09141929, -0.097397804, -0.04419089, 0.09383718, -0.03939683, -0.0613511, 0.103508666, -0.105289094, 0.08013085, 0.086706474, -0.11498783, 0.050564215, 0.082468726, 0.15162374, 0.12055287},
                             {0.049326573, -0.012534526, -0.07661684, 0.09491951, -0.0450567, -0.07208151, -0.0016012093, -0.14331643, -0.15983084, 0.05297668, 0.0028125166, 0.05299134, -0.019086622, -0.0023264757, -0.16391912, -0.09371341, -0.18520288, -0.100216046, 0.034802966, -0.04137357, -0.009338391, 0.057742376, 0.046134915, 0.0590685, -0.008083305, -0.027295254, -0.091199234, 0.012688126, 0.09117044, 0.10498935, 0.08579915, -0.052646168, 0.09219592, -0.049896136, -0.10050585, -0.061960798, -0.01833136, 0.038570397, -0.020201957, -0.018106567, -0.06930883, 0.05007513, -0.09280066, -0.078657, -0.03010414, 0.07515256, -0.14873126, -0.003309115, 0.10981675, 0.041658163, -0.010771545, 0.017305186, 0.1060639, 0.053740576, -0.115224324, -0.0376092, 0.09037641, 0.08777514, -0.033474546, -0.008860591, -0.070170835, -0.06794607, -0.08126102, -0.012087069, -0.07816304, -0.07144735, -0.07862616, -0.045646917, -0.0996737, -0.06557723, -0.0031683398, -0.026209615, -0.04382303, 0.0147247715, 0.08927093, 0.094985574, 0.016505295, -0.0665689, -0.08352443, 0.080164574, -0.082113944, -0.14165466, -0.099308886, 0.018313995, -0.028120061, -0.06445966},
                             {-0.0324154, 0.027539665, -0.035342738, 0.08549087, -0.045452617, -0.022664925, 0.019979516, -0.044695467, -0.0497349, -0.06540944, -0.0946819, -0.046734385, 0.028710505, -0.056250628, 0.018765664, -0.08983901, 0.07333703, -0.038595807, -0.0313677, -0.071749575, 0.06326712, 0.05831627, 0.01933233, 0.075392485, -0.06406309, -0.10339721, 0.084734604, -0.020990377, 0.017885229, -0.06763336, -0.0454812, -0.0042141946, 0.05067181, -0.10496623, -0.06746341, 0.067790076, -0.04850544, -0.113740996, 0.0637382, -0.08307227, 0.01721676, -0.058408026, -0.09161381, -0.07829222, -0.08522974, -0.112975165, 0.028308207, -0.0376405, 0.087964155, -0.0007834025, 0.026466198, -0.0902971, 0.090352386, -0.09753488, -0.024243534, -0.10672003, -0.049407233, 0.013088717, -0.08097166, 0.040845245, 0.0073381313, 0.0154321585, -0.085591204, 0.04178498, -0.027813174, -0.07619991, 0.0016621258, -0.10993488, 0.03479926, -0.11489779, 0.0789358, -0.011330408, 0.023828274, 0.043388117, -0.10439671, 0.058032155, 0.017154837, 0.10087037, -0.02729613, -0.06559497, -0.121480465, -0.07240186, 0.05299848, -0.06441481, -0.05058938, 0.047709197},
                             {0.1027194, -0.103354014, 0.10874233, -0.07834769, -0.039867092, 0.0041604103, -0.068109244, 0.26207173, -0.021608789, 0.112825155, 0.06876249, -0.03737325, -0.09930494, 0.031442314, 0.40506664, -0.0061957827, 0.1385311, 0.08148281, 0.012067861, -0.087234005, -0.04193398, 0.101292945, -0.044095423, -0.09754604, -0.064124346, -0.021381315, -0.049531158, 0.01715426, 0.16468455, 0.00520536, 0.05390499, -0.0061140326, 0.1665121, -0.010134657, 0.07307068, 0.034279075, -0.08893155, -0.036886185, -0.04517846, -0.0034895744, -0.09119531, 0.15149519, -0.018396415, 0.0055193733, -0.10033355, 0.040733542, -0.06887032, 0.09034401, 0.11918302, 0.058629535, 0.021573247, -0.04909174, -0.079695016, -0.015552779, 0.0057662497, 0.14809015, 0.116245955, -0.09328217, -0.10911016, -0.12872872, -0.0012303186, 0.09179357, -0.0022114913, 0.06882042, 0.0057768035, 0.0410475, 0.1320135, 0.028513752, 0.02370058, 0.08731365, -0.023988461, -0.093011215, 0.1578221, 0.09383667, 0.009711027, 0.03846535, 0.093813136, -0.1250791, 0.14933534, -0.12702629, -0.17815621, 0.034564212, 0.0039283223, -0.0035416065, -0.08545572, 0.07147209},
                             {-0.0050809877, -0.119244866, -0.31468076, 0.014714473, 0.073113576, 0.02599835, -0.004484725, -0.26532543, 0.0010253675, -0.040194716, 0.072739355, -0.013418947, 0.07558355, -0.06571802, -0.32074225, -0.20300345, -0.12918697, -0.0038686886, -0.06436932, 0.043416128, -0.083261654, 0.0010464698, 0.124511614, 0.06679254, -0.021826165, -0.045442875, -0.06236731, 0.0630916, -0.16066785, 0.09191154, 0.076526955, 0.07451569, -0.023789525, -0.113790005, 0.010583754, 0.09327028, -0.046487305, -0.16233239, 0.04345555, 0.0016468246, -0.1152424, -0.083160296, -0.029598737, 0.05235708, -0.044319805, -0.013681798, 0.00333421, 0.02607496, -0.03309021, 0.079801895, 0.05007737, 0.043154176, 0.012784711, -0.009950173, -0.03865817, -0.0064579695, -0.057529077, -0.031386055, 0.05940187, -0.067202166, -0.059779864, 0.025586285, -0.12739144, 0.030677512, -0.07316879, -0.18713978, -0.07583565, -0.04230248, 0.021975562, -0.047924016, -0.11690287, -0.009018033, -0.01894108, -0.10429505, 0.20475504, 0.0791416, -0.10695071, -0.055527087, 0.08285363, 0.16543895, -0.104719244, -0.11572581, 0.07249261, -0.003325061, 0.0015579306, 0.042239893},
                             {-0.040197894, -0.11972052, -0.31965894, -0.099764064, -0.08151591, 0.032535713, -0.028828597, -0.2433934, -0.112329125, -0.09464383, -0.10661086, 0.08430682, 0.089813724, 0.027199859, -0.2425604, -0.30455726, -0.17008604, -0.10466357, -0.02592081, 0.080277294, -0.09451374, -0.084406726, -0.011085841, 0.024283845, -0.09996761, 0.014715262, -0.111688465, 0.015078451, -0.07189185, -0.05260463, 0.118322246, -0.036263954, -0.0904676, -0.052814882, -0.062548295, 0.026193669, -0.0381233, -0.16728881, -0.045660704, -0.046891563, -0.08953766, 0.08879193, -0.012839817, 0.08808838, 0.07664729, 0.11602522, -0.11090156, -0.11514641, 0.048801683, -0.036983166, -0.041101914, -0.12889706, -0.055802967, -0.111461334, 0.06462934, -0.047637817, 0.07338828, 0.03634344, 0.13113463, 0.13091356, -0.14402698, 0.047946833, 0.03206376, -0.06573141, 0.09587984, -0.12982136, 0.044734165, 0.013510529, -0.106825076, 0.091640525, -0.028805526, -0.11171592, -0.17654799, -0.14851344, 0.117492184, 0.019083112, 0.028963922, 0.038106356, -0.16873851, 0.17283468, 0.06643363, -0.03214054, -0.06346164, -0.17160787, 0.10209724, 0.07304392},
                             {0.040545527, 0.099693574, -0.014021105, -0.0137970215, 0.09548811, 0.054095402, -0.014508843, -0.011882058, -0.07535091, -0.07807435, -0.007058379, 0.033680923, -0.088207714, 0.09204821, 0.1716809, -0.033149578, -0.010527773, -0.081181616, 0.025852835, -0.12328608, 0.033839744, 0.11401866, -0.0043899766, -0.018738268, -0.06431022, 0.002022079, 0.04881974, -0.08922151, -0.0011257282, 0.0038488384, -0.04585906, 0.016920086, -0.031569485, -0.074283466, 0.018715456, 0.019293897, 0.012641514, 0.10824774, 0.07774324, -0.06614441, -0.10516943, 0.07118884, -0.09293864, 0.08263879, -0.07856604, 0.0033532402, -0.017595967, 0.09176807, -0.033243954, 0.1012158, -0.0828335, 0.023563946, -0.05479953, -0.087482795, -0.039851982, 0.06903443, 0.060934536, 0.04598947, 0.045181654, -0.12877198, 0.009970167, 0.046982888, 0.08141348, -0.058976837, -0.085409, 0.026134321, -0.052664265, -0.09761643, -0.022823023, -0.11306048, -0.11891353, 0.00326071, 0.13146004, -0.11290064, 0.121399924, 0.0028017387, -0.08824091, 0.07527844, 0.0300783, 0.03430499, 0.044051547, 0.03687258, -0.0086718965, 0.008814235, 0.010449139, -0.025535291},
                             {0.006976134, -0.0698517, -0.13744465, 0.15186307, 0.028229423, -0.07634389, 0.06382616, -0.10639264, 0.11751606, 0.11312147, 0.01437326, -0.023040207, 0.08135502, 0.00031882164, -0.10978081, 0.08761054, 0.018995961, -0.003519695, -0.08436634, 0.12225264, 0.05309174, 0.02502003, 0.06633868, -0.025585832, 0.025541835, -0.09056189, -0.028633745, -0.040635947, 0.07361408, 0.028473146, -0.079036124, -0.011635955, -0.15171354, -0.08471792, -0.09106935, 0.112589, 0.06147286, 0.09953364, 0.019013226, 0.049852602, 0.10710107, 0.08851812, -0.028332891, -0.08630509, 0.029156815, -0.002155649, -0.015997812, -0.014607731, -0.05335727, -0.09262011, -0.110965654, 0.05756516, 0.0011936411, 0.09081441, 0.06182571, -0.023582214, 0.055946197, 0.025317857, 0.10473064, 0.06491334, 0.04147355, 0.13651721, 0.058694992, -0.040880915, 0.044007033, 0.087361686, 0.0066692117, -0.025482845, -0.00015439131, 0.08351407, -0.045883484, -0.057532784, -0.12995224, 0.056227177, -0.014447797, 0.07938656, 0.01698107, 0.092297725, -0.045464132, 0.033443842, -0.013967937, 0.13343717, 0.005953421, -0.106426455, 0.039433487, -0.027490228},
                             {-0.046333108, 0.122918084, 0.10133125, 0.17219155, 0.102938734, -0.03176024, 0.016092025, -0.0376813, 0.13440953, 0.1175374, 0.092979796, 0.0712429, 0.0681012, -0.037563026, -0.095913164, 0.04274392, 0.10467816, 0.028331816, -0.060381778, 0.1666364, 0.052939214, -0.11025895, -0.10005407, 0.11117279, 0.04840362, 0.05054197, -0.038450025, 0.094299845, -0.011185554, -0.0576912, 0.11546868, 0.017619336, -0.04613222, 0.08983372, 0.02778747, 0.04296397, 0.023681853, 0.031028466, 0.039256185, 0.007822198, 0.0037404837, -0.012037053, 0.0749512, 0.05523626, 0.038896877, 0.008119455, 0.19599736, 0.09470308, -0.02389969, 0.056225494, -0.011581159, -0.0558637, 0.0698343, 0.11110628, 0.10733865, -0.06931199, 0.07306088, -0.052890494, -0.08996333, 0.02949689, 0.19075951, 0.078126624, -0.02678897, -0.008853436, 0.06606636, 0.1523328, -0.094079286, 0.10744174, 0.012795386, -0.008355122, -0.10827666, -0.07669092, -0.045174874, 0.009576533, -0.06326605, -0.100163475, 0.015354733, -0.01932925, -0.043466803, 0.022129782, 0.10749615, 0.13511428, -0.022167698, 0.12201521, -0.120795995, 0.087525696},
                             {0.17893279, 0.1421491, 0.40012306, 0.03490953, -0.04136588, -0.0002361132, -0.035034217, 0.27369663, 0.08609852, 0.16896538, 0.059092365, -0.049831636, 0.064171135, 0.06131807, 0.44872501, 0.36431965, 0.29749689, -0.029863287, 0.107408226, -0.1406656, -0.06411816, 0.2527698, 0.012192379, -0.14031292, -0.04387385, 0.035786368, -0.031581458, -0.08771972, 0.16404258, -0.12691997, -0.17110923, 0.052958917, 0.038733896, -0.038589403, -0.02640302, 0.012835458, 0.08375832, 0.057364646, -0.11321448, -0.05245867, 0.103377216, -0.021895569, -0.10375035, 0.03792191, -0.009896511, -0.093454644, 0.10675119, -0.009367283, 0.019185213, 0.06625246, -0.05313745, 0.12353579, -0.17217353, 0.036852058, -0.01730473, -0.01098261, 0.048866913, -0.051128525, -0.004915905, -0.13286847, 0.0065350328, 0.007480588, 0.06621131, 0.021751437, 0.045625523, 0.11598455, -0.00016608008, 0.105094776, -0.05868509, -0.048437092, -0.017773766, 0.04108799, 0.03731991, 0.085749395, -0.13728051, 0.056630418, 0.089124575, 0.03147462, 0.06859513, -0.18665609, -0.028114231, 0.14673506, 0.03286243, 0.12703237, -0.0535464, -0.10611778},
                             {-0.12520455, -0.12249846, -0.16991663, 0.11983057, -0.08444564, 0.036273338, 0.005388687, -0.17542966, 0.029611794, 0.06432581, 0.06078183, -0.028783416, -0.043819986, -0.083888024, -0.3326454, -0.20244361, -0.11507691, 0.111063816, -0.0034483154, 0.107027926, -0.038630597, -0.13811596, -0.032886796, 0.1838042, -0.063259445, 0.058661424, -0.033015627, 0.050151963, -0.14578263, 0.04074052, 0.13071921, 0.051590104, 0.028668271, 0.11789522, 0.0651107, -0.07025743, 0.076489896, -0.030272095, 0.08012563, 0.113616906, -0.054936964, -0.019597841, -0.007580022, 0.039352737, -0.017015653, 0.07895049, 0.059419163, 0.081194155, 0.108557224, -0.021612452, 0.041084222, 0.03401109, 0.020893054, -0.02476401, 0.03068273, 0.06660745, -0.060284104, -0.09192591, 0.009052682, 0.14000171, -0.047737863, 0.018998483, 0.033174805, 0.117990434, -0.07481829, -0.009232642, 0.055096727, 0.07008674, -0.00053572305, 0.016356813, 0.019207006, -0.09755041, -0.09858594, -0.07976989, 0.11188511, 0.022205785, -0.03306205, -0.005092028, -0.008980302, 0.20619611, 0.16817626, -0.09802049, 0.112470284, -0.031441543, 0.024406215, -0.047768265},
                             {0.055527464, 0.012448181, 0.108231194, 0.029747015, 0.05108339, 0.041455824, -0.025472192, -0.13090225, 0.11090733, -0.053494796, 0.08324446, -0.109694645, -0.11311995, -0.0022576256, -0.055789605, 0.07011058, 0.09549069, 0.06426289, -0.06812672, -0.05047655, -0.06764268, -0.12741394, 0.06682139, -0.011154596, 0.083144434, 0.026760213, -0.10896077, -0.05392185, 0.055265237, 0.020534541, -0.045456793, -0.049802955, -0.055768583, -0.09370385, 0.062933974, -0.06594126, 0.0787957, -0.08821364, -0.038129974, 0.057292555, 0.0081530865, -0.028747987, -0.08475567, 0.050480727, -0.10185136, 0.06221708, -0.039068144, 0.060307957, -0.109162696, -0.004969994, -0.0902935, -0.09938619, -0.103053145, 0.0048763673, -0.0014983162, -0.031144414, -0.07032219, 0.06445175, -0.056900814, -0.09539157, 0.08597276, 0.06764573, -0.065993614, 0.00033319456, -0.087693825, -0.09615947, 0.059128467, 0.0123084895, 0.014387246, -0.013911923, 0.00024584957, -0.017912643, -0.02530093, 0.031274136, -0.098391384, 0.055426344, -0.07154544, -0.085868455, -0.07861531, -0.019308742, 0.084639564, -0.009423128, 0.094236776, -0.022257626, -0.024298985, 0.09427995},
                             {-0.034510866, -0.062642545, -0.2781716, -0.021659592, 0.097942695, -0.09036335, 0.03672328, -0.14496237, -0.09012631, -0.15639815, -0.036256358, 0.06795939, 0.013231701, 0.02490323, -0.17131558, -0.14075084, -0.25157765, -0.13096127, 0.06386538, -0.0016138522, 0.0028549859, -0.148118, 0.08601282, -0.008222024, -0.123062246, -0.0023342478, -0.0103525035, -0.07213763, -0.04171272, 0.15754439, 0.07102711, -0.028000575, -0.061700415, -0.011441336, 0.094733335, -0.071499914, 0.09294435, -0.08831012, -0.03512095, -0.01462077, 0.00619192, 0.0015034713, 0.010577985, -0.016483895, 0.07316869, 0.16724645, -0.04730355, -0.09771359, -0.04512028, 0.10888753, 0.07276616, -0.06246817, -0.044319697, -0.030655632, -0.0047449567, 0.028996682, -0.05092428, -0.053566385, 0.09128471, 0.021056145, -0.0027970832, -0.092526354, -0.0067922156, 0.13745509, -0.07012652, -0.1747957, 0.055001426, -0.094956934, 0.07413529, -0.02045045, -0.036143843, 0.071490414, -0.020979004, -0.044925485, 0.16834636, 0.0992872, -0.09116465, 0.03861269, 0.02442857, 0.24422598, 0.13490316, -0.09122479, -0.019329373, -0.10226298, 0.09147034, 0.08344832},
                             {0.07007571, -0.03586609, 0.12241146, -0.02467997, -0.103159204, 0.00656493, -0.008277934, 0.14959882, -0.12521628, 0.033389576, -0.000736049, -0.07671057, 0.025824128, -0.076105475, 0.2219248, -0.044800714, 0.11673226, 0.03633449, 0.17534304, 0.017251836, 0.0953692, 0.031495627, 0.013076509, -0.13375352, -0.016166942, 0.07667111, 0.031934995, 0.03818964, 0.1024993, 0.014656775, -0.012438939, -0.05154411, 0.13643235, 0.0024914965, 0.10627949, -0.039334808, 0.018468723, -0.03730249, -0.037356947, -0.07322169, 0.0058048046, -0.04448048, 0.054996405, -0.06738213, -0.13157254, -0.10708723, 0.026200168, 0.049510587, 0.0888153, 0.0024652716, 0.064879164, 0.12311006, 0.036560025, -0.10314988, 0.091321446, 0.0726338, 0.038279884, -0.11471414, 0.054943323, -0.039986495, 0.025916789, -0.01670293, -0.05009237, -0.07967121, -0.04550702, 0.09365393, -0.04218812, 0.006153681, 0.045756724, -0.08684428, 0.03830886, -0.044666193, 0.10255225, 0.124876484, -0.07100697, 0.027119905, -0.08987055, 0.016536362, -0.06265488, -0.13434553, -0.10044286, 0.023852663, -0.011087698, -0.06425309, 0.028338512, -0.0104920445},
                             {-0.10377297, 0.011914797, -0.11841591, 0.09579597, -0.1345392, 0.12635814, 0.075565755, -0.13057232, -0.02383899, 0.07805221, 0.088217385, 0.090421416, 0.055630926, 0.0745741, -0.088609904, -0.20107795, -0.087506905, -0.04040557, -0.00039806034, -0.1280998, -0.010765017, 0.04538213, 0.084802344, 0.009822169, -0.017441468, 0.08981932, 0.055135924, 0.044032943, -0.061541975, -0.06391785, -0.050700102, -0.117357016, -0.12339576, -0.12609343, -0.07888203, -0.07492455, -0.094543435, 0.07128714, 0.027536508, -0.02359275, -0.038951527, 0.046643533, 0.057583548, 0.117806785, 0.14710845, 0.008650642, -0.08560757, 0.028756356, -0.078349896, 0.0020815379, -0.06957224, -0.059301566, -0.030027803, -0.04679861, 0.046113, -0.04954224, 0.06699862, -0.025159225, 0.1116217, 0.013560957, 0.06556809, 0.08119372, 0.03262341, -0.08344879, -0.10806399, -0.010115079, 0.07737782, 0.097525895, -0.039109413, -0.07069851, -0.14295983, 0.017543925, 0.034019906, -0.13366286, 0.15753695, 0.09195165, 0.048677992, -0.0135507025, 0.06358224, 0.0073458194, 0.049308993, 0.05992985, 0.07798178, 0.020197215, -0.008769828, -0.06760034},
                             {-0.02613502, -0.15918079, -0.25657386, 0.050371412, 0.1073584, -0.04851172, 0.0324564, -0.32374257, -0.17113522, -0.0030862226, -0.070170596, -0.034199454, 0.022641458, -0.009297817, -0.33201456, -0.35261005, -0.30450362, 0.01107656, -0.05819087, 0.13230969, -0.054136764, -0.20451373, 0.13679063, 0.20773223, -0.11903592, 0.025771016, -0.09748641, 0.060344983, -0.036668908, 0.13975666, 0.002219207, -0.11934216, -0.08802972, -0.012281862, -0.012717672, 0.12074392, 0.09197932, -0.045557078, 0.09006633, -0.050308518, -0.0018750816, 0.073779546, 0.052667424, -0.07484095, 0.04666068, 0.07924267, -0.0748909, -0.038457233, -0.10637666, -0.025938103, -0.01491692, -0.09553092, -0.005363738, 0.03969372, 0.05539214, -0.023675397, -0.06368373, -0.028814577, 0.096070506, 0.20042764, -0.07574767, 0.09591784, 0.040670734, 0.08304301, -0.04740814, -0.18005596, 0.020863555, -0.07550215, 0.06641552, 0.08264578, 0.032452326, 0.080253184, -0.13984469, 0.07057349, 0.23595232, 0.027807534, 0.048079617, 0.07249881, 0.016479025, 0.20001493, -0.013104739, -0.16750874, -0.060260285, -0.08821165, 0.13189831, -0.020742979},
                             {0.005551434, -0.12683453, -0.30430913, -0.005880106, 0.03548843, -0.023470525, 0.07121533, -0.23104763, -0.1418796, -0.13495298, -0.05780644, -0.07689482, 0.08901456, -0.05182143, -0.19254145, -0.22127993, -0.27615076, -0.094923496, -0.07194811, 0.008967532, 0.05539589, -0.09725051, 0.09535749, 0.045713615, -0.009273219, -0.09364443, 0.008228654, -0.04855231, -0.07886322, 0.058728002, 0.041651007, -0.07780318, 0.014743091, -0.118940465, 0.071035415, 0.10289996, 0.0161798, -0.16240798, 0.03230148, -0.0348626, -0.08564607, -0.008358078, -0.06763436, -0.054794166, 0.10871594, 0.169588, -0.14187689, -0.019271182, -0.059811827, -0.029123273, 0.10335038, -0.10864819, -0.014247818, 0.0063917586, 0.012190652, -0.023793325, 0.011620894, 0.09251687, -0.0091821365, 0.20799927, -0.11451558, 0.014913163, 0.025854677, -0.009609352, -0.0011500677, -0.05913772, 0.0070770346, 0.04942644, -0.108352266, 0.07500489, -0.11440447, -0.01834248, -0.0470865, -0.0606, 0.25268397, -0.07990193, 0.092499316, 0.053704776, 0.04941635, 0.21152075, 0.07304738, -0.16102561, 0.048414063, -0.19101721, 0.13150653, 0.004179811},
                             {0.0043753097, 0.07786964, 0.007670953, 0.081356406, -0.08833126, -0.07402156, -0.03797958, 0.027391886, 0.11444667, 0.087496474, -0.030457277, -0.04656579, -0.001469276, 0.025582325, -0.044026013, 0.18055388, 0.08353319, -0.0980732, -0.06142331, 0.10287325, -0.012744049, -0.027496034, -0.009925206, -0.049001407, -0.0175921, -0.020453056, 0.008097824, -0.051804014, 0.05837703, -0.06039077, 0.029926976, -0.11929442, -0.09658039, 0.037794042, -0.07607108, 0.11049009, 0.043213543, -0.028014993, 0.054394875, -0.07893496, -0.07101329, -0.075932726, 0.019187408, 0.039172698, 0.037227027, -0.02964409, 0.024492774, -0.053033773, -0.10094041, -0.04124655, 0.008476593, -0.08769841, -0.0009039968, 0.10961762, 0.08977891, -0.020655587, -0.05944264, 0.0027776067, -0.03314473, 0.028629193, -0.035658628, 0.0051052915, -0.07516833, 0.06303106, 0.06890154, -0.045647778, -0.04150419, 0.0044951392, -0.10487796, -0.006427354, 0.03412151, 0.0128882285, -0.06453848, 0.03779501, -0.09791027, 0.06102319, -0.047708523, -0.09139252, -0.009651957, 0.06996931, 0.005834176, -0.013896137, -0.046249673, -0.10251406, 0.018072333, -0.020750655},
                             {-0.058386818, -0.14482725, -0.29979092, 0.059258275, 0.04522284, -0.07159653, 0.06719681, -0.32879734, -0.19470616, 0.041309353, 0.09274525, -0.07776618, 0.0068146326, -0.04074365, -0.26074168, -0.08832166, -0.26847905, 0.08572054, -0.08783454, -0.017384758, -0.011890371, -0.115395196, 0.08278939, 0.14450264, 0.08084564, -0.033749763, 0.025740378, 0.061074883, -0.038591027, -0.039900128, -0.02067426, 0.009086658, -0.119903855, -0.030198, 0.06631983, 0.007862429, -0.021237321, -0.16894937, 0.050652847, -0.02978942, -0.073200524, -0.03140399, -0.07998755, 0.027527543, 0.1538181, 0.14032684, -0.13013181, 0.09825876, 0.0872352, 0.0120503055, 0.0104282815, 0.009766836, -0.046396255, 0.04339218, 0.09411074, 0.09485276, 0.07309477, 0.10754877, 0.06753924, 0.20445833, 0.07366491, -0.02329352, -0.029180199, -0.019240748, 0.014908688, -0.041935302, 0.0021631757, 0.08740511, -0.07236168, 0.10649377, -0.011778984, 0.006671223, -0.18557206, -0.031447154, 0.103632875, 0.088769466, 0.05081082, -0.11107782, 0.026251433, 0.06899723, 0.0058753784, -0.123201355, 0.027231999, 0.050225675, -0.035076216, -0.09263223},
                             {0.0530728, 0.12809993, 0.1660387, -0.057133093, 0.00033354852, -0.045176223, -0.022329075, 0.23524277, 0.11240606, 0.18403903, 0.06392566, 0.053782947, 0.0018587278, 0.08516122, 0.3045085, 0.18050067, 0.3180677, -0.03327226, -0.021386245, -0.05122411, 0.093119904, 0.034485098, 0.0105952015, -0.0874918, -0.07032095, -6.880512e-05, 0.012751722, -0.021587795, 0.055960394, 0.055320952, -0.05046151, -0.08123309, 0.042836722, 0.086803205, -0.1106787, -0.06265234, -0.052328013, 0.023707695, 0.021357408, 0.0040847026, 0.024001341, 0.043103922, -0.022598766, 0.08026144, -0.041268524, -0.16307408, 0.21297127, 0.11010454, 0.088068776, -0.09269733, -0.066027865, 0.07351083, -0.070168324, 0.11237798, 0.072375625, -0.034845598, 0.078542806, -0.03135299, -0.044796333, -0.15645514, 0.17062767, 0.026331957, 0.092786066, -0.023146516, -0.07637255, 0.17320675, -0.011937092, -0.039895084, -0.03483048, 0.10008748, 0.13116637, 0.00581718, 0.03954556, 0.096834734, -0.225087, 0.093053356, -0.0553556, -0.0140282065, 0.10472888, -0.088935, -0.060372315, 0.068362035, -0.08666836, 0.108007, -0.047414973, 0.055039957},
                             {0.0022517666, -0.05669676, 0.05844648, 0.10371338, 0.003490284, 0.09732407, 0.0604396, -0.007511385, 0.08896041, 0.07628785, -0.024602085, -0.09607169, -0.04132668, 0.019211397, 0.066011235, -0.03310805, 0.08950065, -0.0055119023, -0.06580621, 0.045615762, -0.024212286, 0.07197742, -0.101664, 0.03687343, -0.025184914, -0.043168858, 0.042912513, -0.017204225, -0.031962685, 0.016218618, 0.040236175, -0.06829284, -0.01758556, 0.07400891, 0.06859347, -0.091180906, -0.090954274, -0.0044640377, -0.047246754, 0.1028803, -0.093540475, -0.0050550103, 0.0073786303, -0.104710184, 0.04093066, -0.09000505, -0.032824755, 0.05998808, -0.09480634, 0.00063610077, 0.009211376, 0.078679994, -0.029586598, 0.062406972, 0.027978167, 0.02189137, -0.022013322, 0.019695222, 0.08332123, 0.059611246, 0.019525811, 0.020743072, 0.08186281, 0.06448348, 0.0034716055, 0.09925902, -0.020278178, -0.037967652, -0.059771854, -0.06467107, -0.10621364, 0.075626045, -0.09772889, -0.09624888, -0.004082665, 0.098559245, 0.06915574, -0.044056714, -0.038606077, 0.01190152, 0.0022320077, -0.069069214, -0.08270286, 0.042003512, 0.092474, 0.021122396},
                             {0.09952366, 0.19352292, 0.26885685, 0.04533334, 0.08934641, -0.043036986, 0.06299618, 0.34036356, 0.23865856, 0.06932357, -0.053848546, -0.11749637, 0.052358773, -0.042820115, 0.23822841, 0.3755761, 0.33378133, 0.009040056, -0.09792043, -0.119465746, 0.001293878, 0.1863661, -0.013678969, -0.050608385, 0.084212944, -0.070037544, 0.043562893, -0.023031674, 0.1783756, 0.004379034, -0.11566989, -0.0727867, -0.096287355, 0.092553444, 0.058707543, -0.02913709, 0.0702796, 0.09201807, -0.0038229935, -0.020774001, -0.027377753, -0.11887513, 0.052653745, 0.01679811, -0.14408529, -0.015409306, 0.1652285, 0.0043031084, 0.026656475, -0.014208406, -0.012623786, 0.11580833, -0.1010682, -0.05166469, 0.05592228, -0.0047877156, 0.012980522, -0.012205648, -0.11806453, -0.122269355, 0.18248694, -0.020274425, -0.013760507, 0.02302, -0.009669624, 0.2463872, 0.03268432, -0.02299738, 0.060992748, -0.008917137, 0.12218947, 0.021390395, 0.0052405214, 0.047550153, -0.17408083, 0.053161442, -0.021846578, 0.09266557, -0.11561093, -0.12566824, -0.08301707, 0.2583982, -0.0045668124, 0.18455407, -0.09530271, -0.026884554},
                             {-0.14131093, -0.046979476, 0.063926004, 0.06244781, -0.022039259, 0.05806636, -0.024728535, -0.047631178, -0.010797567, 0.05708647, -0.070022635, -0.06986847, 0.0113762645, 0.021649646, -0.03986204, 0.13129248, 0.13433748, 0.112085536, -0.18771528, 0.026428213, 0.042390157, -0.03310492, -0.016465994, 0.06615558, -0.099267624, 0.07052761, 0.09302598, -0.023401247, -0.011242474, -0.112804085, -0.017272182, 0.06955732, 0.0008636785, -0.0962359, -0.07910599, -0.03363896, -0.04262839, -0.074444294, -0.022544108, 0.055730995, -0.0074783755, 0.086989015, 0.023637768, -0.044361316, -0.021868642, -0.05531397, 0.12749197, -0.06692074, -0.03091456, 0.0033833918, 0.033238716, 0.09112533, -0.031366467, 0.03482734, 0.0601624, 0.079484165, -0.102178805, 0.076810345, 0.096840784, -0.03575714, 0.10054107, 0.09992211, -0.08768001, 0.009009671, -0.0004303457, -0.028056622, -0.12065703, -0.106601484, -0.040951416, -0.010792131, -0.051279943, -0.021632494, -0.10181559, -0.043337908, -0.1219579, 0.021406919, 0.070895344, 0.11624009, 0.0650257, -0.058640193, 0.12848693, 0.101159655, 0.08475239, -0.089549825, -0.015584136, -0.033949442},
                             {0.030108884, -0.03325562, -0.24095537, -0.071357474, 0.025600348, -0.09159933, 0.088629425, -0.15520065, -0.03140495, -0.14026812, -0.0032989392, 0.055025037, -0.04239189, -0.039855435, -0.23543261, -0.20955855, -0.2580767, 0.024170388, 0.017122606, 0.108598955, 0.021104377, -0.15908167, 0.04242226, 0.11814743, -0.064292215, 0.047611557, 0.09321152, -0.08086332, 0.0004301372, 0.06798398, 0.009672922, -0.07383558, 0.05047849, 0.059498277, -0.034552816, -0.006632942, -0.09572103, -0.170118, -0.0018676068, 0.08546822, 0.104435734, -0.002065673, -0.024552193, 0.0788884, -0.0049021547, 0.005363805, -0.03907502, -0.090248935, 0.057207838, -0.035149664, 0.07170809, 0.0072852895, 0.07612119, 0.08470995, 0.030743374, 0.08622807, 0.0682102, 0.00034386577, 0.04252002, 0.09389387, -0.00393576, 0.079688154, 0.0206808, 0.06523737, -0.058301274, -0.051933166, 0.07287394, -0.10135725, 0.029937573, 0.03641345, -0.10326746, -0.020317936, -0.025168454, -0.022394719, 0.22582063, 0.059936956, -0.05987263, -0.03963319, 0.065666124, 0.06660329, 0.039865684, -0.11462839, -0.08688875, -0.050740466, 0.13555956, 0.047364093},
                             {-0.038227666, 0.06883564, 0.13266622, -0.073571034, -0.090862125, -0.013006718, -0.06249508, 0.17332831, 0.11511205, -0.0012683296, 0.024222001, 0.009601769, 0.023832418, 0.007759885, 0.08441128, 0.040069573, 0.19645, -0.052756798, 0.0063023753, 0.06844102, 0.058082934, 0.13802032, 0.013762388, -0.012263154, 0.06171917, 0.014253148, -0.08730062, -0.07339237, 0.12346733, -0.04734835, 0.06325163, -0.09308845, -0.010586003, -0.067329764, 0.010800546, 0.045880355, -0.046189908, 0.13103, -0.012710729, 0.016219554, 0.099555336, 0.05604278, 0.022650441, 0.12576565, -0.04303223, 0.06776678, -0.0092279, -0.007783964, -0.081252135, 0.03954762, 0.009404227, 0.07680799, -0.09881755, -0.09227371, 0.013845749, 0.049432494, 0.109879926, -0.07740289, -0.01257687, -0.11525772, 0.12742989, -0.06864721, 0.076943375, 0.050339125, 0.010127525, 0.14219294, -0.02624083, -0.06865473, -0.09748804, 0.062079884, -0.07632656, -0.0016824347, 0.08694525, -0.0023664113, -0.03363202, -0.031217948, 0.12330658, 0.010588316, 0.060624294, -0.02431515, 0.018755967, 0.0354966, 0.032794807, 0.10893959, 0.028760852, -0.00041351965},
                             {-0.1695093, 0.023738146, -0.36055595, 0.006625644, 0.07620625, -0.115663655, -0.03015422, -0.35582682, -0.1577267, -0.18973069, -0.012410549, 0.028117852, 0.06285707, -0.02526887, -0.34315816, -0.22864237, -0.252208, 0.048504893, -0.023383385, -0.00575696, 0.0024038295, -0.2568934, -0.12478369, 0.12526578, -0.06841889, -0.10760299, 0.10377741, 0.036692012, -0.17329952, -0.042473625, 0.11950907, -0.100781, 0.010179618, -0.046454065, -0.13346599, 0.064479835, 0.03739508, -0.21094722, 0.13076107, 0.04746341, -7.528375e-05, 0.047565907, -0.062640935, 0.14513105, 0.1717112, 0.17801017, -0.19333963, 0.0400672, -0.093567096, 0.009507595, -0.0938333, -0.13544825, 0.08776919, 0.0652078, 0.027581144, 0.046062525, -0.04948179, -0.084144734, 0.16468093, 0.09221119, 0.001973085, -0.08943283, 0.008349645, -0.01928046, 0.001682722, -0.17439952, -0.0048927697, -0.07722906, 0.08119788, 0.085079536, -0.077133566, -0.10091564, -0.048903268, -0.017592728, 0.22686732, -0.01378756, -0.020739138, 0.043379292, 0.057017617, 0.17317678, 0.21420921, -0.19479194, 0.048620287, -0.007224859, 0.20444395, -0.021622358},
                             {-0.12114104, -0.057532042, -0.13421385, -0.022403853, -0.0888836, -0.13056207, 0.041072644, -0.29878125, -0.27030852, -0.123263165, 0.09932728, 0.012384818, -0.08446981, -0.05067076, -0.21813852, -0.13041222, -0.24241042, 0.0007765107, -0.09523864, 0.041519664, 0.053126253, 0.004236413, -0.040502023, 0.015925704, 0.026505874, 0.086737595, -0.031597134, -0.090814, -0.064539626, 0.058753442, 0.051005457, 0.02994172, 0.01913471, -0.051777456, -0.095429, -0.06051056, 0.07102794, -0.1293822, 0.14258575, -0.010343956, 0.11287499, 0.10525115, -0.061579376, 0.005359475, -0.01599755, 0.08447335, -0.1389025, 0.105534524, 0.028030733, 0.09187718, -0.10879406, -0.097126715, 0.107941516, 0.07600788, -0.08243858, 0.086634174, -0.08396118, -0.10214881, 0.029072221, 0.20648703, -0.10078771, -0.09877091, -0.041085955, 0.057043847, 0.032959025, -0.20179383, -0.036542974, 0.10611959, -0.018686363, -0.09944182, -0.08532103, -0.024065027, -0.14979015, -0.046129797, 0.22531743, -0.024187908, 0.018334761, -0.08954218, 0.12425712, 0.23745187, 0.22298704, -0.04214064, 0.015030353, -0.020487355, 0.08203562, 0.1108139},
                             {-0.038402572, 0.08583603, 0.02817094, 0.082074694, -0.06680369, 0.016374527, -0.019427005, 0.00919741, -0.013467148, 0.009409269, 0.039639, -0.09070564, 0.018961433, -0.06955497, -0.010205088, 0.12909177, 0.13973874, -0.109429315, -0.05630342, 0.086329445, 0.09517462, -0.05424798, -0.077555254, -0.12631738, 0.047155682, 0.113603786, 0.057044573, -0.02359506, 0.06779591, 0.03236511, -0.03056499, -0.0129974615, -0.0998569, -0.037224557, -0.02385951, -0.05476184, -0.0847064, 0.13271843, -0.022184528, -0.04161332, -0.045702126, 0.008099502, 0.0329759, -0.009689059, 0.061268333, 0.033978727, 0.030976644, 0.041789632, -0.0018353083, 0.0075398446, 0.06450121, -0.022257905, -0.09037359, -0.06869911, 0.07371897, -0.042213425, 0.043884877, -0.102897525, -0.1080787, -0.085406646, 0.052106388, -0.0367568, 0.099700294, 0.064659774, -0.044094894, 0.11934392, -0.07409322, 0.015823454, 0.09203483, 0.00025323688, 0.016234213, -0.03397586, 0.053670056, -0.02093857, -0.010245685, 0.010626495, -0.026787497, 0.09266324, -0.07942577, -0.023412533, -0.10626672, 0.10611215, -0.086015604, 0.055447657, 0.028679932, 0.0045475634},
                             {-0.04040442, 0.29110467, 0.37752303, 0.1050067, -0.07879853, 0.026139226, 0.019256817, 0.27694336, 0.17480823, 0.12322539, 0.11095836, -0.069120005, 0.10648886, -0.07058322, 0.4069343, 0.34279087, 0.25050992, 0.018242562, -0.092209704, -0.013914114, 0.08196748, 0.14362022, -0.08844377, -0.2183344, 0.13705747, -0.00017251231, -0.08388027, 0.06685724, 0.18402407, -0.14231008, -0.12009555, -0.003926349, -0.050585028, 0.09294997, 0.031284258, 0.014581443, 0.08618533, 0.22208089, 0.08030344, 0.090546004, 0.034265675, 0.024965344, 0.057337943, -0.0034901444, 0.0014403025, -0.0004220984, 0.12566744, 0.105020076, 0.024892323, 0.037056033, -0.06961555, 0.21244861, -0.02262763, 0.08242567, 0.16136989, -0.06937934, 0.08760018, -0.088097274, -0.10523076, -0.008678326, 0.06101917, 0.11019372, -0.09375877, 0.059469316, 0.073853336, 0.13643165, -0.07377956, 0.021860238, 0.0014724457, -0.005732502, 0.022519048, 0.07319934, 0.037066802, -0.031484246, -0.30541822, 0.10660018, 0.11053064, -0.050391305, 0.026544299, -0.2707055, 0.036815163, 0.11305411, 0.052590437, 0.17967178, -0.20634322, 0.012554474},
                             {-0.070292614, -0.0076527684, -0.185995, 0.08440026, -0.011742957, -0.05934274, 0.050964583, -0.22876246, -0.08279022, -0.14751689, -0.08761524, 0.06253006, -0.03036419, -0.07629953, -0.2715974, -0.29518, -0.20856208, 0.0734797, -0.0071023777, 0.028404983, -0.015726568, -0.12159536, -0.08537382, 0.13391568, 0.06179989, 0.09063565, 0.08811721, -0.0980791, 0.007826175, 0.06511605, 0.09646718, -0.04311549, 0.023912368, 0.113433346, -0.010194492, -0.07259733, -0.026338033, -0.18050247, 0.0043222923, -0.030360747, 0.007943202, 0.046942174, -0.10198963, -0.078894556, 0.011048824, 0.029502608, -0.028747683, -0.019932978, -0.04192404, -0.0120264795, 0.05395714, 0.00014569802, 0.023665123, 0.07967815, -0.037741907, -0.018879162, 0.0046389494, -0.067559935, -0.0029109938, 0.080420665, 0.07809816, -0.03866567, -0.0837045, -0.02888644, -0.035453003, -0.20076036, 0.11499156, 0.09675301, -0.088568784, -0.0007390333, -0.09231493, 0.06932433, -0.147988, -0.052752618, 0.039288137, -0.05561435, 0.10493283, 0.1604633, 0.0017868732, 0.16585939, 0.16815935, 0.028776659, 0.0586565, -0.08550822, 0.0959183, 0.06693489},
                             {0.089987226, -0.022837996, -0.0055934507, 0.037582304, -0.051661067, -0.058467865, 0.05660602, 0.13486634, -0.022138957, -0.027575664, -0.10191074, 0.09969201, -0.059934333, 0.0047436366, 0.11988153, 0.0633475, 0.062007364, -0.046940062, 0.08859369, 0.051998872, -0.08498065, -0.050073314, 0.068453364, -0.10108672, 0.040326476, 0.002039868, -0.09559386, -0.058321763, 0.108711705, -0.0018111091, -0.052032698, 0.07806431, -0.036000304, 0.0549832, 0.042527754, -0.06918324, -0.07242483, 0.0026904882, 0.11024926, -0.010476646, 0.07080823, 0.07195959, -0.10779529, 0.043992773, -0.09097917, 0.06111266, -0.10328185, 0.030288447, -0.064601414, -0.054229908, -0.038224544, 0.09405335, 0.0010287884, -0.053215235, 0.10680779, 0.0132887475, 0.018325645, 0.0774161, -0.060006566, -0.09335781, 0.0124375215, 0.03064955, -0.0019920175, 0.005720127, -0.10199283, -0.034155153, 0.009697227, -0.03712858, -0.062341668, 0.042256985, -0.097993515, 0.050441965, 0.13929299, 0.06908761, 0.1056364, 0.102447525, 0.033861283, 0.07640933, 0.00809013, -0.064810775, -0.09422263, -0.10985617, -0.05265353, -0.12524559, 0.018031495, 0.057566643},
                             {-0.024098389, -0.03508927, -0.11001011, -0.06581627, 0.079834595, 0.047527943, 0.0059970114, -0.13664088, -0.105787314, -0.090424255, -0.032713946, -0.08114082, 0.047784485, 0.06532316, -0.038819175, -0.06581668, -0.09232176, -0.051904067, -0.09228105, -0.027932478, 0.01959184, -0.04422405, 0.07064195, -0.06192437, 0.09724868, -0.0915455, 0.016976463, -0.066688426, -0.0336179, 0.040448006, 0.011170277, 0.10261282, -0.0044466653, 0.037869968, -0.02654717, -0.04287114, -0.04060228, -0.041647404, 0.05791101, 0.013194126, 0.023047348, 0.051847685, 0.017005244, -0.029814418, 0.08139249, 0.095455445, 0.09326027, 0.029853627, -0.07162655, -0.06802123, -0.084059834, 0.06402175, 0.040490344, 0.04295881, -0.02061094, -0.039457213, -0.006658883, 0.042996712, 0.0142897945, -0.051995844, 0.008620602, -0.06593602, -0.08970323, 0.05536244, -0.05645731, 0.06007131, 0.014819814, 0.014954056, -0.032528494, -0.03320493, -0.063632004, 0.096478604, -0.10016337, 0.01730794, 0.050512698, 0.08728981, 0.071424596, -0.09771414, 0.0019248661, 0.0089368215, 0.090691954, -0.053819105, -0.09893713, -0.085038915, 0.09645267, 0.036311068},
                             {-0.071465366, -0.06727892, -0.17590478, -0.045958895, 0.019778322, 0.0050975825, -0.09498879, -0.24529059, -0.055739034, -0.025371995, -0.10094182, -0.009145918, 0.024582816, -0.08170405, -0.15421762, 0.06460706, -0.16895525, -0.02426729, -0.024909774, 0.102007024, 0.026617888, -0.13523771, 0.0060909716, 0.048036974, -0.10134001, -0.086725816, 0.08083584, 0.025182914, -0.14521003, -0.12999716, -0.018717038, -0.1504682, -0.13032499, 0.038719676, -0.09157815, -0.030809596, -0.0039513437, -0.0012042597, 0.08450834, 0.038094997, 0.06986409, 0.037759718, -0.009171996, -0.0153777385, 0.048640113, -0.0643062, -0.11202787, 0.0014735023, -0.010756013, 0.084485814, 0.015224857, 0.03781938, 0.021834303, -0.0057957973, 0.060841605, 0.08429876, -0.101998754, 0.10494269, -0.05046447, -0.006632754, -0.07743741, 0.03218637, -0.08991102, 0.00015175945, -0.06411413, 0.03402021, 0.040094744, -0.15215322, 0.023190292, -9.223298e-05, 0.00018778605, -0.10387801, -0.0535379, 0.015411182, 0.16195497, -0.025519356, -0.02495896, -0.076736815, 0.0032736473, 0.06370657, 0.047554534, -0.043430936, -0.08318861, -0.05499422, -0.024329579, -0.08182339},
                             {-0.17905167, -0.18786505, -0.42072487, 0.013135141, -0.106846854, 0.04073666, -0.07181251, -0.3581457, -0.1999137, -0.1228279, -0.09946344, -0.063272424, 0.023670634, 0.02271962, -0.25139543, -0.39635786, -0.37420976, -0.05080126, -0.03103957, 0.06482425, 0.038083065, -0.2243597, 0.13745423, 0.15234497, -0.072736815, -0.09979355, -0.022529544, -0.038027357, -0.20107204, -0.008898546, 0.0983596, -0.11578976, -0.11553527, 0.0008094171, -0.074412026, 0.07117752, 0.08756674, -0.13057321, 0.09565524, -0.029727446, -0.07134161, -0.033272147, -0.016234986, -0.055116158, 0.18324855, 0.21093799, -0.15038727, -0.04996099, -0.03606497, 0.08033982, -0.05998, -0.117173225, -0.011306058, 0.02675135, -0.06409581, -0.045496818, -0.113578066, 0.017030563, 0.129808, 0.21751133, 0.023816485, 0.009740214, 0.036404822, -0.039999414, -0.045748472, -0.13277076, -0.026893785, 0.011698553, -0.004473834, -0.07101817, 0.035741605, -0.060613148, -0.12753579, -0.0031881537, 0.24078698, 0.064419806, -0.067767486, 0.124776304, -0.03528458, 0.22977263, 0.042460486, -0.16906577, 0.0174788, -0.08179117, 0.13508084, 0.11832236},
                             {-0.037959047, -0.10478825, -0.08836518, -0.0028899144, 0.016890889, 0.08193476, -0.017571105, -0.24657704, -0.13817048, -0.1496012, 0.07333387, 0.018518494, -0.082908474, -0.09394125, -0.27944738, -0.048427854, -0.11120935, 0.06421014, 0.06957821, 0.09557044, -0.07916925, -0.03085895, 0.025017217, 0.12300486, -0.049198158, 0.036654178, -0.0736711, -0.09796256, -0.040533457, -0.03916062, 0.09973843, 0.024102604, 0.095875755, -0.026865799, 0.018297799, -0.09896713, -0.06244376, -0.07542863, -0.06360076, -0.08921048, -0.050211556, 0.002744905, -0.078114174, -0.11866097, 0.11295406, 0.1108569, -0.077170216, -0.11430614, 0.066811085, -0.024452105, -0.03727978, -0.0057396227, 0.018665273, 0.039365597, -0.10347947, -0.011781142, -0.061129354, -0.058924936, 0.05418841, 0.038993444, -0.13112424, 0.027627198, 0.031625424, -0.058537886, -0.09375244, -0.14830668, 0.11839184, -0.042487726, -0.049977437, -0.11996065, -0.026422296, 0.04740975, -0.039450265, 0.012352511, 0.026682999, 0.04216805, -0.05997789, 0.03479238, -0.06681633, 0.15485719, 0.09694987, 0.008069493, -0.076788045, -0.06576577, 0.05293239, -0.09713142},
                             {0.038868066, -0.02155603, -0.059241, -0.10444621, 0.04630957, 0.003036116, -0.0001242209, 0.060431894, 0.014123988, -0.10295219, 0.08254658, -0.06981983, -0.020695722, -0.08228128, 0.08234892, 0.06683786, 0.07189234, -0.053638287, -0.04333226, 0.002393002, 0.07972235, -0.10168055, 0.049271584, -0.0138784675, -0.10440857, -0.08702711, -0.11744528, 0.047738645, -0.008550679, -0.0061007394, -0.08728545, -0.086419724, 0.008667152, 0.08894057, 0.06651691, 0.0063482593, -0.09554469, -0.017674718, -0.0584402, 0.04679004, -0.09666436, 0.057264354, -0.10693318, -0.072383866, 0.06110544, -0.112620234, -0.024894208, 0.05877211, -0.02628352, -0.049254682, 0.07366398, 0.0027558107, -0.026184494, -0.042533167, -0.04611686, -0.007442152, -0.11966647, -0.006874254, 0.07379259, 0.010252087, 0.042363085, 0.046187863, 0.037008073, -0.07302357, 0.0034477853, 0.0002458521, -0.019027637, 0.00377982, -0.07862456, -0.016295299, 0.011949176, -0.0038561104, 0.054760616, -0.011615617, -0.06861153, 0.03335716, -0.045278847, 0.07373658, -0.06926335, -0.054601476, -0.032606844, 0.09469166, -0.019965569, -0.054822706, 0.016893895, 0.049812563},
                             {0.032613114, 0.0039845183, 0.04551185, -0.046563897, 0.057057336, 0.01695902, 0.021996077, 0.006918556, -0.04295027, 0.033153385, 0.110239886, -0.0015020389, -0.0034828575, -0.078132756, 0.0560544, 0.076040514, 0.19451965, -0.008036461, -0.12896784, -0.07847401, 0.06329033, -0.04104215, -0.08041439, 0.019741613, 0.06199369, 0.07367246, -0.043079313, -0.09214203, 0.13323852, -0.1100927, -0.11794276, 0.08681348, 0.022296887, -0.08880644, 0.051199947, 0.10359642, -0.059748948, -0.06333118, -0.03431243, 0.045236804, 0.062786885, 0.00056114356, -0.034160186, -0.009393943, 0.07196593, -0.09932546, -0.045984577, 0.09563203, 0.10121704, 0.026698709, 0.06966531, 0.088428915, 0.0052268985, -0.066648155, 0.09519753, 0.08029488, -0.002960643, -0.013687597, -0.07483884, -0.071141824, -0.033182066, -0.0133971935, -0.008720163, -0.04290666, 0.07269127, 0.028252253, 0.05549462, -0.0720158, 0.08575737, -0.03943036, -0.015463782, 0.08327139, 0.11769737, 0.099627234, 0.027029067, 0.10404384, -0.12443842, -0.09227087, 0.04417394, 0.03318903, 0.026192142, -0.05224498, 0.092045225, 0.008689559, -0.09098373, 0.047223456},
                             {-0.11277861, 0.17524287, 0.20005609, -0.039876897, 0.09225329, 0.01409983, 0.010344858, 0.04639596, 0.1742544, -0.0043040654, 0.10942527, 0.071998335, -0.05018669, 0.08868759, -0.048432298, 0.26242143, 0.11161591, 0.001252736, -0.16541703, 0.08888258, 0.0030609735, 0.10600451, -0.021355622, -0.056736868, -0.011577148, 0.051747683, -0.0011945291, -0.035235014, 0.024362879, -0.15180439, -0.09578812, 0.0070085484, 0.06930503, 0.117520824, 0.037698653, 0.09655569, -0.052987725, 0.0018637169, -0.015191503, 0.0016310533, 0.022200191, 0.11183484, 0.03418399, -0.042395268, 0.06982487, 0.04819373, 0.09032983, 0.0040796474, -0.11581809, -0.108431354, 0.08685253, 0.10192195, -0.13869762, -0.0492993, 0.06947419, 0.035068274, 0.02685204, 0.08055419, -0.00040763285, -0.1517888, 0.1556519, 0.114942946, 0.04917153, 0.012809189, 0.089776635, 0.076728694, -0.13534911, 0.09862912, 0.0018615267, 0.030075634, 0.07654214, -0.06112373, 0.010808279, -0.013312168, -0.02424949, -0.040514022, -0.032400824, -0.03564418, -0.09475928, -0.17125927, 0.11156977, 0.045420215, 0.08935254, -0.06056214, -0.07193209, -0.053205617},
                             {0.09916675, -0.05906891, 0.026869329, -0.09565421, -0.063371584, 0.07920629, -0.06637313, 0.23713522, -0.14757249, 0.020450162, -0.08826913, 0.04812619, -0.0034806917, -0.007851533, 0.3129998, 0.023363726, -0.037700307, 0.00025555232, 0.07906804, -0.07469885, 0.034510635, 0.018446133, 0.0098141795, -0.09511992, -0.097857036, -0.07902016, -0.037376974, 0.014042912, 0.062329344, -0.04027534, 0.045617104, 0.12817907, 0.11946687, 0.051851302, 0.0898218, -0.09407888, 0.01804882, 0.0063671875, 0.008251937, -0.10584012, 0.014503877, -0.036653098, -0.017617276, 0.016170261, 0.0276005, -0.15605858, -0.093374, -0.11407648, 0.021112595, 0.088590875, 0.011610326, 0.08828351, 0.058592062, 0.01966166, 0.075932235, 0.056741115, -0.016906833, -0.1278822, 0.03815938, -0.12347909, -0.07093597, -0.05279227, 0.12861775, 0.113191314, -0.08034558, -0.04848813, -0.030739475, -0.07101529, -0.044055097, 0.025232743, -0.07374665, 0.008781184, 0.13794708, -0.04112141, -0.08673934, 0.072282165, -0.09951511, 0.07098436, -0.054154053, -0.10118694, -0.1424702, -0.11890958, 0.041401763, 0.080353, -0.12115989, 0.024075588},
                             {0.03839906, -0.13176066, -0.19246438, 0.055673655, -0.066795215, 0.024807889, -0.044871997, -0.24506575, -0.237563, -0.11780447, -0.099627964, 0.012780073, 0.048494197, -0.04098489, -0.22744627, -0.14401665, -0.186838, -0.061733548, -0.025447385, 0.060987007, -0.013747477, -0.11941484, -0.0087802885, 0.1196067, -0.12636779, 0.024385655, 0.05789408, -0.082509786, -0.07422401, 0.06425363, 0.1501513, 0.040898487, -0.09526546, 0.03363095, -0.06610264, 0.054582063, 0.08876754, -0.2026151, 0.082533695, -0.12393226, -0.16422299, 0.10749834, -0.039408937, 0.10005867, 0.13924873, 0.06537954, -0.21246642, -0.09188566, -0.11137332, -0.023621015, 0.0017430304, -0.08447341, -0.023895832, -0.042676974, 0.037406288, -0.0563947, -0.07789507, -0.08206745, 0.105431594, 0.14852612, -0.055257328, 0.0066430625, 0.027253797, 0.07856275, 0.0896394, -0.20744619, 0.092994116, -0.017266894, 0.079091825, -0.090676114, 0.03896107, 0.018396638, -0.13664067, -0.08535091, 0.108063765, -0.08106876, 0.010934394, -0.045771495, -0.024162155, 0.1311113, 0.033684425, -0.02233542, -0.037762173, -0.04293673, 0.029980347, 0.025430134},
                             {0.029375602, -0.06547419, -0.06866392, 0.06388237, 0.026200956, 0.07480042, -0.0006423433, -0.11931717, -0.05551224, -0.1383301, -0.10202902, -0.09150906, 0.10008177, -0.03759522, -0.13338736, -0.061046254, -0.18408538, 0.06821508, 0.12627207, -0.04130159, -0.034623656, -0.034893576, -0.072269745, 0.061193503, -0.12767135, 0.09557811, -0.09142533, -0.021375017, -0.08983436, 0.0913314, -0.0033044824, 0.08673769, 0.016398726, -0.0482842, -0.0467586, -0.027952973, 0.0783758, -0.07307644, 0.05434955, -0.08031331, -0.010199692, -0.10579046, 0.025171174, -0.04930219, 0.04810456, 0.13887185, -0.09241195, 0.035514772, -0.037774213, 0.09677136, 0.022442214, 0.0021843822, -0.030648693, -0.08900288, -0.022710979, -0.014451713, -0.0037978261, 0.00039067736, -0.031163158, 0.06403983, 0.04988792, 0.097049996, -0.102785125, 0.016380422, -0.06722149, -0.088153474, -0.07969091, -0.09889752, -0.05161855, 0.02407158, 0.0017918438, -0.017384753, 0.01998906, -0.012429661, 0.07837209, 0.04230286, 0.101418026, 0.09872508, -0.08996846, 0.19109409, 0.09963424, -0.01297164, -0.09350781, -0.14028023, 0.08406716, 0.09705677},
                             {0.120763496, 0.101181984, -0.03554799, 0.08130584, 0.10755535, 0.049457055, -0.0028557263, 0.022435028, 0.019562516, 0.013955516, -0.010904071, 0.046221737, 0.06942582, -0.06705529, 0.031584542, 0.0023023414, -0.037391365, 0.080538526, 0.06026075, -0.07787795, -0.02606438, -0.024068808, 0.06279591, -0.09986467, 0.070748605, -0.09250748, -0.119408086, 0.053660356, -0.10107656, 0.034832254, -0.08418795, -0.024376294, -0.08462007, -0.011943005, -0.02264617, -0.06424032, -0.013577497, 0.080844894, -0.029595729, -0.07934857, 0.05019105, -0.11974361, 0.045794833, 0.033754684, 0.05014288, -0.041119423, 0.0005458027, -0.0019673598, -0.09180515, 0.0409764, -0.08639202, -0.10232258, -0.030789178, 0.031794693, -0.030538697, 0.0066983355, 0.063870385, -0.015763134, 0.053747516, -0.08946301, -0.06169287, -0.0063957, 0.061501857, -0.09380205, -0.032132838, 0.014687626, 0.029482422, 0.07588265, -0.06660574, -0.022252776, -0.062110696, 0.06133549, 0.032795455, 0.03878278, -0.094467536, 0.08910395, -0.09070061, 0.05032547, 0.059061848, -0.016332971, -0.07442676, -0.012873793, 0.035841946, 0.01936252, 0.03150799, 0.051396336},
                             {0.0018626782, 0.010777019, -0.14180802, -0.108405925, 0.07261379, 0.026663937, -0.013129451, -0.18394397, -0.10342919, -0.03173775, 0.01258963, 0.09180758, -0.06918349, -0.095689826, -0.19425394, -0.054419305, -0.039751336, -0.0131707955, 0.072559066, 0.05588254, 0.037596904, -0.046427846, 0.08872537, 0.118892014, -0.013946512, -0.11309755, 0.07803286, -0.021725375, -0.10213538, 0.047197524, 0.05599888, 0.012239981, 0.030192025, -0.035621986, -0.074030824, 0.09584425, 0.051978365, -0.04255057, 0.079902835, -0.096673705, -0.06881245, 0.015831275, -0.023967711, -0.06312874, -0.049122456, 0.12840293, -0.120841116, 0.024386846, 0.06770816, 0.05997445, -0.05019759, 0.0295426, 0.01539968, -0.030800704, -0.020988854, -0.044508047, -0.020867128, -0.110089846, 0.05409478, -0.032566357, -0.077966765, -0.08238751, -0.03795874, 0.08346805, -0.022761397, -0.03896363, 0.06280094, 0.0095961625, 0.0455164, -0.09514427, 0.037502617, -0.11961822, 0.067754164, 0.03593432, 0.12556833, 0.048150867, 0.02595977, 0.02662499, -0.10126947, 0.12676252, -0.055890854, -0.007361235, 0.057447154, 0.0632734, -0.013344725, 0.009651107},
                             {0.0836987, 0.13595808, 0.21757336, 0.13060969, -0.07756461, -0.0058101546, 0.025964484, 0.27454773, 0.3129272, 0.16789964, 0.121841274, 0.06105086, -0.09484556, 0.032939572, 0.19537199, 0.30837297, 0.1796611, -0.08144989, 0.05298917, -0.086241424, -0.034420326, 0.13354306, -0.16390608, -0.056656867, -0.0042358637, -0.08917209, -0.024290072, 0.06252174, 0.10433591, -0.00018736883, -0.074098416, -0.0759648, -0.09242898, -0.020147655, -0.058610696, 0.10494479, -0.03277237, 0.022274511, 0.029853394, 0.09233224, 0.0892402, 0.1085382, 0.118419886, 0.091038756, 0.04560314, -0.00029188482, 0.22768228, 0.11397696, 0.04835864, -0.061984878, 0.009228832, 0.18787654, -0.09833159, 0.113001406, 0.10054403, -0.0056350525, -0.022903912, 0.074606225, 0.03436153, -0.004015687, 0.07426442, 0.08121279, -0.061321482, 0.01615319, 0.099551834, 0.14618953, -0.051349036, 0.0061262962, -0.03448474, 0.09291284, -0.10031474, -0.105632715, -0.08043926, 0.102475256, -0.08809514, 0.063093334, -0.075763725, 0.00090160605, 0.13032454, -0.1438606, 0.0005095268, 0.16119757, 0.029422494, 0.10926601, -0.17561887, 0.061863244},
                             {-0.19187422, -0.18951842, -0.27009475, -0.017213708, -0.027629312, -0.07435888, 0.012314842, -0.35745165, -0.31696656, -0.14585191, 0.029366083, 0.018788762, 0.0051182024, -0.10955819, -0.4775378, -0.3228158, -0.37404534, -0.0868347, -0.09994672, 0.12790558, 0.08844022, -0.11579943, 0.15179813, 0.23571265, 0.0050411476, 0.004645934, -0.068616286, 0.087956026, -0.21496868, 0.12762986, 0.16855717, 0.013113647, -0.061437536, 0.081639424, 0.013827279, 0.071007736, 0.03382989, -0.20889996, 0.157296, -0.0028258432, -0.019755606, 0.08761865, -0.089532726, -0.045038473, 0.1607644, 0.20687954, -0.047237184, -0.09449883, -0.009319992, 0.11324524, -0.064739645, -0.14364712, 0.037448753, -0.01222098, -0.014866042, 0.06073056, -0.094061024, 0.010652508, 0.051825777, 0.22238217, -0.104441114, 0.094438985, 0.11265771, 0.049638618, 0.08297329, -0.16344744, 0.08353257, 0.11057445, 0.08797925, 0.050827682, 0.06659191, -0.05356462, -0.068327725, -0.14415197, 0.30609563, -0.10270559, 0.11064427, 0.116597824, 0.055278104, 0.24253657, 0.13321136, -0.043762315, 0.00082348357, -0.015060682, 0.19797756, 0.117037825},
                             {0.11094808, 0.1168733, 0.13082308, 0.08090004, 0.113702945, 0.09064378, 0.0897188, 0.12481671, -0.07513808, 0.002862782, -0.063764356, -0.056796696, 0.038114075, -0.08155375, 0.10960162, 0.0038428395, 0.13408905, 0.012289044, -0.054055057, -0.037427753, -0.002517218, -0.07849507, -0.11461205, -0.019590639, -0.059803806, 0.06357628, -0.081937306, 0.04325793, -0.037357103, 0.088894375, -0.0016971848, -0.087253384, 0.07672103, -0.053453267, -0.0028126847, -0.04651217, -0.08180777, -0.005664771, -0.111123, -0.057817772, 0.005371364, -0.077853605, -0.030982628, 0.02860175, -0.0033389989, -0.03795099, -0.09936866, 0.008901357, -0.08269981, -0.017525153, 0.090166606, -0.075366944, 0.043269593, -0.06872967, -0.1132806, 0.02876977, -0.035536762, 0.041509923, -0.06756701, -0.11893659, -0.048382428, 0.017200824, -0.047033053, 0.033304777, 0.013398742, -0.091081426, -0.0019204696, 0.07898176, -0.10743706, 0.015429747, 0.07120137, -0.10425718, 0.0031281435, 0.035257243, -0.11245035, -0.0037501454, 0.00978868, 0.06203098, 0.026325434, 0.049734548, -0.047697015, 0.076759376, 0.036435284, -0.018926922, 0.058864065, 0.063811325},
                             {0.031726483, -0.056678537, -0.22247891, -0.04586964, 0.027007058, 0.06795533, -0.012622283, -0.1853338, -0.072061986, -0.06898935, -0.1454583, -0.047224298, 0.027114544, -0.060790956, -0.15890181, -0.19301754, -0.06424038, -0.09933721, -0.08609599, -0.025234602, -0.057432104, -0.07885914, 0.10389407, 0.07432308, -0.13415214, -0.04733848, -0.1148662, -0.0460464, -0.11283053, -0.032523375, 0.12651215, -0.035649423, 0.026409214, -0.028562712, -0.007258017, -0.077386044, -0.039817795, -0.05605586, -0.013923495, -0.06508507, 0.011623775, 0.020495655, -0.00955291, -0.11622584, -0.012733219, 0.044842802, -0.04352014, -0.09121562, -0.03607471, -0.04835519, 0.017880693, -0.037482895, 0.10616705, 0.0232292, 0.024054939, 0.0819801, 0.06629447, 0.029786909, -0.004618932, 0.038261242, 0.012296389, -0.09929845, 0.012481033, 0.024871808, -0.005451218, 0.01560729, 0.08943024, -0.090245895, 0.060571603, -0.010364056, 0.016978715, -0.1278626, 0.02395077, -0.0045272666, 0.14912067, -0.013675913, -0.12289676, -0.066054724, -0.095156476, 0.077630974, -0.079300635, -0.09449969, -0.033512786, -0.111433946, 0.021591792, 0.087500855},
                             {0.014884243, -0.1190039, -0.13576597, -0.07191392, 0.069904596, 0.029540222, -0.026347293, 0.07549165, -0.08812302, -0.07990984, 0.09090291, 0.022006394, -0.024968598, 0.09829299, 0.11309683, 0.0042313877, -0.15398733, -0.017748903, -0.045389324, -0.0341833, 0.088229746, -0.08833363, 0.016300758, -0.050477393, 0.08970072, -0.0134082595, 0.02956108, 0.06322468, 0.052233003, -0.039528225, 0.019794216, -0.027816404, 0.025533153, 0.029688984, 0.08470733, -0.040109325, -0.068544075, -0.04614625, -0.09011897, -0.025593966, -0.08098698, 0.0431091, -0.069241926, -0.055871196, -0.062283505, 0.052848678, 0.023167988, -0.03970354, 0.10133305, 0.014608242, -0.10184051, 0.022470288, 0.08554768, -0.09798853, -0.063520014, 0.065497495, -0.038447823, -0.0956628, -0.030708104, 0.01003834, -0.15285136, -0.026463164, -0.029530346, 0.005261448, 0.019600755, 0.035224155, 0.025933687, -0.061380062, -0.079451896, -0.07312084, -0.08718342, -0.050553557, 0.02636959, 0.040400077, 0.08786369, 0.101487294, -0.049620207, -0.10973869, -0.013500711, -0.014648756, -0.025719117, -0.1671985, 0.07262625, -0.1103687, -0.004818741, -0.07815824},
                             {0.10254913, 0.11599709, 0.2855322, -0.086442485, 0.06546612, 0.06483366, -0.052948855, 0.13929425, 0.031096844, 0.10068262, 0.08030249, -0.09274824, -0.10878212, -0.0021864804, 0.20656663, 0.2439823, 0.25866765, -0.035604794, 0.059244547, -0.10423407, -0.02329052, 0.2151266, 0.0018046785, -0.069275945, -0.064849794, 0.085191436, 0.06623189, -0.020715037, 0.15341671, -0.15604618, -0.043707877, 0.052053, -0.06452094, 0.03312585, 0.08599311, -0.111413814, 0.051621966, 0.055261187, -0.12996612, 0.016732132, 0.08979735, 0.00016662444, -0.072960906, -0.108179845, -0.089942776, -0.026907437, 0.08666305, 0.03133646, -0.0958093, -0.06865778, 0.08002495, 0.114471056, -0.027993493, 0.0038008022, -0.019556705, -0.025089828, -0.008501253, -0.0629817, -0.15987961, -0.09951825, 0.03228557, 0.036147736, 0.10639472, -0.051567044, 0.051223446, 0.17277494, -0.021513278, 0.0742484, 0.10000051, -0.065696664, -0.045067113, 0.12347952, 0.19492105, -0.007385219, -0.07963222, 0.03209658, 0.05510383, 0.06594877, 0.005053075, -0.23203568, -0.04323071, 0.19750719, -0.018305453, 0.10824065, -0.19439632, -0.04753498},
                             {0.092838414, -0.0148342205, 0.04553808, -0.03110901, 0.10352289, -0.0029194988, 0.08611578, -0.023109827, 0.022597967, -0.14894593, -0.10776615, 0.0038286145, 0.02427151, -0.012777393, 0.09739526, -0.0783402, -0.1699495, 0.0786003, 0.044706754, -0.0565603, -0.07344985, 0.0031678616, -0.097957276, -0.019322883, 0.0062631527, -0.072385885, -0.012150316, 0.10380178, -0.107277535, -0.020992896, 0.08048268, -0.10060851, 0.11552255, 0.050595816, 0.1031574, -0.11941495, 0.09145576, 0.030739885, -0.007524244, -0.052793, -0.11882816, 0.08870698, 0.059877295, -0.0034498859, -0.006539684, 0.08484392, -0.15665586, 0.028762702, 0.08966723, 0.0622113, 0.055446688, -0.123779856, -0.10242136, -0.08500292, -0.028723499, -0.05499041, -0.071597956, -0.10608507, -0.06409499, 0.00036879952, -0.072964, 0.00020682687, 0.0657738, -0.006598571, -0.050928783, 0.030010816, -0.054033823, 0.020026637, -0.059146207, -0.07040434, -0.019238317, -0.072885826, 0.021414021, -0.03724944, -0.007828821, 0.037793443, -0.073645115, 0.027200354, -0.061141968, 0.0019200036, 0.035028443, -0.0824986, -0.099713735, 0.012985072, 0.05843236, -0.014559504},
                             {0.12559214, 0.18783543, 0.13955335, -0.0062820343, 0.03111224, -0.042637344, 0.09917002, 0.21677639, 0.21734992, 0.035012987, 0.09195057, 0.029769326, -0.0036114159, -0.10458569, 0.2101982, 0.19123644, 0.1719531, 0.052900545, -0.089291744, -0.048202, -0.10822922, 0.09925253, 0.07806302, -0.011896325, -0.025377182, 0.057841577, 0.010858253, -0.01642528, 0.030646427, 0.07308856, -0.17101648, 0.05433831, 0.01921988, -0.07816805, 0.03908775, 0.0065350393, -0.09355343, 0.04933046, -0.0055432064, 0.020323275, -0.045456916, 0.07011973, -0.017663633, -0.026015505, 0.029570863, 0.07113265, 0.020133132, -0.03668878, 0.05691264, -0.03134947, 0.051289536, -0.006519351, -0.06603066, 0.11709136, -0.019996608, -0.08773411, 0.07776219, -0.04790685, -0.026756367, -0.055292558, 0.0047597294, 0.010093078, 0.009963142, 0.026347082, -0.04423367, 0.121284895, -0.02152191, 0.05174676, -0.010821796, -0.12467184, 0.020762663, 0.06367071, 0.062084585, 0.18142961, -0.07703688, -0.07350236, -0.05217549, 0.04406491, -0.10470579, -0.07254197, 0.014653713, 0.120347366, -0.041402496, 0.19280656, -0.09247326, 0.053742792},
                             {0.10386052, 0.23968133, 0.2796791, 0.11535026, -0.053787533, -0.09429295, -0.05557228, 0.35068542, 0.17782551, 0.1912547, -0.01899236, -0.091589585, 0.008576609, 0.077444546, 0.3443598, 0.29268345, 0.20263273, -0.06961083, -0.06869687, -0.024212586, -0.025488792, 0.05723205, 0.0492224, -0.0531066, 0.09618426, 0.025620392, -0.084262334, 0.0016583072, 0.09996424, -0.026978072, -0.18363076, 0.09673844, 0.10721206, -0.041061845, 0.036340952, 0.03883129, 0.015525554, 0.04691027, -0.12805621, 0.065570705, 0.020142589, -0.085212305, 0.10791815, 0.055721916, -0.058762502, -0.15407448, 0.08029779, -0.042691942, -0.0023411375, 0.050613057, -0.0651716, -0.010402286, 0.052690163, -0.0025954281, -0.03407304, 0.06247241, 0.06284722, 0.033585154, -0.122343585, -0.14310016, -0.004863624, 0.11402563, 0.08285028, -0.071868904, 0.0879126, 0.045493748, 0.056937188, 0.064945154, 0.097202204, -0.0010645379, -0.063412875, -0.08080106, 0.12566005, 0.09543651, -0.120931126, -0.081067115, 0.10880766, 0.035102863, 0.052894074, -0.089587845, 0.057798006, 0.055301018, 0.05204298, 0.081476465, -0.1593955, 0.06348308},
                             {0.11745239, 0.107780986, 0.32195035, 0.104864694, -0.10493432, 0.016729953, 0.08640986, 0.377168, 0.14471808, 0.17659605, -0.07602879, 0.072074175, -0.107876875, -0.028236387, 0.30238476, 0.16070007, 0.27330148, -0.014058276, -0.062214863, -0.06497755, 0.06116732, 0.14882231, 0.056072865, -0.017942347, 0.09352079, 0.040373854, 0.052265804, -0.09762244, 0.212973, 0.034508552, -0.11899459, -0.061545484, 0.12199379, 0.08029327, -0.08774087, -0.07084942, 0.096368894, 0.0979226, -0.069259815, 0.016994901, 0.034641914, -0.023867574, 0.09684383, -0.005494251, -0.09732389, -0.19962847, 0.1570494, 0.06786517, -0.06677738, 0.07234294, 0.08554798, 0.11024901, -0.08859467, -0.029314857, 0.085132115, -0.004089083, 0.043117803, -0.063511476, -0.09317623, -0.16458549, 0.09483529, 0.0374653, 0.025145827, -0.063875355, -0.0041199946, 0.21563484, -0.1211945, -0.053609233, 0.10206998, 0.036443964, -0.053542703, 0.023359867, 0.09428674, 0.0790289, -0.19784349, 0.07341473, 0.05102667, 0.06477375, -0.05052657, -0.20149519, -0.097417094, 0.17880023, 0.06705196, 0.013951576, -0.139618, -0.09074841},
                             {-0.027091807, -0.0037776944, -0.054784272, 0.08370359, -0.018910304, 0.08987051, 0.049682684, 0.055287737, -0.057127327, 0.077644154, -0.028183632, 0.027904443, -0.100763135, -0.04686837, -0.04657358, 0.0645761, 0.036561683, 0.069944136, -0.07659342, -0.034140453, 0.05751475, -0.11203683, -0.06257167, 0.042431556, -0.024701204, -0.041078188, -0.10097158, 0.08864979, -0.1074409, -0.07118193, 0.08138037, 0.09039735, -0.013763437, 0.010547018, 0.09853194, 0.0652957, -0.0597693, -0.096704826, -0.06490148, -0.048775617, -0.04064167, 0.075885266, 0.09689013, 0.032554332, 0.014254195, -0.04788232, -0.043657437, -0.04165982, 0.03542738, 0.007313931, -0.08690092, 0.08538273, -0.102060184, -0.004452044, -0.026387585, -0.07434237, 0.06242595, -0.03223116, -0.025266096, 0.05468917, -0.087591946, -0.034019448, -0.11111744, -0.08475644, -0.06697716, -0.06960398, 0.055897254, 0.008190644, -0.0085730245, -0.028371016, -0.104583405, -0.0915453, 0.046081454, 0.016898513, -0.02046489, 0.047354713, -0.081944555, 0.007274929, -0.04452341, 0.09045796, -0.014878, -0.060782492, -0.07773232, -0.043832406, -0.09309771, -0.0005242654},
                             {-0.07645411, 0.023032336, -0.09563555, 0.10109372, 0.008590758, 0.04019336, 0.048982535, -0.2539082, -0.18276386, -0.09780523, 0.08105368, 0.03644469, 0.093659244, -0.0465947, -0.16221173, -0.24122259, -0.28584206, -0.05189194, -0.112994485, -0.045164738, 0.05787292, -0.087407805, 0.072330855, 0.12200746, -0.10105819, -0.07904749, 0.061504573, 0.040288433, -0.18271849, 0.0065670856, 0.10752203, -0.028578041, -0.08864624, 0.051193684, 0.07227688, -0.03007308, 0.029146029, -0.12876453, 0.012116881, 0.09593689, -0.045253467, 0.059715457, 0.036437444, 0.09478665, 0.07905411, 0.13931116, -0.04966881, 0.11008159, -0.00706572, 0.028802626, -0.11575111, -0.03962726, 0.012057193, -0.0280219, -0.104726024, 0.06419795, -0.041243386, 0.06122431, 0.12892422, 0.15463279, 0.046662867, 0.09757487, 0.02659802, 0.097124904, 0.08992049, -0.02400934, 0.048640635, 0.05466095, -0.011564989, -0.033054084, -0.10960105, -0.030266084, -0.04337238, -0.121728376, 0.03230752, 0.04639873, -0.06846617, 0.030291213, -0.040343486, 0.087672345, 0.025618238, -0.103306025, 0.123438045, 0.053819396, 0.06921366, 0.013556709},
                             {0.05866767, -0.14243342, -0.1806081, 0.010089233, -0.032500695, 0.10012063, -0.061179936, -0.072620966, -0.0050355173, 0.031002, -0.05165984, 0.09049619, -0.062419474, 0.05774885, -0.022912262, -0.1333191, -0.12470823, -0.04134449, 0.032164983, 0.008388906, 0.00015398499, 0.03669825, 0.124715, 0.08551208, -0.059146985, -0.05073969, 0.08521816, -0.013059119, 0.0029313578, -0.004027401, -0.034404054, -0.06423428, 0.010379354, -0.06611585, 0.0017562157, -0.023736952, -0.09211495, 0.08491404, 0.024821816, 0.015598163, 0.07876051, 0.062997185, -0.05228655, -0.059364133, 0.09865033, -0.05983013, -0.12735489, -0.008108192, -0.027568543, 0.057935115, -0.009789775, 0.040303152, 0.00534552, -0.074521266, 0.10363933, 0.084767185, -0.02761714, 0.08534776, 0.031379055, 0.0076263663, -0.086346984, 0.09893893, 0.011146015, 0.01761049, -0.05018965, 0.0752714, 0.10763257, -0.025671339, -0.069070324, 0.0113734, -0.0016442877, -0.042917065, -0.021186605, 0.09773, -0.024805382, 0.005200051, -0.050967176, 0.050602064, 0.022025526, -0.07249623, -0.0903148, -0.040194698, -0.013792351, -0.023117464, 0.14652205, 0.091322295},
                             {0.08044262, 0.11265071, 0.09711283, 0.01689367, 0.09508005, -0.07939448, 0.05894618, 0.106757246, -0.011851021, -0.010068224, -0.089768894, 0.04060623, -0.06252904, -0.07951437, -0.049087256, 0.03744732, 0.024657935, 0.0662099, 0.045569643, -0.021211304, 0.09147434, 0.0083271, -0.022550836, 0.080725126, -0.104050174, -0.057187825, 0.022604963, 0.046892636, -0.08533381, -0.032372195, 0.020664522, -0.06709552, -0.024009343, 0.071496494, -0.06561896, 0.012006414, -0.06605882, -0.016007354, 0.09614555, 0.04032698, -0.07049467, 0.062673844, 0.0040781116, -0.038656, -0.060192335, -0.100435704, 0.053117763, -0.09819707, -0.039051328, 0.0017249557, 0.028230522, 0.0741428, 0.018687034, 0.06440757, -0.11039636, 0.09014397, -0.06867883, -0.051896993, 0.02906306, -0.030787839, 0.0065790275, 0.0518773, -0.089275874, -0.108150795, -0.10572375, 0.050106935, 0.07131692, -0.057957016, 0.05465815, -0.04156538, 0.060305987, 0.051748198, -0.09785247, -0.06504471, 0.080614194, 0.09665094, -0.01133508, 0.0144044105, -0.016206587, -0.050161205, 0.027362857, -0.059668846, 0.054690257, -0.042494033, 0.03670231, -0.097812876},
                             {0.13691242, -0.08279929, -0.22255416, -0.045631703, 0.005637625, -0.09749047, -0.077613816, -0.037770785, -0.22508408, -0.083614804, 0.044840746, -0.078790106, -0.07582839, 0.09962789, -0.035389293, -0.20445442, -0.17877567, -0.057989962, 0.11161334, 0.012640391, 0.08190545, -0.08821366, 0.12831092, 0.02937852, -0.013424462, -0.015478872, 0.049893033, -0.0935311, -0.09079136, -0.03157358, 0.08511162, -0.0019398974, 0.04809844, -0.0067432127, -0.061705742, -0.077266924, -0.033913884, 0.03837986, 0.061209142, -0.044366825, -0.033198398, -0.014286325, -0.032113392, -0.061017953, 0.028968608, -0.01845913, -0.22892065, 0.026425174, 0.0963627, 0.05192708, 0.0067089563, -0.008826317, 0.038706575, 0.041517213, -0.026461, 0.07685593, -0.09948341, -0.09473196, 0.072004534, -0.001911167, -0.033950787, -0.021887153, 0.028301701, 0.0738631, 0.08360295, -0.15138489, 0.08338877, -0.038976084, -0.055102125, -0.07577667, -0.10451311, -0.079646625, -0.029958783, -0.08498575, 0.1645026, 0.0024967343, -0.017371181, -0.092081495, -0.010445144, -0.010682789, 0.042701468, -0.2460191, 0.079074144, -0.01752026, 0.077545755, 0.058519915},
                             {-0.010894752, -0.013165724, 0.045219254, -0.024348656, 0.11922628, -0.04130931, -0.02934495, 0.18063144, 0.122007534, -0.07168003, -0.09404406, -0.0558169, 0.006329392, 0.065521345, 0.20421028, 0.10997227, 0.118610986, 0.06979024, 0.08199481, 0.029554766, 0.08867768, 0.07291543, 0.031860888, -0.0036684019, -0.058724415, -0.11883314, -0.07945116, 0.02585521, 0.10489648, -0.014860702, -0.12017375, -0.07620677, -0.02531875, -0.07623976, -0.08499872, 0.05140536, -0.0122106485, -0.054892913, 0.06434488, -0.0941426, -0.114986144, -0.052018773, -0.064391345, -0.05644659, 0.06399036, -0.0028332344, 0.088382535, -0.09856128, -0.026885636, -0.06448643, -0.00077415816, 0.09773066, -0.1229749, -0.07576025, -0.086539276, -0.102706484, 0.019507296, 0.045702305, -0.111327946, -0.044038292, 0.041568454, -0.09152122, 0.09230312, 0.032018878, 0.055158403, -0.021368973, 0.0067402865, -0.074600294, -0.034790765, -0.06998291, 0.025030898, -0.08520273, -0.027751785, 0.0034692676, -0.029243045, 0.08562967, -0.04518699, 0.09661014, -0.0661373, -0.14195131, -0.07691992, 0.12578128, -0.116489336, 0.11037368, -0.042233124, -0.06996753},
                             {0.13125364, -0.012593607, -0.03015717, 0.006196636, 0.07174704, 0.007297411, -0.08387747, -0.13808155, -0.100553885, -0.08441205, -0.07533849, 0.013235771, -0.086417556, -0.016450124, 0.08433345, 0.025085507, -0.11225148, -0.0898121, 0.08418673, -0.10467436, 0.05812998, 0.01456967, -0.028172903, 0.08743216, -0.021862283, 0.037002765, 0.059436694, 0.083417945, 0.004594649, -0.017353276, -0.038149633, 0.050643396, 0.06272688, -0.10752029, -0.060684636, -0.012126857, 0.018871183, -0.13710669, -0.008371095, -0.0056063537, -0.09305502, -0.03748177, -0.049226478, 0.0260811, 0.0969336, -0.04000167, -0.117981315, 0.045021202, -0.041326534, -0.11265891, 0.08113014, -0.10567372, 0.006607838, 0.021738293, -0.13818987, -0.09312978, 0.04056141, -0.0657533, 0.042757504, -0.06375516, -0.028890543, 0.018260676, 0.049774155, -0.087834395, -0.044687625, -0.038104635, -0.06803702, 0.060047846, -0.08238974, 0.02750637, -0.07231564, -0.11568226, -0.02727703, -0.04346465, 0.1328981, -0.10147965, -0.093251616, 0.017603453, -0.05482366, 0.053035755, 0.0811352, -0.084197566, 0.021732755, 0.05586473, 0.071923316, -0.003268095},
                             {0.04972741, -0.16368991, -0.07825616, -0.046844773, 0.00044427262, -0.0798129, 0.084506296, 0.04225449, -0.046724796, -0.065947555, -0.046971656, 0.09396261, -0.10672175, -0.08195651, 0.18102466, -0.12003569, -0.11216685, -0.021500178, 0.08945084, -0.12278702, 0.078667395, 0.09750626, 0.048057362, 0.0018872943, 0.057116065, -0.06101028, 0.02963148, 0.069305025, 0.050772324, 0.061875463, 0.007180657, 0.038868763, -0.009285472, -0.10454381, 0.07894172, -0.10016908, 0.0037813124, -0.095340975, 0.05328276, -0.106758535, -0.036591522, 0.067809865, -0.13105054, -0.034448285, -0.0809692, 0.04074507, -0.15423113, 0.062479615, 0.07192517, -0.021489827, 0.05893554, -0.00837879, -0.074507594, 0.027304808, 0.07448692, -0.039739948, 0.013189791, -0.06482855, 0.11995465, 0.03250829, -0.12080683, 0.015631985, 0.106474265, 0.0342551, -0.10071972, -0.04139666, 0.09396459, 0.060624387, 0.046470452, 0.048157677, 0.022267131, -0.10029281, -0.00655806, 0.044759694, 0.18212831, -0.10077489, 0.10177609, 0.05208542, 0.017522039, -0.08122658, -0.06201195, -0.18012884, 0.0637473, -0.019693019, 0.11662933, -0.08379447},
                             {0.18731304, -0.053209588, 0.23374395, 0.024886152, -0.07504603, 0.07684916, -0.00069137115, 0.2901362, -0.11704854, -0.071404174, -0.028521584, 0.06947121, -0.09950536, -0.0031218173, 0.28233376, -0.042609427, -0.05420922, 0.079511024, 0.021203732, -0.13433163, 0.011735088, 0.02622879, 0.06153901, 0.029840464, 0.015409239, 0.13148117, -0.047211636, 0.077101775, 0.1902723, 0.029531466, -0.12306708, 0.083579406, 0.010389976, 0.050509695, -0.065115824, -0.054199457, -0.09216842, -0.049565896, 0.095282204, 0.018445162, -0.011303481, -0.05561211, -0.10844262, -0.029424027, 0.036410637, -0.12653936, -0.0624339, 0.0040509966, 0.12333075, 0.03883147, 0.10630732, 0.022217242, 0.06211499, 0.012444445, -0.061720677, 0.003753216, -0.060334958, -0.00072741794, 0.09377215, -0.09998762, -0.14493403, 0.07157644, 0.1470712, -0.06561415, 0.07907179, 0.11926441, 0.0010119972, 0.12745717, 0.084108256, 0.09634778, 0.0030367987, 0.03181643, 0.22658055, -0.0041419705, -0.053638823, -0.049079534, 0.11285909, 0.0066299583, -0.031124802, -0.03112706, -0.09211624, -0.18370858, -0.03462126, 0.029540513, -0.0960288, -0.026668673},
                             {0.06901632, -0.019312087, -0.27756676, -0.1309874, -0.078328915, 0.09806229, 0.04820805, -0.1818256, -0.21334042, -0.115536295, -0.14219739, -0.0032695802, -0.06270686, -0.1041262, -0.24071924, -0.08141538, -0.22906868, -0.11652586, 0.043723382, -0.025586262, -0.09747662, -0.12057711, 0.03905998, 0.071580656, -0.1401317, 0.04153877, 0.02665817, 0.075514406, -0.07720814, -0.004563592, 0.02756186, -0.027703507, 0.013645861, -0.091511294, 0.09819829, -0.05531219, -0.0414166, -0.0050974735, 0.05386782, 0.022896698, -0.14065307, 0.09245735, -0.012458176, -0.03482534, -0.03809914, 0.055329986, -0.097392954, -0.026090525, 0.02384113, 0.06652247, -0.034588728, 0.015879456, -0.054396797, -0.027383942, -0.020693764, -0.05752261, 0.024622692, -0.0004698974, -0.017068235, 0.10347566, -0.16520758, -0.010937851, 0.03883992, 0.020804616, -0.111951314, -0.18339851, -0.06070672, -0.08229906, -0.12640017, -0.020464893, 0.047637533, -0.12579724, 0.10006391, -0.030166162, 0.14839053, -0.08917043, -0.086389415, 0.10137936, 0.08494791, 0.019363081, -0.08761038, -0.177177, 0.018020991, -0.16847596, -0.06691744, -0.039564613},
                             {-0.17414373, -0.15621531, -0.18980813, 0.09367962, -0.024693355, 0.046499543, 0.017916815, -0.29484698, -0.05028484, -0.18208161, -0.08660354, 0.09043274, 0.08941616, 0.053526074, -0.24715544, -0.14693817, -0.34076375, -0.04387441, -0.09775571, 0.12917523, -0.11410881, -0.15028107, 0.013812779, 0.08524588, -0.0072391517, -0.059516363, -0.07825421, -0.018180521, -0.081406176, 0.0341445, 0.03561174, -0.118308045, 0.0017977399, 0.08047668, 0.05541931, -0.057201263, 0.027453166, -0.1947597, 0.10939298, -0.062842995, -0.0009935807, 0.013545305, 0.0055105095, 0.078586146, 0.0766793, 0.095655404, -0.084312215, -0.0051868856, 0.039347205, 0.008215819, -0.06533168, -0.14699262, 0.004594835, -0.013686908, -0.0018040522, -0.02736884, -0.082255125, -0.09850323, 0.16340858, 0.054642502, -0.04516719, 0.06480231, -0.060849622, 0.119430855, -0.034695163, -0.11491535, 0.016633796, -0.09434239, 0.06210851, -0.09873317, -0.10134678, -0.043654766, -0.21047087, -0.07164949, 0.19313495, -0.091042124, -0.07983394, -0.032982443, -0.118324846, 0.20756945, 0.08328459, -0.07279346, 0.14855795, -0.116104215, 0.040096648, -0.03690202},
