float layer_0_bias[] = {0.16041005, 0.06868853, 0.061737575, -0.033365875, -0.086688764, 0.08832787, -0.12835239, -0.007981109, -0.1123335, -0.06831449, 0.039179165, -0.051029235, -0.01934393, 0.09361062, 0.09085079, -0.026650213, 0.109829165, -0.025446275, 0.05876499, 0.12026577, 0.10823484, -0.06752511, 0.13899255, -0.035250887, -0.1068173, 0.09454717, -0.06587083, 0.036477022, -0.06801127, 0.050009, -0.08495861, -0.083457194, 0.18033135, 0.05663366, 0.06004534, 0.045605745, -0.056214567, -0.06794338, 0.024867238, -0.09740384, -0.10979072, -0.08342766, -0.033670954, 0.13456552, 0.012752531, -0.008733945, 0.1120691, 0.1411195, -0.13289922, 0.040274568, -0.065905675, 0.072465524, 0.08681763, -0.16721608, 0.076238304, 0.17700939, -0.11040749, -0.05529298, -0.13273185, -0.03437909, 0.062297046, -0.02692147, -0.09128525, 0.059373666, 0.015344583, -0.029697545, -0.06317144, 0.07037445, 0.070359856, -0.0024368258, 0.09951884, 0.03562965, 0.08305116, -0.0145564405, 0.037853148, -0.00978269, -0.06886694, 0.06605878, 0.045305286, 0.08713966, -0.047040734, 0.15818521, -0.04193606, -0.1005382, -0.0184066, 0.08004511, 0.09279901, -0.01305571, -0.07836084, -0.012291168, -0.13452129, -0.0044074934, -0.0056656445, 0.11899719, -0.033195775, -0.048756894, -0.15128933, -0.019732151, -0.036333017, 0.0098675545, -0.15406038, 0.09610991, 0.08862679, 0.008057281, 0.0051715123, 0.024296837, 0.011475864, 0.0753339, -0.113922246, -0.04104035, 0.16820382, 0.1139708, -0.013393927, 0.17409097, -0.071342625, 0.13252854, -0.031299863, -0.07772667, 0.052903652, 0.01557824, 0.148896, -0.088976935, 0.024672331, -0.031060575, 0.0037673328, -0.0983566, -0.12431314, -0.08905156, 0.039489325, 0.021980269, 0.090169206, 0.08177289, 0.04165668, -0.15207611, -0.080607936, 0.05314045, -0.104491994, 0.14904138, 0.03589149, 0.062357295, -0.010879938, -0.13993311, 0.13290319, 0.16323936, 0.155303, 0.11560344, -0.059404492, 0.09104188, -0.13811056, 0.12272061, 0.047183923, 0.11379042, -0.06491287, -0.08882708, 0.2079319, 0.056660905, -0.08524593, -0.08934736, -0.083176486, -0.07640305, 0.07473422, 0.005199485, -0.04196677, -0.013437213, -0.04628157, -0.1492384, -0.0697085, -0.06901251, -0.021970337, -0.015036158, -0.06286616, -0.15866673, 0.00914846, 0.08880002, -0.009519408, -0.065175034, -0.11588507, 0.119302884, -0.116760075, 0.019099617, 0.028597508, 0.0030923036, -0.0006863499, -0.01147468, -0.10823456, -0.07150579, -0.124442786, 0.049414217, 0.07200778, 0.07593037, 0.17264092, -0.052996453, -0.15924875, -0.11088691, -0.09846946, 0.061603323, -0.08588216, -0.06403974, 0.020925783, -0.016752627, 0.016220124, 0.03462229, -0.011441119, 0.011968613, -0.0841812, 0.10962458, 0.12402109, 0.11804806, 0.20595442, -0.02436606, 0.0011436135, 0.059644766, 0.0133768255, 0.017322479, -0.08253361, -0.004288851, 0.026997743, 0.03393595, -0.12351978, 0.11787256, 0.0013414307, -0.026552143, -0.17380977, 0.04853804, 0.18782242, -0.044139232, -0.030170592, 0.0036934754, 0.0047060438, -0.12379614, -0.09088917, -0.08722082, -0.06978183, 0.123424634, 0.013462509, -0.02087383, 0.009161777, 0.081311874, 0.008128618, 0.16817275, -0.12417842, 0.023957573, -0.08508167, 0.099720955, 0.0197386, -0.004382544, 0.07608996, 0.06947415, -0.07539479, 0.16825463, -0.024498373, -0.039642263, -0.10287607, 0.059500333, -0.04333805, 0.0021127618};
float layer_1_bias[] = {0.04521201, -0.045989793, 0.07263433, -0.03804412, 0.034496445, -0.0025584581, 0.07964911, -0.0110907005, 0.14610493, 0.024989326, 0.010299081, 0.02524027, -0.031188944, 0.043142304, -0.036845654, -0.023583708, 0.012755006, -0.03434098, 0.104575425, -0.022018267, -0.15216422, -0.0048894295, 0.019497087, -0.041462198, 0.03476848, -0.025941435, 0.022105414, -0.03492378, -0.03803666, 0.07768236, 0.035576086, 0.06043495, -0.031452097, -0.03532339, 0.09106455, 0.028184755, -0.058110107, -0.01073065, 0.0034663598, 0.03342914, 0.025348688, -0.03696337, -0.022693945, 0.022927325, 0.025168834, 0.09509814, -0.1141629, 0.04886671, -0.008765069, 0.01373408, -0.0132907685, 0.027441556, -0.016275063, -0.019014006, -0.0033495633, 0.100728944, 0.028233923, 0.050188527, -0.038417067, 0.018977014, 0.011023828, -0.024977034, 0.012633393, 0.039041206, -0.0012264353, -0.0905862, 0.037338987, 0.051134814, 0.09127925, -0.05025582, -0.024510235, 0.0028170492, -0.025386631, 0.009244586, -0.03564767, -0.018528448, 0.046197332, 0.020459373, -0.06934489, 0.021038458, 0.0024062262, 0.024145301, -0.0032713802, 0.0067248773, -0.027436063, -0.0049012336, -0.010052149, -0.059368555, -0.020646, -0.009656691, 0.0032702214, -0.018711334, -0.050344545, 0.015772386, -0.034589134, 0.010983976, 0.023886498, 0.038113564, 0.0073494893, 0.058241993, -0.04109225, 0.056159895, 0.090679206, -0.03333582, -0.0063866666, -0.0573081, 0.13036254, -0.011682725, 0.030379204, 0.068097144, -0.070633054, 0.061184667, -0.028188346, -0.062788144, -0.043754645, -0.015038557, 0.0062297476, -0.0096481275, -0.0041478747, -0.045188658, 0.043796476, -0.030599326, 0.07607134, -0.14537576, 0.040276773, -0.0055722552, -0.053099442, -0.009380583};
float layer_2_bias[] = {0.004086811, 0.15310952, 0.019373948, -0.10784727, -0.07078494, 0.04209526, 0.060891096, -0.046277482, -0.020762729};
float linearMat0[256][86] = {{-0.088486925, 0.070527956, -0.07674748, -0.07458095, 0.16453151, -0.036091942, 0.039876115, -0.0034616108, 0.17077413, 0.21583287, 0.03505736, 0.05207508, 0.07417515, 0.07647101, -0.13957408, 0.038489275, 0.080281675, 0.09822616, 0.09308871, -0.04892024, -0.021859908, -0.11910262, -0.005326526, 0.12513351, 0.14548948, -0.008888637, 0.07290596, 0.035483923, -0.10102313, 0.07696414, 0.100122586, -0.0047829803, -0.0070032813, -0.07425472, -0.10904937, 0.11519557, -0.0721331, 0.07418449, -0.059545103, 0.07751533, 0.01914792, 0.07976918, 0.015333269, -0.08152658, -0.033231918, -0.052201558, 0.18114658, 0.09441927, -0.015095873, -0.09539969, -0.032999408, 0.00027536222, -0.019207751, 0.064906895, 0.13140583, -0.04058843, -0.06673314, -0.021942703, -0.15843749, -0.05756496, 0.1262952, -0.057952937, 0.02386989, -0.075559616, 0.07606761, 0.015360858, -0.042772494, 0.084738605, 0.10641338, 0.057373982, -0.07456336, -0.08925418, 0.14741215, 0.04678419, -0.049593486, -0.013177529, -0.037679005, 0.046424333, 0.060458485, -0.037524838, 0.11417584, 0.030149339, -0.0116928555, 0.061372858, -0.10046, -0.12123904},
{-0.0045104446, -0.051914636, 0.03312412, 0.08570315, 0.0066810283, 0.19843836, -0.014404814, -0.11269392, -0.04641416, 0.13902079, -0.070500374, 0.025306277, 0.006778997, 0.04803482, -0.15631177, -0.017292218, 0.092917025, -0.012076442, 0.1389221, 0.17746499, 0.021614205, -0.1655847, -0.04437711, 0.02382955, 0.03313793, -0.02184206, -0.021649523, -0.018023498, -0.015296143, -0.081781656, 0.16990243, 0.118272506, 0.09245137, -0.0031178717, -0.021978712, -0.015647922, 0.027753673, -0.039933167, 0.06266549, 0.09038183, -0.06134855, 0.009827574, -0.118559115, 0.027600339, -0.14920719, 0.08230297, 0.18840453, 0.029840564, -0.05317908, -0.1596677, 0.016478391, -0.18307269, 0.028147796, 0.17316455, 0.0025790727, 0.010613453, -0.07882503, -0.03801506, -0.21223919, 0.17448395, 0.15752563, 0.07615312, 0.058755457, -0.094773464, 0.0031918024, -0.05892344, 0.01849339, 0.11753194, 0.09085141, -0.074695066, -0.098038964, 0.10506992, 0.09690979, 0.02464025, -0.102426134, -0.07759455, -0.12663855, 0.101329066, 0.033792064, -0.041310955, 0.13328284, 0.16235897, 0.025810063, 0.1579022, -0.09573976, 0.049111623},
{0.07432235, -0.066201694, -0.024644956, -0.0070146094, -0.08364858, 0.0032554038, -0.027512558, -0.013847736, -0.05024896, -0.059675287, 0.027892776, -0.109836936, -0.104832195, -0.09567055, 0.05677727, 0.10214429, 0.034278046, 0.027358485, 0.013142621, -0.04031375, 0.0841486, 0.012044305, -0.0022650987, 0.13898276, 0.09863808, 0.075002156, -0.12585998, 0.084378175, -0.030985707, -0.028150586, 0.042000625, 0.112691045, -0.0793564, -0.05640628, 0.039570235, 0.045702126, 0.02455488, -0.045593146, 0.06830172, 0.122094825, 0.06543109, 0.011826434, -0.03523239, 0.009538071, -0.046458986, -0.09316392, 0.10478973, -0.088267945, -0.04712513, 0.04491729, -0.08555252, -0.092608444, 0.060104635, -0.05340522, 0.10233132, 0.036034875, 0.04684349, -0.03762721, -0.036248446, -0.013574067, 0.06264732, -0.068534866, -0.11318297, -0.17471436, -0.10266372, -0.056352448, -0.083912365, 0.019141715, 0.037643075, 0.05171133, 0.038078073, -0.031582117, 0.06099493, 0.09938659, 0.022514708, -0.045251027, -0.111893825, 0.11381717, -0.10707983, 0.007193125, -0.04303031, 0.07660084, -0.00096646254, 0.0059434636, -0.021513406, 0.011875123},
{0.016421143, 0.07926901, 0.14479682, 0.023661856, -0.0044676117, 0.07793105, -0.030719697, -0.11447077, -0.10082757, -0.124468304, -0.031091522, 0.045444284, -0.07186853, -0.069430925, -0.0032546532, -0.07396881, -0.06509269, -0.09786226, -0.07015964, -0.073102474, -0.020393912, -0.0070265885, 0.015397937, -0.073043376, -0.09461763, 0.0050971, -0.055424944, 0.08624255, 0.009248654, -0.098155946, -0.10975149, 0.06776775, 0.017928092, -0.10980686, 0.09185569, 0.0061796093, -0.06560734, 0.057727206, -0.12741545, 0.034377657, -0.03723542, -0.08963281, 0.050095133, 0.02965915, 0.0272815, -0.0042509013, -0.093347706, 0.03503164, -0.07999041, 0.26741266, -0.04326025, 0.09515402, -0.0064353654, -0.029520832, 0.024352597, 0.020032465, 0.05245875, -0.08896746, 0.15510371, 0.045666203, -0.24027131, 0.011674626, 0.04061281, 0.122834265, 0.030803198, -0.14944139, -0.022023652, -0.071000926, -0.07660009, -0.010613458, 0.015027975, -0.07319348, -0.20397326, -0.1527403, -0.06475262, -0.08676962, -0.014009673, -0.044631146, 0.009072092, 0.22783582, 0.15815987, 0.034369756, -0.08558389, 0.07804178, 0.2579579, 0.06611955},
{0.024973648, 0.0070411162, -0.028326746, 0.0065217237, -0.06824804, -0.14773083, -0.062170677, 0.11676331, -0.061650585, -0.16132075, 0.12087088, 0.069662094, -0.21895513, -0.08188332, 0.28329384, -0.010822694, 0.012610355, 0.026156373, -0.06388343, -0.09424329, 0.0015181787, -0.053774733, -0.16057971, -0.063277826, 0.12209965, -0.05855016, 0.08936156, 0.060698383, -0.07703758, 0.007715878, -0.07335031, 0.12514086, 0.097688936, -0.10508299, -0.08084906, 0.08256013, 0.023982598, 0.09602604, -0.027967421, -0.07711324, -0.0010163749, -0.012763194, 0.12577035, 0.012541464, 0.07237714, 0.05189041, -0.014289008, -0.023373086, -0.02327599, 0.2377676, 0.07048244, 0.08388599, 0.038971275, -0.13146146, 0.046983134, -0.0040622577, 0.02542274, -0.08102753, 0.191901, -0.10252905, -0.2152037, 0.04771773, -0.03796753, 0.058456834, -0.015344741, -0.034713164, 0.007335993, -0.011675317, 0.12377162, -0.028733073, 0.022032078, 0.021846958, -0.21536437, -0.16311014, -0.16917396, 0.036925122, 0.11671693, -0.042654462, -0.11031443, 0.13638002, 0.09574285, -0.03054168, 0.09617617, 0.012609987, 0.163747, -0.046179224},
{-0.068608, 0.10469936, -0.16696891, -0.054670513, -0.015548887, 0.23992294, -0.009155535, -0.2313906, 0.05306192, 0.13322325, 0.10870926, -0.01390917, 0.19512957, -0.05039338, -0.3031915, -0.16474812, -0.029445011, -0.056354653, 0.05337319, 0.20156774, -0.062740475, 0.010089522, 0.020579271, -0.0042060204, -0.018902794, 0.05012414, 0.031000614, -0.101589836, -0.067401275, 0.0072867023, -0.04344992, -0.07677575, 0.08026419, -0.070308596, 0.0668772, -0.04885562, -0.046401445, -0.018530626, -0.029851899, -0.024345933, -0.00973896, 0.087419115, 0.02194702, -0.053094964, 0.1856617, 0.13026847, -0.057804275, -0.052289303, 0.05064002, -0.010170186, -0.05983899, 0.110700965, -0.039922904, 0.087023266, 0.04565926, 0.068624884, 0.12461956, -0.09340439, 0.021663237, 0.06627471, -0.036692176, -0.058118396, 0.008978987, 0.0837776, -0.06966266, -0.0633965, -0.067739785, 0.056435227, 0.07895954, -0.04213411, 0.074676394, -0.110072106, -0.1137631, -0.14772502, -0.13247694, 0.064328656, -0.04155936, -0.16627389, 0.14393385, 0.18471825, 0.19350931, -0.1526515, -0.03235367, -0.031793963, 0.034815803, -0.05617457},
{0.004796195, 0.009770198, 0.19568183, -0.058599044, -0.08222136, 0.10699312, 3.2374344e-05, -0.11439402, -0.1322495, -0.018884944, 0.05118031, 0.021409685, 0.014767754, 0.040897317, -0.052967113, -0.04189768, 0.07711717, -0.013879906, -0.011489421, 0.13811523, -0.06478732, -0.043513026, 0.021892799, -0.1876365, -0.04163938, 0.005530643, -0.1067147, -0.02034242, -0.03324135, -0.05178766, -0.13907027, 0.025428625, 0.047005706, 0.0011962176, 0.0846841, 0.038966868, 0.00820399, 0.0061939997, -0.10837604, 0.07394672, 0.06810161, 0.104165405, -0.0036573322, -0.09748622, 0.0831847, 0.018020649, 0.022968763, -0.031357642, -0.010684875, 0.027812693, 0.023069795, -0.12886976, -0.026134836, -0.05248936, -0.13637699, -0.048175637, -0.03809629, 0.04456365, -0.052613832, -0.10398149, -0.09860872, -0.07611525, 0.041408826, -0.08488731, 0.004916659, -0.0644291, -0.050016362, -0.15246706, -0.12531352, -0.06834663, -0.07834066, 0.05824059, -0.01076059, -0.058144376, -0.017083291, 0.061734036, -0.029233065, -0.09155081, -0.1103889, 0.0023012669, -0.011440072, 0.023394937, 0.041292977, -0.1072796, -0.029535895, -0.11280799},
{0.036648266, -0.045780696, -0.06645533, 0.007923235, -0.09110339, -0.1655464, 0.011625076, 0.060008403, 0.005767169, 0.0057664644, 0.13384353, 0.0047416026, -0.024289146, -0.060581975, 0.034549717, -0.1273014, -0.10499262, 0.07564774, 0.017790189, -0.041576993, 0.061962407, 0.024476191, 0.038870435, 0.085597344, 0.041178133, -0.058765694, 0.06785464, -0.1335072, -0.0655349, -0.10455054, 0.17861268, 0.090706594, -0.066338815, -0.10305603, -0.06832971, 0.17040484, 0.055030413, 0.1386485, 0.089112625, 0.09761673, 0.016603705, 0.08421295, 0.087720245, -0.044924635, 0.19479029, 0.0014459345, 0.078213856, 0.18191424, 0.05279183, 0.22786546, -0.04147611, 0.13177213, -0.027185986, 0.04972322, 0.21375063, -0.09197065, 0.1681086, -0.09774107, 0.054698434, 0.015055142, -0.06000916, 0.055546407, 0.020574102, 0.19506802, 0.07294039, 0.100690275, 0.05686812, 0.04223545, 0.11393986, -0.10329931, 0.09751323, -0.13987534, -0.071808115, -0.007219429, 0.13233009, -0.07399794, 0.052477136, -0.16284485, -0.07398427, 0.23500729, 0.22604337, 0.12294693, -0.0023738432, 0.10253974, 0.22505891, 0.106929086},
{-0.07043452, 0.013322641, 0.01287663, -0.11553314, 0.09625866, 0.0009978376, 0.012410199, -0.045194153, -0.004478761, 0.057220675, -0.019521289, 0.05315314, -0.087508224, -0.09211379, -0.086780705, -0.006786222, -0.037566952, -0.08128278, -0.0055547156, 0.09155298, -0.069764405, -0.09123557, -0.034929466, -0.09204973, -0.09041959, 0.057984248, -0.06551317, -0.12516552, -0.15858641, 0.05906187, -0.08632065, -0.021391312, -0.118144885, -0.07694363, 0.021117702, -0.028858647, 0.085765705, -0.04547985, -0.041322913, 0.019452738, 0.013780013, -0.017065901, -0.035688344, -0.025346115, -0.035940982, 0.00060395175, -0.1703036, 0.042760663, -0.10302864, -0.077471346, -0.0672447, 0.045713063, 0.051388424, -0.10681673, -0.05301064, 0.06326676, -0.061952647, 0.015495496, 0.044264346, -0.027057836, -0.0933397, -0.08733775, -0.013612694, 0.028696992, 0.07528186, -0.005135569, -0.12026547, 0.034780823, 0.017579874, 0.028664513, -0.11618206, 0.03279228, 0.12774564, -0.146134, 0.0030733976, -0.017550528, 0.042166896, -0.023541331, 0.057987627, -0.031429954, 0.0064179795, -0.12349466, -0.15406452, 0.01710075, -0.1282667, 0.05828151},
{0.16340913, 0.027769241, 0.14773692, -0.08747928, -0.061116036, -0.09226059, 0.04928954, 0.06616414, -0.026228953, -0.079179995, 0.018187655, -0.03160516, -0.106625214, 0.05697632, 0.17591718, 0.018065756, 0.1958634, -0.022394832, 0.05197969, -0.27004194, -0.06264279, 0.14819567, -0.11096995, 0.047553703, 0.040315103, -0.08591886, -0.041413013, -0.0579167, 0.04305133, 0.0685778, 0.03704117, 0.0126690185, 0.08976723, -0.025401881, 0.050250664, -0.0015408788, 0.019655898, 0.06820433, -0.006352698, 0.07336698, 0.028172487, -0.04726834, -0.047424782, 0.05074583, 0.1169202, -0.0030323484, 0.05625025, 0.02252039, -0.028602013, -0.02601654, 0.02416879, -0.0004108313, 0.057865564, 0.019088121, 0.08223532, 0.040984005, 0.04637411, -0.051855907, 0.042569794, -0.029317534, -0.10993742, -0.0184447, -0.055952407, -0.03894849, 0.05656044, 0.048201736, -0.11473566, -0.072695695, -0.059145395, 0.03805663, 0.11058548, -0.066093355, -0.12610996, 0.06363626, -0.036400694, 0.049879834, 0.08883769, -0.04665216, 0.0611871, -0.03427891, 0.15730976, 0.09023226, -0.01923402, 0.18831071, 0.09054736, 0.009050637},
{-0.13189596, -0.06979243, -0.054515395, -0.04982066, -0.044000745, 0.07241546, -0.017988157, -0.1096961, 0.029151745, 0.071016, 0.11957834, -0.08255621, 0.2156695, 0.08102919, -0.124781966, -0.021136373, -0.043904528, 0.103983045, 0.03913644, 0.20165999, -0.07844551, 0.02906762, 0.12153404, 0.14914872, 0.12901865, -0.09082697, -0.14825387, 0.036644395, -0.06932152, -0.11014374, 0.087504216, 0.008298927, -0.099158056, -0.080659226, -0.07330724, -0.06726138, -0.031195961, 0.020773623, -0.04961584, 0.03354406, 0.04786238, 0.0494016, 0.054093193, 0.041610315, -0.08490698, 0.042399023, 0.17528081, -0.012913293, 0.036535386, -0.05408622, 0.09116414, -0.023975186, 0.080043994, 0.0058183684, 0.13041349, -0.053301353, -0.013610169, -0.095459506, -0.04336888, 0.032729685, 0.010611317, -0.016695926, -0.078114726, -0.010227575, 0.049789395, -0.015664918, -0.03746949, 0.12196061, -0.045710105, -0.08714781, -0.14802887, -0.05927473, 0.05835321, 0.12011396, 0.060503583, 0.027419925, -0.00070380745, -0.02826277, -0.09912589, 0.094228275, -0.03315755, -0.09215239, 0.09796842, 0.009155507, -0.00693282, 0.08172649},
{0.003780895, -0.030430175, -0.13192424, 0.03967244, -0.0704072, -0.00091068726, 0.07388939, 0.14816836, -0.06828668, -0.11825961, -0.02996825, 0.06531469, -0.039440073, -0.05770667, 0.17126656, -0.11885004, -0.29664794, -0.0141031295, -0.12825724, -0.12393837, 0.0038144179, 0.039421782, 0.05650746, -0.08238055, -0.1582459, -0.07662273, -0.08010042, 0.04523625, 0.008780983, -0.05202594, -0.03626536, -0.009109064, -0.081915826, 0.08203815, 0.0890067, 0.066025615, 0.095622905, -0.038020574, 0.024197638, 0.018006979, -0.103406414, 0.10489917, 0.030556394, -0.03595895, -0.036987863, 0.10415803, -0.11977741, 0.036441553, 0.094064295, 0.019071558, 0.040349115, -0.027742244, -0.06004885, -0.18713835, 0.027427373, 0.086633265, -0.081904836, -0.08613658, -0.09368529, 0.058328636, -0.12574336, -0.0018206101, 0.029240176, 0.060328998, -0.06986289, -0.09215617, -0.08481128, -0.049682, -0.10922006, -0.113992244, -0.10387832, 0.018034032, 0.122935034, -0.1981367, 0.010014098, -0.012382515, -0.0084230825, 0.11044019, -0.13657606, -0.08156996, 0.0066084103, -0.14939529, -0.13015427, -0.057282705, -0.04666261, -0.1219941},
{0.02796503, -0.08159345, 0.0022075253, -0.054277472, -0.07022317, -0.118728355, 0.10194483, 0.04903248, 0.0034636338, 0.032318767, -0.106180355, -0.007171789, -0.19537444, 0.086482495, 0.12336354, -0.00018892919, -0.048638187, -0.019326853, 0.087762766, -0.20779899, 0.044973698, -0.15338384, 0.06953926, 0.04752487, -0.093610965, -0.057276487, -0.1153317, 0.09155818, -0.12413052, -0.0022668117, -0.065308854, -0.034826662, 0.013738522, -0.024395967, 0.098420285, -0.12901507, -0.05062958, -0.08540768, -0.043732464, -0.026976898, -0.04386304, -0.10962515, 0.027561847, 0.021376662, 0.0427126, -0.11723461, -0.015657382, -0.028878191, -0.0029083574, 0.09861803, 0.0993097, 0.028713426, 0.0642031, -0.014510027, -0.08380484, -0.032839373, 0.04491335, -0.048291206, 0.079580516, -0.14830177, 0.08870973, -0.08630336, 0.048074756, -0.040958323, -0.049919125, -0.15606436, -0.03136364, -0.036208283, -0.07507986, 0.07036408, -0.026631564, -0.051706996, -0.026120028, -0.09071543, -0.16334708, 0.0536689, 0.02949974, 0.07437648, -0.13932389, 0.05573135, -0.12808535, 0.06859578, -0.1094974, -0.15787646, -0.10649608, 0.017708004},
{-0.0035599067, 0.0115104625, -0.034533884, -0.04009971, 0.07832792, -0.24437334, 0.12577853, 0.07361953, -0.034707535, 0.09307658, 0.09086172, 0.12432882, -0.08364538, -0.060867447, 0.21179232, -0.010542657, -0.08036857, 0.084282935, -0.07959408, -0.21119145, 0.09868805, 0.17154764, -0.023496706, 0.1335895, 0.1171336, -0.035136096, 0.031781748, -0.01984654, 0.076383166, -0.02046166, 0.0053581307, 0.02325156, -0.05942245, 0.099771865, -0.09536784, 0.12689784, -0.015943957, 0.11001703, -0.014959285, 0.09283886, 0.0038220393, 0.09629058, 0.060392782, -0.03919729, 0.12755132, 0.032392126, -0.022316521, 0.056686834, -0.05110648, -0.02200735, -0.095312834, 0.15761733, 0.10374249, 0.033027463, 0.15007196, 0.087268345, 0.007137481, 0.044373218, 0.13701844, 0.0766818, 0.040446274, -0.02741242, -0.061726734, 0.14743148, 0.11792409, -0.0009705115, -0.032259747, -0.0729344, 0.054312807, 0.057414435, -0.0034692998, 0.09178127, 0.031316243, -0.08250159, 0.043802075, 0.08110787, -0.004580303, 0.12266336, -0.07927656, -0.025547434, -0.17126997, -0.13915116, 0.033861183, -0.08330394, 0.08130412, 0.113290235},
{-0.039152645, -0.10477963, 0.10081199, -0.101733804, -0.017167836, 0.021854287, 0.088041276, -0.14806366, -0.24730617, 0.14952049, 0.10459146, -0.008252461, 0.01926621, 0.074800074, 0.054070678, -0.12964202, 0.26339567, 0.11928578, 0.12889466, -0.068479545, 0.03653831, 0.0131438095, -0.09172279, 0.10944614, 0.06825934, -0.0714742, -0.02734097, -0.08579268, 0.077426456, 0.0044749593, 0.0063273646, 0.02888995, 0.11211902, 0.011175049, -0.0010175975, 0.036008246, -0.013266426, -0.07045002, 0.036729928, 0.15719976, -0.09587265, -0.00959573, 0.046159923, -0.019659478, 0.001121501, 0.18723267, -0.009835738, 0.09747408, 0.098816626, 0.012863077, -0.018133905, -0.10553499, -0.08470884, 0.037074417, -0.034209397, 0.06301679, 0.08647271, 0.06857957, -0.07348169, 0.06569345, 0.095818214, -0.08552961, 0.029454835, -0.04026964, 0.07245802, 0.047029283, 0.08640465, -0.07643228, 0.08186528, -0.016485952, 0.03930677, -0.06869966, -0.12573934, -0.07841565, -0.019257087, -0.012438804, 0.019883046, 0.027090287, -0.07103745, 0.0017706546, 0.108042166, -0.013662982, -0.08839841, 0.054850444, 0.10807928, -0.0033324985},
{-0.08745965, -0.07139093, -0.023420526, -0.121482685, -0.076473914, 0.082449116, 0.034688145, -0.18094085, -0.06598901, -0.15088718, -0.053281903, 0.0046734847, 0.15491417, -0.043143924, -0.27851528, -0.11371583, -0.194898, -0.10174394, -0.09912614, 0.3164235, -0.07970241, 0.053528186, -0.008940322, 0.04409458, 0.016034259, 0.0938362, -0.07771466, -0.108612396, 0.055211786, -0.01321719, -0.110106006, -0.02120558, -0.0041671656, -0.013801954, 0.05560381, 0.06638493, -0.025504285, -0.0785413, 0.09315365, -0.028659314, 0.09884476, 0.036331005, -0.08466089, 0.009717646, 0.014472012, 0.060755536, -0.08854166, -0.07099009, -0.08875295, 0.019912384, 0.052042373, 0.09125413, -0.016013416, -0.08805718, 0.052873623, -0.07968147, 0.021595147, -0.0129117435, 0.08507737, 0.05281559, -0.15098615, 0.07000651, 0.10539659, -0.055868503, -0.111412995, -0.04106982, 0.0568653, -0.018909296, 0.05368141, 0.11006521, -0.024968239, 0.071005516, -0.043828182, -0.16837564, 0.17067741, 0.09829587, 0.015798919, -0.1345456, -0.00992186, 0.1170081, 0.05579977, -0.03868772, -0.07904871, -0.043091696, 0.097719245, -0.14090899},
{0.12510985, 0.14269014, 0.14113446, 0.012005673, -0.021241287, -0.13173963, 0.09501877, 0.08705524, 0.0038599444, -0.22609968, 0.0004164545, -0.019321863, -0.21832202, -0.08220965, 0.29777825, 0.14091067, 0.08326288, 0.0679234, 0.087864615, -0.28693548, -0.08891227, -0.06637421, -0.065374136, -0.05527484, -0.10511625, 0.01586308, -0.047828723, 0.1182635, -0.09400869, -0.11982864, -0.12879814, 0.031670913, -0.064051956, 0.058128376, 0.10372109, 0.030809414, -0.096978046, -0.04692108, -0.16389672, -0.18907815, -0.060208518, 0.041739892, 0.005463262, 0.03775151, 0.058484998, -0.1009145, -0.15012692, -0.051025365, 0.0644792, 0.19764629, 0.09712631, 0.010720895, -0.02801755, -0.06531882, 0.025644505, 0.02466991, -0.06086156, 0.11035689, 0.08905612, 0.036537703, -0.06838715, -0.020294113, 0.09244835, 0.008448705, -0.010237744, 0.013630413, -0.09412338, -0.18875809, -0.06576426, 0.1237413, -0.0598676, -0.082020044, -0.10864835, 0.1254891, -0.022815647, -0.012404047, 0.0073359692, -0.0713736, -0.08091754, 0.13303368, 0.054918353, 0.13204604, -0.026368676, 0.046988558, 0.09693828, -0.005988056},
{0.09635396, -0.021742554, 0.0059781303, -0.1427053, -0.051274452, -0.040690262, -0.035370618, -0.03279286, -0.14475472, -0.009843392, -0.1208835, -0.08390912, -0.14136232, -0.07035161, 0.05880887, 0.05205656, 0.10530115, 0.042979404, 0.13225417, -0.23276149, -0.0385294, -0.04634251, -0.019003408, 0.006147787, -0.09254909, 0.03800811, -0.15370087, 0.08503394, -0.11118692, -0.06421847, 0.023361338, 0.08603253, -0.046020906, -0.022980396, -0.0022546225, -0.10283562, 0.046345897, -0.05143237, -0.00782043, -0.008641921, -0.078990296, -0.089869045, -0.089894235, -0.07679505, -0.08752535, -0.0017670187, 0.11609254, -0.0267806, 0.09780074, -0.16094716, -0.1066979, -0.16323599, 0.067479335, 0.07158963, -0.029197054, -0.029569456, -0.036792703, -0.051061165, -0.113566674, -0.117451765, 0.13211437, 0.033541847, 0.054235596, -0.056891438, 0.059811752, -0.09417615, -0.059712652, 0.06643472, -0.006906146, -0.10203238, -0.15593186, -0.0373073, 0.009382972, 0.0062705697, -0.0965571, -0.036759727, -0.021957781, 0.13146982, -0.09067619, -0.15491086, -0.16331758, 0.02978689, -0.040692545, -0.067306906, -0.17563489, 0.06099819},
{-0.04154037, -0.039049417, 0.06338738, -0.06930355, 0.048224486, -0.1131805, -0.009766236, 0.08648191, -0.085065305, 0.083476216, -0.03787916, 0.08539677, 0.021210194, 0.057540514, 0.13358575, 0.03621287, 0.18349217, 0.05585634, 0.12584963, -0.11905225, -0.025911305, -0.014126808, 0.06708883, 0.029377334, 0.063901655, -0.024165943, 0.10505208, -0.031453013, 0.13311355, -0.11088135, -0.04089757, 0.15221064, -0.0495185, 0.09540209, 0.094688214, 0.111989, 0.038385224, 0.10287196, 0.101293065, -0.022862755, 0.040010575, 0.016617313, -0.013448149, 0.039367698, -0.13688302, -0.10316734, 0.06506179, -0.08945349, 0.066913486, -0.21037632, 0.09342697, 0.10797992, 0.0044191615, 0.035916183, 0.057045747, -0.012402984, 0.03481278, 0.077185266, 0.03307673, 0.03021924, 0.060652208, 0.012729392, 0.024902161, -0.09410219, 0.0049667098, 0.102240086, -0.010117913, 0.1354815, 0.00036533157, -0.012502128, 0.13084969, 0.06526358, 0.034764066, -0.031442557, -0.03438481, -0.026008978, 0.122248314, 0.13399246, 0.10824129, -0.118270114, -0.10114994, 0.020876758, 0.015398514, -0.050634414, -0.053478748, 0.032813262},
{-0.070121124, -0.016090034, -0.12316885, 0.036548935, 0.06943652, -0.21246228, -0.081944846, 0.23452008, 0.2439808, -0.07702975, 0.12312499, 0.06923617, 0.044162713, 0.05714954, 0.2275089, 0.023235282, 0.13589913, 0.09014495, -0.004147508, -0.049852796, 0.096847475, 0.04405678, 0.113777876, 0.10758287, 0.17326784, -0.06903316, 0.10512164, 0.031768143, 0.05182455, 0.04741777, 0.051555764, 0.023617055, 0.04415647, 0.23712663, -0.09005203, 0.0150771, 0.00032875247, 0.033452325, 0.09612951, 0.077733815, 0.13569851, -0.062493067, 0.14626494, -0.111864835, 0.16280946, -0.0811597, 0.102478184, -0.03185968, -0.03286836, -0.019905988, 0.010489373, 0.106543526, -0.07032264, 0.06366939, 0.17824613, -0.06440295, 0.0757918, 0.07527676, 0.18750678, 0.03645382, 0.060044184, 0.10574658, -0.03946719, 0.15965807, -0.02630552, 0.08874174, 0.043437444, -0.07860031, 0.11356718, -0.09741475, 0.23561142, 0.07855956, 0.07614613, 0.04875936, 0.013457688, -0.062421344, 0.14208274, -0.078025565, 0.04230989, 0.02414458, -0.13509546, 0.07656243, 0.005069753, -0.121486746, 0.055497505, 0.11293423},
{-0.03293154, 0.027282875, 0.00017344944, -0.07453517, -0.03845888, -0.06293874, 0.0833484, -0.018051893, 0.24583305, 0.11586809, 0.060203794, 0.029313248, -0.028795768, -0.07458634, -0.037136342, 0.16281539, 0.23015548, 0.1014856, -0.010606497, 0.048114207, -0.040827557, 0.013535478, 0.14211307, 0.023664756, -0.021742856, 0.10386581, -0.01181679, -0.078365326, 0.025011446, -0.0572725, -0.0045716697, 0.115890495, -0.040249538, -0.16366874, -0.08773486, 0.102442145, 0.03572877, 0.06985895, 0.034893416, 0.035186388, 0.05053524, -0.08031554, -0.0115581695, 0.14267255, -0.044347484, 0.05786779, 0.2767941, 0.028072065, 0.051680524, -0.10927438, -0.086078614, -0.12700155, 0.018830402, 0.05744777, 0.024712443, -0.030595805, -0.05643982, -0.09434505, -0.021056313, 0.009461437, 0.23334575, 0.013745566, 0.116910115, -0.052505277, 0.045125492, 0.0128626665, 0.04793564, 0.043827888, -0.0023393186, -0.0031902452, -0.007494489, -0.12212217, 0.046598576, 0.13583127, -0.14990877, -0.09188804, -0.036867946, -0.032641716, -0.06375923, 0.11386828, -0.08420631, 0.11631817, 0.12641416, -0.022567803, 0.17153007, 0.19344984},
{-0.025545236, 0.022470267, 0.16082135, -0.14697962, -0.0035413376, -0.026474765, 0.004792894, 0.04214218, 0.08579058, 0.07352571, -0.03472798, -0.017760856, -0.017354885, -0.08279236, -0.027385902, -0.052831534, 0.13084006, 0.049653303, -0.12634891, 0.0064214915, 0.0015003497, -0.10232765, 0.09834281, -0.001530378, -0.01750551, -0.047500335, 0.02879256, -0.040900525, -0.036819253, 0.014645808, 0.14861552, -0.009046641, 0.070152014, -0.01537403, -0.028787458, -0.042127345, -0.063414104, 0.02285177, -0.0014622926, 0.020549186, -0.051161148, 0.15623422, 0.12524317, 0.0870033, -0.073147334, -0.021178558, 0.11942017, 0.041194234, 0.111736916, 0.019392755, -0.088110395, -0.11433777, 0.012647909, -0.009830518, -0.050072446, 0.053221464, 0.035762478, 0.089066, -0.1403023, -0.1472489, 0.020171473, -0.08799153, -0.007998389, -0.033331487, -0.07826957, 0.06023556, -0.031127946, 0.042782303, 0.04927944, 0.08121576, 0.048286144, -0.107505985, -0.07533486, 0.0010368923, 0.077127144, 0.10613783, -0.12434048, -0.10161854, -0.15712947, -0.00017053125, -0.028347872, 0.0047803377, 0.09653628, 0.08997997, -0.024293717, 0.014176999},
{0.02109973, 0.056362987, -0.12161258, 0.07917727, 0.001146068, 0.116806604, 0.02757477, -0.11905729, 0.18046701, 0.14805405, 0.14164343, 0.062365346, 0.0046218373, 0.008153224, -0.21549654, 0.103763975, 0.006196294, 0.1847679, -0.08592776, 0.060378104, -0.075104564, -0.14218935, 0.084815435, 0.12644745, 0.04570695, -0.06065677, 0.08609959, -0.019672863, 0.01736747, -0.044702623, 0.13541117, 0.13808595, 0.016192405, -0.132558, -0.108969875, 0.10012481, -0.014522822, -0.058639925, -0.05988229, 0.099089816, 0.109996624, 0.05970253, -0.052296173, -0.07134866, 0.11296265, 0.113850385, 0.14179067, -0.02060506, -0.063579984, 0.17625794, 0.017295783, -0.08738905, 0.021941086, 0.1057346, 0.057070956, 0.037966967, -0.045704022, 0.08548092, -0.009811642, -0.05144971, 0.07021777, -0.01191332, -0.038303178, 0.15170255, -0.06513507, -0.012950906, 0.11440023, 0.2011722, 0.060111783, -0.03971868, -0.036170907, -0.010977576, -0.00195306, 0.079095475, 0.07400036, -0.10171279, 0.006800075, 0.096751586, -0.03499147, 0.010235496, -0.02319563, 0.09609523, 0.06450931, -0.053529378, 0.018457228, 0.17039314},
{0.044987902, -0.044026516, 0.014247464, -0.11621647, 0.058134407, 0.051022727, -0.031569187, -0.13881804, -0.07568235, 0.22973774, 0.0012061239, 0.06901885, -0.032658424, -0.036200654, -0.077791765, -0.09797306, 0.2259058, 0.021838235, 0.050982263, 0.19239166, 0.05218943, -0.0017506438, 0.03992253, 0.039634496, -0.04196887, -0.041526735, -0.04390311, -0.07900909, 0.00049987616, -0.05846509, 0.06614486, -0.087430924, 0.053282738, 0.031477507, 0.046487078, -0.0048016026, 0.079988495, -0.1935654, 0.02678137, -0.016033512, 0.023218641, -0.0035411916, -0.016941115, -0.115517974, -0.19101691, -0.04431043, 0.12495206, 0.03146051, -0.060346037, -0.24378698, 0.025371969, -0.17149691, 0.049034443, 0.14509211, -0.022756614, -0.10317297, -0.18923946, -0.08028311, -0.18680492, 0.11406886, 0.12482395, -0.07973635, 0.03176424, -0.20874988, 0.08120178, -0.06314515, 0.075748324, -0.011108396, -0.04549943, 0.02505121, -0.14888151, -0.106516436, 0.11260611, 0.12502798, -0.11146323, -0.0400213, -0.077703, 0.14110099, 0.034025565, -0.057571903, -0.052339774, 0.055398308, 0.016510548, -0.03166132, -0.12449986, -0.04270564},
{-0.1293769, 0.09852619, -0.2733944, -0.050331615, 0.047146868, 0.06853643, -0.026995694, -0.04129634, 0.02945436, -0.19639955, 0.06459992, -0.02500939, 0.12566674, 0.014341399, -0.2267494, 0.08383756, -0.17935771, 0.1320255, 0.06080295, 0.1858733, -0.08829128, 0.14726484, -0.0775498, 0.021253789, -0.05803874, 0.10765373, 0.07945326, 0.013915786, -0.0015387012, 0.06020381, 0.017576834, -0.035421263, 0.05120986, -0.045849197, -0.08744322, 0.030171394, 0.028184919, 0.05445253, 0.012901483, -0.006558702, 0.06449254, -0.010444465, 0.25449002, 0.025955973, 0.2430224, -0.11472132, -0.21036734, -0.06358724, 0.03502749, 0.14518164, -0.050730318, 0.2264444, 0.03722406, -0.023348596, 0.008720097, -0.030607525, 0.074578114, 0.092561044, 0.19498937, -0.039828938, -0.20576462, 0.066573314, -0.09745733, 0.21946356, -0.065579474, 0.0758042, -0.1066194, 0.11792606, -0.023223033, 0.009335619, 0.032901965, 0.053489488, 0.071664706, -8.669647e-05, 0.03540537, -0.0048442557, -0.024038484, -0.10112844, 0.06097494, 0.064533025, 0.17104942, -0.11356659, 0.06344503, 0.013513341, 0.16276088, -0.06756116},
{0.017432647, -0.020776866, -0.14824516, 0.0029472152, -0.080904245, -0.2761776, -0.037085082, 0.26971713, 0.07232894, -0.110167116, 0.010788385, 0.0072252313, -0.03697052, -0.039218564, 0.17140406, 0.012528082, -0.066669226, 0.10761859, -0.061703827, -0.27908778, 0.110686466, -0.002391688, 0.016974943, 0.010261981, 0.03836707, -0.05955055, 0.17431699, -0.010178288, 0.032940745, 0.13058591, 0.08630916, 8.3195846e-05, -0.09106321, 0.042949487, 0.08160904, 0.15155815, 0.03236847, 0.15691654, -0.09304351, -0.15139137, 0.112976104, -0.05066982, 0.15377013, 0.002908943, 0.098101325, 0.0499354, 0.06465805, 0.08017905, 0.08292584, 0.26569775, 0.000464649, 0.025243483, -0.007770528, 0.07962844, 0.16744284, -0.0017265652, 0.11942207, -0.10451357, 0.18415947, 0.0006200952, 0.155682, 0.095346026, 0.0049865977, 0.24465539, -0.04621405, 0.16407008, -0.05423716, 0.0375394, 0.14514454, 0.061005503, 0.14027297, 0.008214098, -0.01903262, 0.07301613, -0.014631828, -0.08215436, 0.039776534, 0.10571279, -0.023533208, 0.006240066, 0.14577639, 0.13659213, 0.05589086, -0.062358685, 0.12453854, 0.15767618},
{0.20637853, -0.10022781, 0.26414096, -0.14058046, 0.06413138, -0.01220108, 0.021537606, 0.13679323, 0.067800425, 0.07788532, 0.08044031, -0.05999724, -0.18760732, -0.055688865, 0.23136567, 0.02645914, 0.16781175, -0.066301964, -0.042622495, -0.32614642, -0.10132255, -0.16560702, -0.06369522, -0.08868929, 0.0019998755, 0.028743012, -0.00033596522, 0.044998616, -0.059638962, -0.082259685, -0.15518354, -0.11685451, 0.124737106, -0.05777558, 0.0030666587, -0.022657005, 0.106004946, -0.035802644, -0.041596547, 0.021739969, -0.10213518, 0.10253593, -0.08509587, 0.04854674, -0.13976635, 0.03363595, 0.06975431, 0.030677348, -0.023672594, 0.008792588, -0.09854868, -0.063816376, -0.066838466, 0.057719283, 0.082016274, -0.04595249, -0.0484425, 0.08303231, -0.15522677, -0.03234405, 0.15554486, 0.03357931, 0.05381243, -0.041280825, -0.08707525, -0.21082218, 0.05784108, -0.20371151, -0.0766494, -0.08785191, -0.16474766, 0.16874297, -0.11260755, 0.051005397, -0.19294381, 0.03986895, 0.03489065, -0.038088903, 0.0044964943, 0.05434548, -0.17771718, 0.08745327, -0.044981074, -0.016830398, 0.12992483, -0.04460398},
{-0.1398192, 0.031173727, -0.12065417, 0.018762704, -0.076416776, 0.28000227, 0.05930467, -0.15172802, -0.053031415, 0.043294247, -0.078352846, 0.063522704, 0.12334852, -0.07839363, -0.19654535, -0.08604239, -0.22367209, -0.0785039, 0.070027836, 0.24276066, -0.08818689, -0.04477499, 0.060765628, -0.032211065, 0.0827242, -0.097623035, 0.06463602, 0.036662802, -0.0787099, -0.05028854, 0.08574524, 0.05940143, -0.07965641, -0.058319885, -0.058398794, -0.10721846, 0.081244126, -0.13929352, -0.059968617, 0.047166143, -0.03547702, 0.0560328, -0.01615732, -0.065543614, 0.09143038, -0.04398085, -0.057148993, 0.037562598, 0.03928498, 0.039943222, 0.046679553, 0.023693351, -0.103419974, -0.03326612, -0.053224206, -0.037394673, 0.020442164, 0.09202963, -0.040682398, -0.018377414, 0.0027659612, 0.036093988, -0.069295436, -0.012448737, 0.052872475, -0.0544433, -0.0053332914, 0.03335601, -0.011601974, -0.10770069, -0.14033411, -0.029621234, -0.014629797, -0.002097045, -0.03230901, 0.016772464, -0.070778884, -0.08745387, -0.086746015, 0.115990475, 0.06375582, -0.1769638, -0.073357, -0.012012218, 0.11670326, 0.08271765},
{-0.0028542164, -0.013924661, -0.03972718, -0.07284947, 0.051469024, 0.120496236, -0.07932053, -0.040296603, -0.047958564, 0.044795204, 0.078872815, -0.03864208, -0.06627004, 0.053751275, -0.024684565, -0.1533365, -0.0032001333, -0.053880867, -0.04960768, 0.089243084, 0.093456, 0.0136236595, 0.043059986, 0.004652798, -0.022249755, 0.019795626, -0.1505315, 0.08313339, -1.921397e-05, -0.017692734, -0.076642774, 0.059715863, -0.10809776, -0.0013827813, 0.045361053, -0.03857504, -0.09147903, -0.13956186, 0.028134136, -0.006156946, -0.075339615, 0.051783174, -0.11204344, -0.053184085, -0.12602694, 0.09960913, 0.09046323, 0.0063350527, -0.065630786, -0.03789778, -0.05103601, -0.057974212, 0.03701806, -0.034613706, -0.0624707, -0.021787852, -0.15255909, 0.041107226, -0.05026416, -0.07607539, 0.1560931, 0.045025267, 0.03344638, -0.053264372, 0.11941014, -0.17480983, -0.09014704, 0.0141968485, -0.000409416, -0.048314083, -0.13640648, -0.06583603, 0.09084896, 0.07844552, -0.08501222, 0.084086105, -0.050764296, -0.0034144577, 0.056323647, -0.068217404, -0.076671585, 0.09769658, -0.10255614, 0.027629063, -0.13251998, 0.06767997},
{0.059598204, -0.037784573, -0.029223403, -0.03563444, 0.06132229, -0.114942215, -0.06251041, 0.019756528, 0.12262842, 0.027720837, 0.07237021, -0.074326396, -0.11450489, -0.026511453, 0.113030046, 0.037628632, 0.23977734, 0.020345336, -0.0559811, -0.14990781, 0.02756089, 0.02139392, -0.03294065, 0.07520473, -0.074586995, 0.079628505, 0.054496273, 0.01398151, 0.03998041, -0.072706796, 0.049044, -0.0859527, -0.012025933, -0.043564245, 0.01386619, -0.05689434, 0.025505917, 0.046337817, -0.099897765, -0.040569674, -0.1174287, -0.12832466, -0.11575761, 0.0077233883, -0.18177898, 0.030982582, 0.1286551, -0.08387391, -0.09327383, -0.06599299, 0.04409311, -0.12273235, -0.081495546, 0.11881087, 0.027967205, 0.0046013077, -0.055557955, -0.0581964, -0.19039185, -0.1285591, 0.022152781, -0.08447641, -0.03377859, -0.18483388, 0.054602303, -0.10920335, 0.07053595, 0.122160815, -0.09347219, 0.031859044, 0.02732683, 0.015837504, 0.07742545, 0.14117819, -0.13442217, -0.06804393, -0.09616832, 0.11438947, 0.025673425, -0.11171833, -0.122419305, 0.02702801, -0.08353137, -0.10254234, -0.19341871, 0.108585194},
{0.08741325, -0.06543526, 0.037780315, -0.045351643, -0.037370645, -0.020918429, -0.038272604, -0.06733827, 0.026069984, 0.07838918, 0.047993362, -0.07116209, 0.023643881, -0.08093444, 0.100585595, -0.1045168, -0.10010788, -0.08923663, 0.06544849, 0.093546346, 0.1037548, -0.01568412, 0.080031216, -0.05938295, 0.039737582, -0.04025379, -0.020135567, -0.061247353, 0.047694594, -0.10327302, 0.010493085, -0.026244476, -0.10137055, -0.10208544, -0.08654723, -0.059279367, -0.10479263, 0.07064715, -0.008490056, -0.010454237, -0.07223865, -0.036553442, -0.07726054, -0.09932151, 0.026202306, 0.015053049, -0.0825616, -0.027259842, 0.07194331, -0.08747445, -0.10467497, 0.08442183, -0.07589295, 0.06970371, -0.09588224, -0.049188774, 0.08607726, 0.032898664, -0.012442559, 0.06799561, -0.047837786, 0.05825582, 0.030781806, 0.04216729, 0.058654547, 0.098643705, 0.069648236, 0.09182757, -0.031965137, 0.06844473, -0.03504756, 0.066470936, 0.037369177, 0.09966974, -0.009803243, 0.01542329, 0.029568002, 0.10196531, 0.067956686, -0.043896355, -0.043745592, -0.06770384, -0.025238879, -0.003512986, -0.08985625, 0.036517665},
{0.08130379, -0.026895748, 0.039027464, 0.116456725, 0.015149035, 0.07448357, -0.03185413, -0.04752388, -0.07935482, 0.08970938, -0.080975085, -0.06267607, 0.14076273, 0.0070289387, 0.0013512102, -0.1053687, 0.10015199, 0.033646613, 0.045300066, 0.025178513, -0.0030228077, -0.113044135, -0.06234725, 0.017437419, -0.04405475, -0.06476655, 0.04735308, -0.05566981, -0.07044459, 0.11377975, 0.05326657, -0.055929024, -0.031924058, -0.14674015, 0.08860113, -0.065134935, -0.03805575, -0.086823724, 0.012855953, 0.080854595, -0.058921006, -0.11205756, -0.083233885, 0.07991411, -0.10134757, -0.005663871, 0.15717822, 0.03986168, -0.03806471, -0.12869479, 0.07156003, -0.09402097, -0.076631136, 0.15635207, -0.039433565, -0.028154336, -0.13403909, -0.10637706, -0.00467638, -0.021302767, 0.15939021, 0.03197363, -0.045527395, 0.015446333, 0.042150207, -0.13397807, 0.05229003, 0.18511096, -0.0693715, 0.05828786, -0.091024555, -0.06814801, 0.04737989, 0.053611748, -0.048776615, 0.005336806, -0.011108416, 0.15125963, 0.075416505, -0.1608068, 0.032347, 0.11650272, 0.042033814, -0.040907454, -0.06817593, 0.11499072},
{-0.13565907, -0.033931054, -0.056049418, 0.055769484, 0.003433531, -0.07053995, 0.02671241, 0.03831606, 0.11181424, 0.26561475, 0.20373407, 0.07729635, 0.11882082, 0.0038920823, 0.058701493, 0.053639427, 0.2923818, 0.05751386, 0.031404465, 0.0080666775, 0.078723826, 0.21770474, 0.1510383, 0.07995303, 0.097190276, 0.046513293, 0.0027436407, -0.07026236, 0.09050741, 0.056196813, 0.20928548, 0.015434357, -0.012688063, 0.055663295, 0.02140957, 0.071372285, -0.051911104, 0.09850852, 0.15749146, 0.10069724, 0.1614109, -0.031344853, 0.15903255, -0.0783886, -0.003551464, 0.049148202, 0.08418023, 0.1506516, 0.0281131, -0.028230589, 0.033937275, 0.13260636, 0.0060652816, 0.095264755, -0.0019768057, 0.07443303, -0.025823459, -0.10708121, -0.0707625, -0.07019201, 0.12851922, 0.03894702, 0.084577985, -0.0006372773, -0.003495796, 0.17693363, 0.113158405, 0.21278912, 0.093223795, 0.010121195, 0.16758817, 0.0018025123, 0.050456457, 0.07795892, -0.039932713, 0.03910409, 0.04149329, 0.14583862, 0.0029599261, -0.15523136, 0.029553864, 0.12175121, 0.19321437, 0.1872167, -0.16268924, -0.0011735213},
{-0.0030305367, 0.04526431, 0.007071846, -0.0041372683, 0.07291093, 0.15536281, 0.05308655, -0.041443132, -0.018837584, 0.101966776, 0.16082427, 0.09203539, 0.10601207, -0.03428763, -0.06464765, -0.15436481, 0.29529175, 0.10316503, 0.057465132, 0.18161714, 0.038066193, 0.04436469, 0.02723443, 0.10160161, -0.04067744, 0.07090885, -0.07222632, -0.094834805, -0.061513487, -0.036247954, 0.1924778, 0.19145533, 0.09750572, -0.010147362, -0.008337566, 0.019369423, -0.014794134, 0.020163417, -0.018844131, 0.006584604, -0.039781965, -0.065646574, -0.07472191, 0.10828978, -0.007966853, 0.13050658, 0.050687224, 0.08437884, -0.069132395, 0.071435206, -0.07160362, -0.0044289483, -0.01647808, 0.12210252, 0.10289852, 0.0525007, -0.0029559238, 0.07239325, -0.011543304, 0.15237412, 0.24401341, 0.08357519, -0.025906146, -0.010544733, -0.057735853, -0.03532803, 0.04773132, -0.015953429, 0.17264803, -0.049277127, 0.0577887, -0.07620255, -0.11128795, 0.03363236, -0.0021189786, -0.07917959, 0.057626314, -0.1975164, 0.1261225, -0.044305444, 0.06046866, 0.09171142, 0.12201419, 0.059559386, 0.14479682, -0.019062903},
{-0.038683485, -0.0695508, 0.16098899, 0.09353993, 0.029832497, -0.05101193, 0.0464775, 0.02887664, 0.014809079, -0.0494549, -0.028022088, 0.015074696, -0.03193775, -0.060195543, 0.056452762, -0.08398393, 0.16233853, -0.11088225, -0.012596038, -0.0153078325, -0.04595118, 0.015064606, 0.046001628, -0.065523654, -0.031363457, -0.04255311, 0.07592507, -0.09017949, 0.032594096, 0.078125365, -0.027260363, -0.010697476, -0.024051134, 0.0023404267, 0.029307907, -0.059026457, 0.014065669, 0.073747315, -0.044166837, 0.099587984, -0.113245875, 0.022143496, -0.0908594, 0.07368499, -0.079946585, -0.07309417, 0.07882831, -0.020866305, -0.021097075, 0.024717858, 0.026515197, -0.03055816, -0.04040187, 0.048118014, 0.0331732, 0.047926184, 0.068548396, -0.027700074, -0.08851275, -0.035526734, -0.0719329, 0.077817105, 0.11219661, 0.03319895, 0.0065414207, 0.09339256, 0.12676826, 0.042148497, -0.122502685, 0.05190662, 0.032049134, 0.021577712, -0.0047449507, -0.09103886, 0.050105806, -0.06854311, 0.049947135, 0.039548215, 0.050328553, 0.03671857, -0.07280128, -0.033879478, -0.088614345, 0.06348739, 0.0276242, -0.11657328},
{0.1738983, -0.026298113, 0.042194147, 0.007772482, 0.019725118, -0.20881033, -0.09723071, 0.062456015, -0.085294366, -0.042435747, -0.13983653, 0.10929922, -0.13160248, 0.010092043, 0.20433326, 0.10859114, 0.23168793, 0.023599103, -0.08950187, -0.15294376, -0.072303414, -0.12588269, 0.06800888, -0.11917919, -0.12043973, -0.0871349, 0.020281702, -0.030421067, -0.15950845, -0.034055278, 0.039706297, -0.044190627, -0.11294252, -0.08708918, -0.08118208, -0.11399976, 0.010457176, -0.05404152, -0.14340499, -0.04358187, 0.011108839, 0.05361572, -0.14949319, 0.034070462, -0.1326922, 0.055285078, 0.06874914, -0.14785603, 0.026015751, -0.15793101, -0.050333194, -0.12356236, -0.0881817, -0.0059023728, -0.09588391, 0.08343293, -0.15268955, 0.036878515, -0.012849996, -0.093198545, 0.026007181, 0.040650066, 0.049471106, -0.101305805, -0.0029111917, -0.13141198, -0.02164547, -0.08922359, -0.027238166, -0.04071616, -0.08128289, 0.047611713, 0.11076384, 0.10224197, -0.1501583, 0.07440923, 0.045557752, 0.14576983, -0.14431153, -0.15172687, -0.0149244815, 0.18009788, 0.0070974403, -0.05962373, -0.08152142, -0.13947737},
{0.19348842, -0.064069, 0.1141642, 0.1409789, -0.017213874, -0.22694443, -0.09446665, 0.049468607, -0.11098836, -0.12963356, 0.06123956, -0.04565303, -0.10363761, -0.07096574, 0.16418964, 0.05128749, -0.19432582, -0.03848923, -0.07922195, -0.27480552, 0.0670972, 0.07182309, -0.016464408, -0.093377665, -0.025865376, -0.047098693, 0.09528204, -0.064373314, 0.061523847, -0.10822772, -0.15016057, -0.026790656, -0.09788125, 0.14695807, 0.10155075, -0.06365928, 0.082924016, -0.05091722, -0.047693424, -0.09665101, -0.06968064, 0.045379475, 0.047912676, -0.05148579, 0.096237354, 0.057178695, -0.07155432, 0.06958633, 0.009279059, 0.09316613, -0.042065, 0.095405504, 0.03770834, -0.09948724, -0.032459605, -0.020449005, 0.14209338, -0.014686436, 0.06566662, 0.09661196, -0.20263255, 0.083322756, 0.05488349, -0.020179292, -0.051052306, 0.012918418, 0.088494, -0.06860482, -0.14115588, 0.03886933, 0.0652848, -0.03987855, -0.009313127, -0.14124328, -0.019459607, -0.076478966, 0.068547904, -0.04546318, -0.029352246, -0.02638161, -0.008119426, -0.09304057, -0.014123208, -0.020084279, 0.09458961, 0.059831996},
{-0.10845587, 0.009582065, -0.26355577, 0.039097216, -0.081079304, -0.03379292, 0.011769427, 0.23241934, 0.0400702, -0.28798628, 0.097094394, -0.05039106, -0.08976344, 0.091186866, 0.0022161603, 0.17218375, -0.24386285, -0.018128399, -0.048634905, -0.21160723, -0.013167184, 0.017840762, -0.11862377, -0.018284567, -0.0688834, -0.07039411, 0.11987941, -0.04336977, -0.0016618446, -0.14037578, -0.033239108, 0.041339774, -0.13027444, 0.16454664, -0.019873736, 0.0071953055, -0.01889786, 0.2378329, -0.023699453, 0.03017261, 0.011394331, 0.03911093, 0.23766358, 0.010143303, 0.16395083, -0.15300655, -0.26645997, -0.06244594, -0.03080034, 0.2658029, 0.106844254, 0.23082079, -0.06136387, -0.07771031, 0.060526036, 0.098734036, 0.21329498, 0.024610274, 0.17416681, -0.010947172, -0.12878008, 0.010820466, -0.10037099, 0.101695165, 0.07761782, 0.22312722, 0.015007272, -0.14078195, -0.064660564, -0.09666482, 0.085460775, -0.04425297, -0.14121634, 0.0031316413, 0.14368328, 0.10751051, 0.018707724, -0.09144392, 0.029003784, 0.11621678, 0.063225135, -0.18967162, -0.1094386, 0.0021861105, 0.06675212, -0.005921002},
{0.07642851, 0.09861783, -0.10944535, 0.09868216, -0.017598774, -0.1826831, 0.01822789, 0.20589663, -0.15709636, -0.14704898, 0.008463935, 0.0012144535, 0.015686775, 0.08364419, 0.2851118, 0.066038385, -0.1470775, 0.12593956, 0.020543803, -0.18105821, 0.06859701, 0.007956244, -0.09872835, -0.10469267, 0.058652878, -0.070852555, 0.09314088, 0.017089412, -0.061229408, -0.06213736, -0.120357834, 0.033086255, -0.013123957, 0.032370947, -0.075162955, -0.030901264, -0.014562402, 0.09041189, -0.04816182, -0.09297196, -0.057294168, -0.025137162, 0.0077048624, 0.03243861, 0.0825218, -0.049065087, 0.019665614, -0.020929037, 0.024001492, 0.24050626, -0.065880805, -0.008005656, 0.074306004, -0.058189724, -0.010186786, 0.014690695, -0.004609203, -0.00810635, 0.014102126, 0.027582483, -0.033131815, 0.15355055, -0.07557197, 0.2003407, 0.054300018, 0.044764914, 0.07768966, -0.09571333, -0.0062929895, -0.014848023, 0.045097474, -0.07727639, -0.06294381, -0.12227091, 0.028190143, 0.035032094, 0.042084165, -0.0003447289, -0.039476737, -0.0037527473, 0.06782283, 0.04828832, -0.03728835, -0.034432277, 0.16807167, 0.14398764},
{-0.004921962, 0.034012605, -0.065131836, -0.08112183, 0.02290118, -0.14343047, 0.08963657, 0.09832361, -0.024604814, -0.10476543, 0.05985193, 0.057170477, -0.14724037, 0.05529028, -0.013955644, -0.03350297, -0.26566157, -0.06509155, 0.0352734, 0.048768304, 0.06272992, 0.05521383, -0.12927373, -0.121672705, -0.11843024, -0.07382485, 0.05667172, -0.033884026, -0.07467691, -0.08817947, -0.0941296, -0.08147974, -0.048724942, -0.020719549, -0.14045385, -0.06505897, -0.025055744, -0.029865034, -0.028962394, -0.033614963, -0.08062864, 0.09876452, -0.07540242, 0.025241753, -0.0137861725, 0.019579979, -0.19640954, 0.043673426, -0.06970853, 0.17637686, 0.0073271333, 0.024528751, 0.017093316, -0.16312382, -0.023298299, -0.055152398, 0.025835114, -0.053022318, 0.0017486108, -0.05319487, -0.16457427, 0.012538259, 0.06851321, 0.15082897, 0.09517896, -0.109329164, -0.04480512, -0.049302, -0.0061062896, 0.08837074, -0.16120657, -0.102406204, -0.065607384, -0.05590725, 0.02438336, -0.060239006, 0.038609184, -0.014750904, 0.069228075, -0.01729871, 0.022106716, -0.0056598056, 0.052550983, -0.031730436, 0.13527834, 0.0075504375},
{-0.21467629, 0.046485234, -0.12867612, -0.038539365, -0.007904894, -0.01361511, -0.01666383, -0.11844686, -0.044072617, -0.06983494, -0.0059508015, -0.026168978, 0.17164299, 0.06620781, -0.28462097, -0.055823818, -0.28638914, -0.06431204, -0.012586474, 0.21991222, -0.09745666, 0.20639545, 0.016048161, 0.018695861, -0.050213564, 0.06505732, 0.07995116, 0.016574489, 0.07277381, 0.05243167, -0.09205467, 0.08811792, -0.05582763, 0.15584709, -0.006402455, 0.0984111, 0.052797344, 0.052824862, -0.034461625, 0.06498809, 0.11259743, -0.013083361, 0.009874928, 0.092337124, 0.13358088, 0.031568367, -0.1557322, -0.06939156, 0.092054114, 0.09083092, -0.09075545, 0.09566467, -0.101458676, 0.0061478675, 0.11145501, -0.010106644, 0.18556994, -0.07359638, 0.16609591, 0.02806936, -0.09109582, 0.102387846, 0.0770091, 0.15377365, -0.08286993, 0.21390161, -0.0505428, 0.0306103, -0.0924322, -0.07544883, 0.07420338, -0.012156596, -0.15522715, -0.080752164, 0.1251834, 0.002699919, -0.07812592, -0.120313056, -0.019951113, 0.044806663, 0.19529207, -0.13857158, -0.09425764, 0.015573653, 0.21272774, 0.0016803151},
{-0.20272592, 0.05226314, -0.10623553, -0.04857642, -0.06349175, 0.15954132, 0.05980669, 0.037293978, -0.023121806, 0.0515998, 0.037952133, -0.10169035, 0.20654534, 0.10917888, -0.069070086, -0.12192084, 0.09432604, 0.101690575, -0.028228762, 0.11392393, 0.043767408, -0.030959249, 0.02932767, 0.06901499, 0.1149322, 0.041757602, 0.05617165, 0.066905566, 0.06393352, 0.063562095, 0.12140704, 0.07907187, 0.048238646, 0.15413558, -0.05347453, 0.0366458, -0.06858367, 0.0010040355, -0.090704106, 0.16821052, -0.089770705, -0.002040908, 0.06735967, -0.011782164, -0.0008409633, 0.13299102, 0.19619836, -0.042930998, 0.047694724, -0.044309676, -0.024147905, 0.08413866, -0.07445907, 0.13358948, 0.10495056, -0.08698747, -0.0116575835, 0.1036671, 0.028402204, 0.10092928, 0.092480816, 0.09258949, 0.0029098953, -0.06742566, 0.0845017, -0.024091255, -0.089271545, 0.16669923, 0.10287533, -0.10396396, 0.14460492, 0.068790026, 0.005252549, -0.00889978, 0.1215256, -0.04664387, -0.03653697, -0.0758733, 0.082940154, 0.005723535, 0.018988164, -0.078092076, 0.011684668, 0.029454732, -0.16759005, -0.12318107},
{-0.018895, 0.05647756, 0.07075599, -0.041921277, -0.009472387, -0.07370897, 0.017429473, 0.05981428, -0.037410602, 0.07928177, -0.0020690372, -0.0827268, 0.0022604663, -0.119847275, 0.098467976, 0.06266911, 0.13297142, -0.07220533, -0.029595455, 0.03585484, 0.008091464, -0.0141132595, -0.03313473, -0.07183897, -0.0913787, 0.08625492, -0.055757947, -0.01831463, -0.028659107, 0.0621263, -0.06104003, 0.040297113, 0.07147079, 0.028565452, -0.08425416, 0.059969965, -0.100605436, 0.044843446, 0.027180957, 0.110669926, -0.058222678, 0.065613806, 0.12588097, -0.05579381, 0.016576443, 0.018902905, 0.07339536, -0.060733613, 0.058621284, 0.076290034, -0.034133084, -0.09048321, 0.0019332203, 0.07294534, 0.0024792443, 0.018181518, -0.047094457, -0.033398967, 0.042535458, -0.04699263, 0.009689322, 0.00876387, 0.11111543, 0.075726725, 0.020033138, -0.023637237, 0.070284605, -0.060056966, 0.03794701, 0.10404943, 0.035162576, 0.01599798, -0.09413507, -0.07384666, -0.099478126, -0.03864617, 0.012111349, 0.054187026, -0.09316589, 0.0034447685, 0.008545654, -0.04436247, 0.11031491, 0.110892646, -0.077680744, 0.030973377},
{-0.19225481, 0.019679677, -0.19023472, 0.011571832, 0.0165793, -0.06324221, -0.08905492, 0.13163647, 0.2137645, 0.026065568, 0.02097493, -0.028171495, 0.10510011, -0.027913036, -0.026095087, 0.061265618, 0.16241015, 0.17807637, -0.098512016, 0.06583367, -0.029162128, 0.10959276, -0.046187356, -0.0034958634, -0.05175057, 0.009129661, 0.161662, 0.05501488, 0.042905316, -0.008190902, 0.092214614, -0.01577847, -0.0729225, 0.24749787, 0.053591207, 0.14790465, -0.0063248286, 0.038385984, 0.058189735, 0.021866214, -0.0129064135, -0.09514865, 0.14840545, -0.11126477, 0.10675838, 0.06984783, 0.060084045, 0.014701654, 0.03527415, 0.012296507, 0.03798311, 0.06172424, -0.003445484, 0.078013234, 0.09407374, 0.08340097, 0.071321875, 0.0784438, -0.036560446, 0.018128162, 0.11183454, 0.101710655, 0.02482464, 0.0380964, -0.05784729, 0.07603155, 0.025219413, 0.14266768, 0.080442585, 0.0030813727, 0.14133911, -0.132464, 0.03311849, 0.035324834, 0.08056436, 0.01245144, 0.097826876, -0.041160323, 0.09435275, 0.029707475, 0.029991118, 0.05561998, 0.14154185, 0.053412627, 0.07014431, 0.12372586},
{0.12882471, -0.015008694, 0.082913786, -0.042719234, 0.025525672, 0.044378158, -0.063183494, 0.014360267, -0.040373866, -0.011312976, -0.03337149, 0.06577343, -0.21032745, 0.06000882, 0.07878534, 0.053287726, 0.0031126249, -0.027400253, 0.008517378, -0.1299018, 0.072207175, -0.0023540854, 0.06962985, 0.012371911, -0.09522371, -0.011640234, -0.076723, -0.11281103, -0.19531271, -0.007905223, 0.010047076, 0.05470246, -0.020677809, 0.019484883, 0.0007335158, -0.13646974, 0.08615555, -0.05505875, -0.04305916, -0.15295719, 0.023521574, -0.097092375, 0.05104035, 0.0675142, 0.029861765, -0.04734945, 0.061328586, -0.014255903, 0.04020511, 0.071275756, -0.06049782, -0.0039678807, 0.058693867, -0.04647653, 0.024305614, -0.046528235, -0.037113167, -0.041185435, -0.024697583, 0.03642315, 0.10830005, 0.012620398, -0.079567485, -0.064709045, -0.005007159, 0.024067806, 0.08223777, 0.044594213, 0.0031238885, 0.045452107, -0.009554806, -0.06563456, -0.12788156, 0.0005324496, -0.06216178, 0.049733132, -0.099316694, 0.065292604, -0.021636266, 0.06400404, -0.020404872, 0.020138243, 0.051329356, -0.05979334, 0.017081054, 0.09036305},
{-0.010254548, -0.05551354, 0.055451732, 0.06540782, -0.016128827, -0.017791338, -0.037253138, -0.022793839, -0.022405814, 0.038458925, -0.088943824, 0.017432118, -0.14921285, 0.044301715, 0.2474851, 0.04124742, -0.08230383, -0.079112835, 0.0079403, -0.14899357, 0.0015609359, 0.02692227, -0.055266947, -0.05541166, 0.08289421, -0.02962308, -0.048477083, 0.05564388, 0.024902709, 0.04179498, -0.039228212, -0.03249266, -0.021520916, -0.03649346, 0.060222287, 0.0053874473, -0.021303864, 0.02712827, -0.053965494, -0.04451226, -0.019717876, 0.06332344, -0.10669682, -0.08953448, -0.10139501, -0.0708352, -0.053537153, -0.00970367, -0.10629715, -0.115282275, 0.013553184, 0.021115702, 0.027194101, -0.0043182955, -0.05793193, 0.0030714422, -0.062110357, -0.016253434, 0.0077647646, -0.07524909, -0.034677107, 0.0431771, 0.08802834, -0.049902443, -0.045490913, -0.039302375, -0.012038283, -0.08689959, 0.04834395, -0.031130228, 0.057721943, -0.046101235, -0.025204472, 0.016319508, 0.025351837, -0.058675997, -0.091895126, -0.056608044, -0.03489496, -0.022539876, -0.07493079, 0.030199928, -0.11072227, 0.07483474, -0.104507, 0.08136297},
{0.05935976, -0.038283918, 0.04710891, -0.0019382604, -0.02484748, 0.11633257, -0.05232094, -0.101384066, 0.013529179, 0.12286375, -0.03778247, 0.01885384, 0.08418877, -0.04979675, -0.00031072868, -0.0035743576, 0.1874015, 0.041805897, 0.139527, 0.03396286, -0.038882688, -0.042232387, 0.12928323, 0.012406921, 0.13889766, 0.0026711463, 0.00022935518, -0.06506512, -0.121561594, 0.10899862, 0.016382577, 0.05519049, -0.067790985, -0.049521208, -0.13572219, 0.081696786, 0.0031091, -0.11153662, -0.04164772, 0.08799728, -0.038840745, 0.008478963, -0.01916433, -0.09159907, -0.1150193, -0.037248325, 0.01672221, -0.058925614, -0.07065798, 0.02068696, -0.116281435, -0.064530775, 0.12826683, 0.13652286, -0.021274883, 0.09271431, -0.068418905, -0.04815391, -0.09700772, -0.011219055, 0.16134271, 0.055423167, 0.03150887, -0.030208996, -0.106212236, 0.057722613, -0.06545588, 0.072664395, 0.05154715, 0.025033223, 0.0810654, -0.06602039, 0.04777748, 0.054848548, -0.064766556, 0.078695774, -0.008469527, -0.014255667, -0.024828207, -0.05158507, -0.1387067, -0.034182884, 0.099256545, -0.01273309, 0.019888768, -0.026465394},
{-0.20536351, -0.118240476, -0.044522397, 0.101890385, 0.10028912, 0.061786022, -0.03644879, 0.030867795, 0.040024478, 0.050035127, 0.14699315, 0.066518456, 0.19384535, -0.069964, -0.058615524, -0.1269138, 0.12481969, -0.034015592, 0.048083514, 0.008528684, 0.023850592, 0.068961725, 0.08725288, -0.036219925, 0.082825705, 0.08197503, 0.11757106, -0.051022086, 0.10064336, 0.013751576, -0.050786402, -0.02139586, -0.025183955, 0.07020456, 0.0937912, 0.14088775, 0.031735905, -0.053968377, -0.046540428, 0.0110692615, 0.12748954, -0.08474311, -0.040145896, -0.013557246, 0.0024593885, 0.07071535, 0.03772485, -0.020769328, -0.027208569, 0.10208384, 0.07573728, -0.015826594, -0.07397405, 0.03288598, -0.04567401, -0.12329104, -0.011244144, -0.02323553, 0.0548782, 0.0033497168, -0.015966438, -0.059944246, 0.051029425, 0.14052522, -0.058541995, 0.13358079, 0.10167871, 0.14451703, 0.08214178, -0.0820494, 0.13632338, -0.04097978, -0.019838257, -0.0068289475, 0.103229105, 0.1010979, 0.014662718, 0.023039913, -0.027293328, -0.026759667, -0.04554148, -0.107734635, -0.039063122, 0.061478484, -0.020632718, -0.07879379},
{0.13273694, 0.04536804, -0.11714683, 0.027308311, 0.0373346, 0.07828308, 0.019643387, 0.015574531, 0.04834795, -0.15431795, 0.028061522, 0.051587306, -0.033114806, 0.09532033, 0.14405394, 0.11953119, -0.10858406, -0.0031188885, -0.07751942, -0.1103527, 0.034055687, 0.022821432, -0.06587819, -0.08976306, -0.031092396, 0.009659511, -0.022508109, 0.0791984, -0.20310572, -0.12056164, 0.041215077, -0.14999385, -0.07435993, -0.09010616, 0.0010910959, -0.059834916, -0.0035140277, -0.03511328, 0.025329866, -0.07623858, 0.08729073, -0.07100052, -0.085048206, 0.117542475, -0.045912772, -0.1512339, -0.13089396, 0.041406926, -0.0015756061, 0.062048774, -0.041661553, 0.053012703, 0.033041224, -0.1221258, 0.033893038, -0.12297214, -0.070518196, -0.042345267, -0.11032459, -0.0056339563, 0.017517494, -0.15816005, -0.07654208, 0.030911708, 0.068948455, -0.08223718, -0.116356485, -0.13192493, -0.0873991, -0.020528188, -0.0093481345, 0.06611924, 0.033096407, -0.115344815, -0.10656179, -0.006262973, 0.008460417, -0.0936958, -0.1516991, 0.025741452, -0.15397431, 0.022341078, -0.08248324, 0.016254617, 0.059002448, 0.017345525},
{0.16507933, 0.05427739, 0.023845444, 0.08576591, 0.096321344, -0.024847198, 0.039867662, 0.037171423, -0.0399798, -0.10968785, -0.12478908, 0.060750507, -0.1659392, -0.056851882, 0.087188, -0.024798956, -0.15014172, 0.012808944, 0.08654441, -0.13664831, 0.002396578, -0.10998626, -0.07962281, 0.037332773, -0.08998902, -0.017590445, -0.10757836, 0.033071104, -0.042622957, -0.12327954, 0.022393597, -0.006984674, -0.029125826, 0.021643627, -0.0520652, 0.00903836, 0.08862745, -0.11681547, 0.06319575, 0.026195336, 0.028225128, -0.021441838, -0.043366883, 0.08943166, 0.14554961, -0.01342924, -0.014910924, -0.06371149, 0.07902463, 0.02422278, -0.075637795, 0.078567356, 0.08614335, -0.16198418, -0.10939349, 0.0137872845, -0.1322121, -0.107037075, 0.11848908, -0.07388923, -0.19269332, -0.1044598, -0.036068253, -0.021092536, 0.033845697, -0.07954488, -0.08416441, 0.004695284, -0.052001514, 0.011181853, -0.15722893, 0.025371037, 0.07881993, 0.035669062, 0.046359375, 0.042002976, 0.017692715, -0.082412586, -0.07672554, -0.010877702, 0.12883787, -0.06558072, -0.036028318, -0.084476866, -0.0831053, -0.09179595},
{-0.09299532, 0.055334583, -0.05511163, 0.038624626, -0.07242478, 0.07808615, 0.09324964, -0.0025259333, 0.044466164, 0.15926819, -0.053641602, 0.04618608, -0.037202608, 0.018944655, -0.0367456, 0.07184558, 0.1391889, 0.0040057735, 0.10610223, 0.110305205, -0.02590293, -0.08493311, -0.050394304, 0.13388285, -0.048599247, -0.0792508, -0.098041445, -0.057090096, -0.06117325, 0.052454155, 0.021634275, 0.16075416, -0.051260862, 0.01565634, 0.07711847, 0.10394596, -0.020661647, 0.08021817, 0.039555468, 0.018018445, 0.017059013, -0.028849341, 0.070320934, -0.06084357, 0.045911692, -0.022241337, 0.13171501, 0.059905328, 0.030890517, 0.06289497, 0.093615085, 0.050709646, -0.09721578, 0.06019474, -0.018937254, 0.06739821, 0.054050297, -0.051474806, -0.0060787858, 0.10203952, 0.047060203, -0.023614533, -0.03209841, -0.11540119, -0.11751491, 0.069574334, 0.0041729407, 0.12210311, 0.08722346, -0.045773, -0.009590968, 0.0357528, 0.0066005015, 0.1288885, -0.09685513, 0.07321367, -0.05468827, -0.06834592, -0.087019496, -0.09663797, -0.031146193, -0.058451947, -0.018305233, 0.07577185, 0.08065195, 0.112090506},
{-0.018837363, 0.05390796, -0.06593206, -0.017585546, 0.061947674, -0.07927537, 0.02633743, 0.08861813, -0.08514098, 0.0893195, -0.044446647, -0.107060686, 0.08468707, -0.05750149, 0.095764965, 0.019039854, 0.060960054, 0.019186422, 0.06537905, -0.08963319, -0.026674867, 0.0056760684, 0.026296899, -0.0022549257, -0.078132115, 0.014287606, -0.041607916, 0.017657995, 0.036841974, -0.035601817, 0.060492218, 0.083840474, -0.06933794, 0.0694194, 0.063082606, -0.06654823, -0.023334362, 0.020071015, -0.023822054, 0.030087307, 0.05618456, -0.07995534, 0.09875019, 0.07983738, 0.10529959, -0.014240399, 0.069460616, 0.018269956, -0.053722322, -0.0007030219, -0.0316063, 0.038075596, -0.016476996, 0.10686889, 0.019594535, 0.09210965, 0.09169762, -0.057707537, -0.021384515, 0.099930316, 0.038045853, 0.030427545, 0.05199541, -0.035856888, -0.061287664, -0.03888882, -0.029765189, 0.10200678, 0.019284084, 0.048773125, -0.093073145, 0.10105659, 0.049366906, 0.09505394, -0.09422694, -0.070152074, -0.07802649, -0.06444304, -0.102647394, 0.0637074, -0.058780413, -0.020081013, 0.080892205, 0.002378434, 0.04951921, 0.07768385},
{0.0701741, 0.10915, 0.049821425, 0.07883809, 0.10306545, -0.09474699, 0.07963639, 0.07607981, 0.0063965754, 0.12199786, 0.10545605, -0.0061297384, -0.0824523, 0.093695804, 0.1371083, 0.005939055, 0.11964593, -0.055178095, 0.08302479, -0.21286044, 0.012063311, -0.023213198, 0.03299331, 0.07040529, -0.032710206, -0.11061046, 0.0029025434, -0.06528353, -0.039481808, -0.06133644, 0.009940246, -0.048224516, 0.014161845, 0.11204379, 0.056342136, 0.12123782, 0.043457966, -0.00088210683, -0.03294265, -0.084029704, -0.054887507, 0.05212642, -0.020299096, 0.0760221, 0.08689748, -0.075202554, -0.09639383, 0.09748875, -0.09098288, 0.12513445, 0.0911263, 0.08662676, -0.10713229, 0.04996931, -0.076043725, -0.07957701, 0.06352968, 0.097303435, 0.0528174, -0.004463285, 0.026684703, -0.025339855, -0.08026846, 0.14329754, 0.065494575, 0.126652, 0.019442564, 0.0086055, 0.067656614, -0.13996269, 0.09710399, 0.0146643575, 0.0555766, -0.105648324, 0.09497585, 0.10070926, 0.08997131, -0.066064686, -0.106644765, 0.012267898, 0.15244478, 0.11762681, 0.09732171, -0.024836855, 0.12286408, -0.051936716},
{-0.09762212, 0.042293124, 0.053179055, -0.14595704, -0.045474812, 0.15587851, -0.0058661066, -0.2456973, 0.039553046, -0.019253258, -0.03079644, 0.009662441, 0.13398972, -0.07674868, -0.08494223, -0.06684453, -0.16144603, -0.018474491, 0.01833172, 0.111098774, 0.026784759, -0.17258553, -0.00094912236, -0.097704075, -0.121846326, -0.04982875, -0.03081298, 0.013480506, -0.13469891, -0.039731216, -0.15966107, -0.059201382, 0.06972678, -0.13011245, -0.052477736, -0.15554167, 0.019851696, -0.10383795, 0.041556016, -0.0071461797, -0.15859501, 0.10501686, -0.09599994, 0.0708171, -0.11975788, -0.076031215, -0.025529113, -0.17356542, -0.0046988684, -0.16640149, 0.09755281, -0.08055893, -0.010046843, -0.065049306, -0.11867302, 0.11142308, -0.006806587, 0.031425606, -0.037893817, 0.06338193, -0.040180143, -0.113460176, -0.03551096, -0.118018255, 0.0049735843, -0.117804796, 0.023509437, 0.028374398, -0.07309699, 0.0811685, -0.11493321, -0.019439, -0.17516741, -0.16144648, -0.034896694, 0.059295386, 0.043435965, 0.013271969, -0.025204476, 0.055419642, 0.036064804, -0.1161428, 0.013236778, -0.072368406, -0.1412678, -0.04576135},
{0.1406154, 0.02603464, -0.11888639, -0.035760414, -0.045112517, -0.08325373, 0.06214745, 0.06888872, -0.02305398, -0.19158731, 0.006325803, -0.0924841, -0.106068775, -0.034905322, 0.07043169, -0.058480352, -0.28103808, 0.022765085, -0.044476967, 0.0017346824, 0.105223216, 0.012789855, 0.0337482, 0.00012017682, -0.09336941, 0.10332719, 0.013006634, -0.035473607, 0.052005503, 0.05279349, -0.093530424, -0.087752454, -0.07156795, -0.09637658, 0.038614508, -0.03200576, 0.005444204, -0.036776967, -0.12098642, 0.024641465, 0.09405524, -0.06496777, -0.032054134, 0.04926436, 0.16567636, -0.09634479, -0.07339578, -0.04928162, -0.11408374, 0.00817549, -0.062301718, 0.06916434, -0.02961557, -0.093016274, -0.08862887, 0.072792046, 0.043855127, -0.05613972, 0.079839475, -0.08448075, -0.16717465, 0.10958261, 0.089352, 0.18059057, 0.103813834, 0.039034117, -0.0040651294, -0.13897482, -0.045304496, -0.09607147, -0.027386406, -0.0048675234, -0.07303898, -0.10104945, 0.051211573, 0.013275236, -0.083822176, -0.023381157, 0.03975426, 0.08579675, 0.09629607, 0.05972986, -0.010162443, -0.0111694895, 0.16223356, -0.01291229},
{0.1380675, -0.1522384, 0.2175931, -0.048718374, 0.052465636, -0.012651951, 0.01451013, 0.020181604, 0.08868956, 0.23199669, 0.11147123, 0.106341854, -0.21401106, -0.0467971, 0.24190958, 0.05624519, 0.27408788, 0.10088727, -0.010682601, -0.29948956, 0.013240864, -0.100918815, 0.12128508, 0.019686708, 0.073916554, -0.09652297, 0.012392624, -0.037482698, -0.036192875, 0.0018446695, -0.04385488, 0.14423232, 0.08243453, -0.020811042, 0.05539797, 0.011034129, -0.006156106, -0.17404276, 0.00804205, 0.035032418, 0.028707827, 0.050724823, -0.1555167, 0.005108573, -0.011686523, -0.037215102, 0.13655065, 0.051672608, -5.969211e-05, -0.037346687, 0.0870599, -0.06855441, 0.059679426, 0.052288048, 0.119679324, 0.012833455, -0.14419065, 0.016731571, -0.03441273, 0.10541084, 0.26743335, 0.03535486, -0.04291018, -0.09916625, -0.09519125, -0.15855357, 0.16741176, 0.076991245, 0.05347996, -0.08707646, -0.025702132, 0.096366264, 0.10409978, 0.18576963, -0.0865302, -0.084739, 0.1190434, 0.064182565, 0.023890236, -0.11085071, -0.120214574, 0.1528099, 0.19364525, -0.093845196, 0.032421265, 0.14240432},
{-0.089820296, 0.18500297, 0.100093335, -0.09437262, 0.004968975, 0.0005524614, 0.08155635, -0.1655491, -0.055655673, -0.21973377, 0.05575183, 0.088772796, 0.048758276, -0.011578152, -0.10517445, -0.028031457, -0.20175625, -0.08827378, -0.01893352, 0.15063989, -0.03623805, -0.14644243, -0.14046314, -0.051150154, 0.02996708, 0.0626523, 0.046146106, 0.07231782, 0.013312661, -0.010290236, -0.07306981, -0.13258664, 0.059681598, -0.030712707, -0.109290324, -0.060403083, 0.05686153, 0.062226944, -0.13152613, 0.01992232, 0.05493599, 0.1105001, 0.060856707, 0.06836224, 0.13442923, -0.1273356, -0.11455588, -0.15005003, 0.08840239, 0.14346164, -0.014621886, 0.010971985, -0.026641358, -0.111192465, 0.049105227, -0.03174116, 0.012765223, -0.048285417, 0.03759622, -0.17149487, -0.20937558, -0.038176414, -0.07849478, 0.1466765, -0.07558127, -0.03160429, -0.12845404, -0.19113949, -0.079893626, -0.065297164, -0.06851826, 0.057350256, -0.09819187, -0.12771638, 0.0516472, -0.024553634, -0.061778687, -0.09760965, -0.0688527, 0.06635311, 0.047920424, -0.26202285, -0.10444221, -0.054156244, 0.03408637, -0.069422595},
{-0.05968231, -0.08507773, -0.026273351, -0.07397488, 0.061266307, 0.006989303, -0.03605501, -0.07238576, -0.10660928, 0.057653293, -0.0066819796, -0.091383025, -0.020775938, 0.08797684, -0.11461092, -0.037039932, 0.03512409, -0.09699182, 0.13515343, 0.09890544, -0.03756836, -0.0051320144, 0.09471428, 0.1024295, 0.041094653, -0.13147232, -0.0010399657, 0.0060975705, -0.14617993, 0.07871318, 0.07440583, -0.11535502, -0.048370138, -0.12040529, -0.055923313, 0.02554958, -0.091225296, -0.015665518, -0.014346624, -0.031640116, -0.0140394205, 0.000885349, -0.12933229, 0.07448029, -0.07574885, 0.04087161, 0.011183759, 0.03666849, -0.096980035, 0.06926409, 0.11074352, -0.13923794, -0.050066836, -0.0108102355, 0.08208415, -0.010872775, -0.010988152, -0.09644414, -0.013291272, -0.05180296, 0.026114343, -0.082404725, 0.04516319, 0.08828137, -0.029019842, -0.009850952, -0.08531333, -0.022448244, -0.032963417, -0.14056103, -0.060839698, 0.05385946, 0.056748457, -0.024339655, -0.12632166, -0.06108636, 0.046534184, -0.002733214, 0.07558261, 0.05298152, 0.004651845, 0.16318332, 0.05589731, -0.15075786, 0.19410473, 0.033160966},
{0.20787717, 0.02029153, 0.08728623, -0.11119448, -0.020490544, -0.013281509, -0.052595615, 0.18861243, -0.07893404, -0.07469856, -0.018451093, 0.0420531, -0.1596217, -0.0775306, 0.2407626, -0.04786945, -0.09654738, -0.004250959, -0.019319672, -0.09616637, -0.002331287, -0.043975607, -0.019103225, -0.1713119, 0.0816266, -0.08864469, 0.06212942, 0.010090167, 0.05735415, -0.18569724, -0.20157744, -0.1151044, -0.022775138, -0.06879873, 0.053029712, -0.034310307, 0.025305029, 0.16056731, 0.034568492, -0.16857328, -0.04669833, -0.05966448, 0.022076475, 0.03595305, 0.13775979, 0.0010194223, -0.16872281, -0.12540255, 0.0673133, 0.055991396, -0.11829917, -0.026481139, 0.0133774765, -0.15039025, -0.054955248, -0.005541424, -0.045394175, 0.09167767, -0.0025081602, -0.09393731, -0.25219974, 0.037638366, 0.032970477, 0.059553683, 0.07895814, 0.019193973, -0.032663226, -0.19961496, -0.12001718, -0.04224677, -0.053259004, 0.028966932, -0.15208063, -0.055561993, -0.09706705, -0.062012784, 0.06893594, -0.02911998, -0.09191327, 0.09764287, 0.09638994, -0.018627292, -0.10078241, -0.064406104, 0.02082829, -0.08538626},
{-0.14534982, -0.017944863, 0.0574766, 0.013703205, -0.020970354, 0.10927713, 0.11018903, -0.14438061, -0.0019732274, -0.002967069, 0.019005047, 0.004849397, 0.07162842, -0.06649839, -0.20321181, 0.023300458, 0.1370098, 0.0840543, 0.031366598, 0.18098985, 0.07056188, -0.023574244, -0.029998308, -0.075210474, 0.078353, 0.080020465, 0.02700896, -0.07964076, 0.109530404, 0.07504267, 0.027079884, 0.082854494, 0.10013478, -0.043485746, 0.06627243, 0.060165264, -0.05987137, -0.09523419, 0.050324403, 0.09270325, -0.06540833, 0.12179925, -0.0329879, 0.012877168, -0.10912096, 0.032169506, 0.11930171, -0.10112091, -0.04957047, 0.04234504, 0.030786457, -0.020665564, 0.094722055, 0.04573534, -0.086204626, -0.03145821, -0.13227056, -0.015585475, -0.038809117, -0.002737913, 0.1309334, 0.05966115, 0.08202724, -0.07972167, 0.028841438, 0.02757364, 0.07558973, 0.092379294, -0.087542444, 0.022468122, 0.025990069, 0.092879005, -0.09084554, 0.08767685, -0.12320749, 0.06252369, 0.03156353, 0.04770595, 0.06561137, -0.0036620751, -0.0069812993, 0.050391864, -0.01843049, -0.011004881, 0.07702147, -0.06394563},
{-0.06807988, -0.046750765, 0.043547396, 0.078423545, 0.09711003, -0.059953712, 0.015884424, 0.18018116, 0.08645588, 0.02492052, 0.11695625, 0.10653453, -0.079609536, 0.05932651, 0.24614458, 0.07737925, 0.15283328, -0.013672725, 0.10857285, -0.0949154, 0.07496397, 0.1705712, -0.077197716, 0.022684056, 0.08377989, -0.0004807589, 0.014137299, -0.090916954, 0.04433984, -0.040650535, -0.08918065, 0.11695504, -0.088379785, 0.035394683, 0.055707972, 0.14930373, 0.086463496, 0.11328846, -0.0986655, 0.07473591, 0.08530047, 0.036456235, 0.02512997, 0.09165437, 0.12846372, -0.07698525, -0.11285792, 0.023487672, -0.07383635, 0.17493956, 0.010840717, 0.051888764, 0.07931212, -0.045250643, 0.106398076, 0.01633233, 0.15028489, 0.04048525, 0.09531849, -0.03470369, -0.07099016, 0.028466625, -0.015564133, 0.08429798, 0.08040015, 0.19756584, -0.0055858577, 0.024895802, 0.16891441, -0.06986241, 0.09643449, -0.070808075, -0.15120122, 0.056518845, -0.09947067, 0.028412461, 0.13845529, -0.039869748, -0.073772795, 0.19074358, 0.077687465, 0.12267652, 0.083818346, -0.098530315, 0.22059959, 0.11968811},
{-0.044604164, 0.06477982, 0.059858095, 0.08335402, -0.034016553, 0.1954206, -0.038807154, -0.15202567, 0.050995328, -0.03839546, -0.11480758, 0.088110335, 0.019132605, 0.053412583, -0.21320248, -0.069019206, 0.07623804, 0.03693031, -0.012518717, 0.17916995, 0.077143066, -0.0255392, 0.042842563, 0.057685666, -0.031741545, -0.014654669, -0.12549949, -0.0124175595, -0.08319693, 0.0534177, -0.03077713, -0.122792795, 0.0039841146, -0.12709884, 0.010288408, -0.11247002, 0.08534673, -0.066386804, -0.013898216, -0.03809228, -0.09730628, 0.03023116, -0.030863754, 0.04936127, -0.043212295, -0.07373284, 0.098171644, 0.05439908, 0.028435295, -0.05258252, 0.08069553, -0.14702083, -0.0794297, -0.046167035, -0.11574552, -0.007048772, -0.06718431, -0.03357742, -0.08877386, -0.11543086, 0.083346315, -0.00602275, -0.091781124, -0.22378455, 0.038414888, -0.093175456, 0.10147966, 0.022462066, -0.09322913, 0.057012253, -0.113198794, 0.07836961, 0.043159794, 0.0098207705, -0.11733485, -0.07704288, -0.13260935, 0.022845905, -0.10876008, -0.086180896, -0.17025548, 0.12752694, -0.023899328, 0.007368484, -0.045305192, -0.023484016},
{0.0040467666, 0.016096132, 0.07575358, -0.042841412, 0.050513957, -0.07550779, -0.017769631, -0.12144618, 0.07731185, 0.034238916, -0.018010037, -0.084101915, 0.061959542, -0.081515394, 0.033108417, -0.0060526985, 0.16489667, -0.055698898, 0.056431632, -0.0940791, 0.0920972, -0.018783037, 0.073497295, -0.008890697, -0.003306866, 0.014884011, -0.11300424, 0.085104205, -0.10486293, 0.015842887, 0.10394916, 0.07628788, 0.0012950253, -0.035583466, 0.06299091, 0.084126495, -0.05616769, -0.06105551, 0.032191917, -0.009133715, -0.05709936, 0.009739746, -0.018346997, -0.033275135, -0.06064318, -0.017039249, 0.07474485, 0.029658338, -0.019682879, -0.09938739, 0.04760886, -0.06738785, -0.113487594, 0.09759893, -0.0564926, 0.023737902, 0.021862064, -0.032549515, -0.043602943, -0.027137838, 0.17402785, 0.017544096, 0.10923489, 0.026064003, -0.011474575, 0.02678167, 0.057466086, 0.00886553, -0.056354024, -0.023124333, 0.050081965, 0.054618496, -0.018394891, 0.06640366, -0.12271158, 0.077977166, 0.00298022, 0.072322674, 0.094122626, -0.008048191, -0.00318865, -0.063064724, 0.008840776, -0.04144962, -0.030421901, 0.05249787},
{0.042521197, 0.11060495, -0.007762544, 0.08291999, -0.062155828, -0.19869104, -0.08603653, 0.2338741, -0.16285446, -0.07516771, 0.07702627, -0.08568259, -0.028938651, 0.007874989, 0.24795349, -0.09738009, -0.24823424, 0.045102615, -0.10661415, -0.14177446, -0.05938406, 0.17296402, -0.09172156, -0.11631963, -0.07473453, -0.061655827, 0.06768949, 0.010424554, 0.03740594, 0.0074718036, -0.17602299, -0.11281947, 0.0049960804, 0.149819, -0.078020684, 0.0033862565, 0.047298893, 0.15360458, -0.11946548, -0.12348104, 0.053176466, 0.03617502, 0.051408883, -0.09640307, 0.18494791, 0.007911631, -0.2652906, -0.0791762, 0.103970125, 0.09503295, 0.048409153, 0.052593462, -0.07672932, -0.11774577, -0.04583279, -0.10088621, 0.15591626, -0.11674857, 0.1354132, -0.02889422, -0.2237532, 0.05441365, 0.04278322, 0.14931245, -0.018705098, 0.18350233, -0.05728188, -0.17452368, 0.034569502, 0.07360137, 0.12356285, -0.044473615, -0.14293961, 0.0049527334, 0.16339259, 0.08049546, -0.07684033, -0.13625939, 0.09490508, 0.05209879, 0.098253556, -0.006594088, -0.13075349, 0.019619673, 0.08917313, 0.014659732},
{-0.051987756, -0.057590336, -0.09515617, -0.006400404, -0.030382229, 0.16530214, 0.07299121, -0.19548368, 0.10192897, -0.07041405, 0.03664934, -0.079382256, 0.22008689, -0.093487255, -0.20106985, -0.13429677, -0.09707124, 0.08479922, 0.1676078, 0.13256837, 0.0033234176, 0.05465768, -0.06196565, 0.096538685, 0.053465493, -0.044750188, -0.063177556, -0.05835922, 0.06749219, -0.003917487, 0.14811973, 0.08253485, 0.09756416, 0.14629817, 0.011898472, -0.037990727, 0.104218826, 0.02982077, 0.04590984, 0.12552908, 0.10115893, -0.042517845, -0.04559774, 0.100630134, -0.020292226, 0.14350969, -0.110075176, 0.04562385, 0.03095261, 0.09731396, 0.027136872, 0.024107583, -0.020236818, 0.114055336, -0.0052941428, -0.0017799797, 0.027820632, 0.1011629, 0.012273645, 0.03768462, -0.033947445, -0.040199637, -0.053122442, 0.02476867, 0.10205082, -0.04008824, -0.02028496, 0.13020003, 0.13475522, -0.06448411, 0.050237652, -0.113519244, -0.07984087, -0.096773, 0.11351813, 0.09847286, 0.105483636, -0.05235839, -0.0031601167, 0.16175702, 0.03817013, 0.00029608927, -0.041301597, -0.0842701, 0.040607546, -0.043358494},
{-0.21792825, -0.1252788, -0.19828543, -0.01985323, 0.0043503037, 0.06770526, 0.06664747, -0.22666906, 0.16750553, -0.023281958, 0.13390788, -0.025632804, 0.13568868, 0.047881603, -0.13609546, -0.010003931, -0.022529164, 0.02749839, 0.029145582, 0.32739443, -0.10639659, 0.09703847, 0.08346282, 0.15706584, 0.014224251, -0.08079111, 0.12562582, -0.0809846, 0.19528258, 0.08423285, 0.068520755, 0.25684032, 0.05079773, 0.055731047, 0.023459304, 0.0119846305, 0.009104352, 0.13959776, 0.0024202568, 0.131977, 0.0049477, -0.10786888, 0.074768305, 0.13654771, -0.0353349, 0.05630835, 0.09733351, 0.04190831, -0.08179554, 0.06747588, 0.063689366, 0.11189128, -0.04552436, 0.031567246, 0.0008754352, -0.010192388, -0.00489596, -0.08051096, 0.029077554, -0.046846554, 0.14150321, 0.010239489, -0.035323434, 0.121353276, 0.059644848, 0.1449889, 0.023739666, 0.048854694, 0.09301727, -0.107069425, 0.04668583, -0.040555578, -0.14308506, -0.11558936, 0.009487741, -0.032960422, 0.009086634, -0.11014856, -0.05445239, 0.12661332, 0.09906866, 0.0927362, 0.055922348, 0.029126214, 0.15728675, 0.1674006},
{-0.01145576, -0.030097632, -0.014812623, -0.10284547, 0.023049755, -0.030987192, -0.053526003, 0.11923393, 0.13964391, 0.006121391, 0.06520981, -0.11073452, 0.20557965, -0.0088252975, 0.06401893, 0.097418144, 0.05604356, 0.08226253, 0.11782069, 0.020591635, 0.019218426, -0.016914912, -0.046916716, 0.01181704, -0.06396923, -0.062880196, 0.1657886, 0.023663742, 0.008806319, 0.032152943, 0.09371466, -0.091908075, -0.1108574, 0.17373386, 0.04714875, 0.03683349, 0.02703949, -0.039048623, -0.0873777, 0.13427766, 0.09451406, -0.06521357, 0.046961375, -0.019397598, -0.14237234, -0.06852771, 0.024142873, 0.042116594, -0.062796414, -0.1719734, 0.05288597, -0.053382736, 0.0053731515, 0.059842434, -0.053009212, 0.02226795, 0.012005119, -0.035421666, -0.11502243, -0.05709861, -0.106553435, -0.053970307, -0.045393094, -0.006613899, 0.04021828, 0.023235485, -0.017459402, 0.13911593, -0.13629688, 0.06906622, -0.040023096, -0.08908724, 0.17296779, 0.0052344436, 0.078415565, -0.02932363, 0.030700989, 0.09471511, -0.08764331, -0.025861235, -0.13096255, -0.07372917, 0.03464998, -0.108125396, -0.2007214, 0.028714806},
{0.01825969, 0.03185203, -0.002023318, -0.009241517, 0.00601674, 0.053410854, -0.011447727, -0.10540247, -0.09645119, -0.03265352, 0.061524015, -0.107791424, 0.11868749, -0.0034458905, -0.042288907, 0.04343732, 0.018140852, 0.00060170155, -0.042646997, 0.025709763, -0.051270835, 0.071948186, -0.015274798, 0.07698436, 0.068048365, -0.025643608, 0.016333692, 0.03161387, 0.019758472, 0.061619196, 0.02212046, -0.02891189, 0.02695741, -0.015848245, -0.0055879154, -0.06852569, 0.06621347, -0.008783925, 0.0153135685, 0.054306354, -0.070889056, 0.012378995, -0.1256098, -0.029071562, -0.02011808, 0.10842003, 0.18882933, 0.017103443, -0.11228672, 0.011979488, -0.016861536, -0.032306604, -0.06547599, 0.074075356, -0.088618636, 0.0034488896, -0.0184395, 0.03561328, -0.00075762114, -0.04597564, 0.14384647, 0.014774383, -0.04439466, -0.047912717, 0.023971211, -0.010616368, 0.0625701, 0.031754173, 0.08803896, -0.092426136, 0.0025420515, 0.05429797, -0.03607222, 0.052738506, 0.05615297, -0.046345, -0.01381329, -0.11310924, -0.007702936, -0.03126516, -0.058506306, -0.03406741, 0.095855825, -0.041379064, 0.08411749, 0.019280054},
{-0.07453777, 0.022074044, 0.0413194, 0.03036505, 0.09139186, -0.06302318, 0.07752931, -0.075893804, 0.1023041, -0.028512724, -0.09627403, -0.047844768, -0.067632794, -0.035045512, -0.031836152, -0.061068777, 0.078139454, 0.07667257, 0.07916857, -0.10660658, -0.019145407, 0.068577066, 0.044941366, 0.09404588, 0.073036015, 0.09301521, 0.09162763, 0.03037037, 0.032181874, 0.05652049, 0.029279038, 0.0040965155, -0.093624905, 0.08870798, -0.086782165, -0.03607755, -0.09341973, 0.06470887, -0.10371623, 0.0067882016, 0.008955218, 0.0314489, 0.040196046, -0.002246648, 0.08813353, 0.092308, -0.032585956, 0.08079846, 0.029821768, 0.037371576, -0.061858144, 0.10468423, 0.091300145, 0.07541123, 0.087756366, -0.08992742, -0.010456152, -0.07419516, -0.034397334, 0.104507625, -0.04900256, 0.089234695, -0.063303985, -0.06448117, -0.100728914, 0.05068946, 0.053285062, 0.09830591, -0.09481529, -0.06739083, -0.059192058, 0.042463437, -0.0017917603, -0.077500165, 0.08029215, 0.09832093, 0.04702173, 0.0114417225, 0.048028454, 0.039481565, -0.103601545, -0.049132653, 0.07479191, -0.03978025, -0.10494492, -0.08317389},
{-0.089070566, 0.07980489, -0.06252907, -0.006077638, -0.046205826, 0.035412367, -0.028336152, -0.030680925, 0.04231935, -0.03686868, -0.0012400532, 0.058912437, 0.07308145, 0.077044345, -0.18149, -0.028335236, -0.1983275, 0.16438532, -0.036751766, 0.14805187, 0.050316654, 0.20317324, 0.0066379015, 0.0814657, 0.03623945, 0.0656628, -0.008520455, 0.08219934, 0.06743309, 0.027915467, -0.015791204, 0.1468256, 0.042662878, 0.13548574, -0.11025574, -0.015238001, 0.095130295, 0.10603808, -0.011809271, -0.03081992, -0.021906236, 0.057481743, 0.15891473, -0.015449007, 0.075189784, 0.11025079, -0.08944568, 0.12417615, -0.09782615, 0.06950691, 0.06375374, 0.22382331, 0.041025642, -0.08414803, 0.07765111, 0.0514847, 0.124601945, -0.027684743, 0.17003924, -0.057486378, -0.06267078, 0.078651935, 0.030224819, 0.09438813, 0.016760051, 0.21691681, -0.00643076, -0.04087749, 0.065498285, 0.0075989934, 0.16928303, -0.019554354, -0.20101735, -0.019128742, 0.0664808, -0.001419872, 0.016150907, -0.14279799, 0.093218796, 0.20947538, 0.053583115, 0.10965237, 0.13531536, 0.0028681145, 0.2284869, 0.13712817},
{0.009059444, 0.00444586, -0.019463573, 0.017247848, 0.090659216, -0.018740436, 0.050766766, -0.1562567, 0.05562184, -0.02304877, 0.0746835, -0.117000125, -0.060605254, 0.087257385, -0.06527504, 0.023696158, 0.064239874, 0.013257995, -0.027540136, 0.11548201, -0.017762663, -0.17144917, 0.10442317, 0.07558402, -0.12809399, -0.026206868, -0.012830148, 0.09048549, -0.0897069, 0.07695101, 0.057435103, -0.09773911, -0.15871419, -0.0380586, -0.064763285, -0.07033309, 0.05300129, -0.11790684, 0.072093986, 0.0024855656, 0.02652752, -0.10480501, -0.024578733, 0.04649349, -0.19542164, 0.07424801, 0.12845777, 0.052156135, 0.045739364, -0.13613866, -0.07147049, -0.17837617, 0.03365281, 0.050602995, 0.014919485, 0.07318942, -0.097386554, -0.0048842025, -0.14457458, 0.052379366, 0.01244921, 0.08957527, -0.071124576, -0.06598923, -0.028139763, -0.025025116, 0.037802093, 0.09452472, 0.02919952, -0.13421431, -0.048212517, -0.15063715, -0.027776781, -0.028824512, -0.16967541, -0.0038459376, 0.08638834, 0.022786263, -0.05243219, -0.1312184, 0.08828439, 0.03145199, 0.051857486, -0.071025, 0.023163322, 0.055028513},
{0.015335778, 0.0031356155, 0.10103484, -0.12285443, -0.033076216, 0.059595004, 0.015068237, -0.05836958, 0.19561526, -0.010395091, -0.028867193, 0.044697728, -0.1767292, 0.022701083, -0.10542951, 0.078988865, 0.18409508, -0.05914475, 0.008039208, 0.07607418, -0.04916312, -0.07217068, 0.0753687, -0.03184069, -0.08652805, -0.0060430053, -0.045929722, -0.032708727, -0.18401083, -0.014291491, 0.062233567, 0.011625325, 0.06401423, -0.0068202373, -0.054202966, 0.011178317, -0.016127082, -0.0093658455, 0.054402262, 0.1252151, -0.03419865, -0.11947717, -0.09013128, 0.049758423, -0.11319329, -0.041166373, 0.14315026, -0.05444932, 0.0170138, -0.04669457, 0.072945565, -0.07369024, -0.08726864, 0.07614817, 0.098930515, -0.05521247, 0.01602608, 0.010312266, -0.10159209, -0.079260856, 0.1290574, 0.0022775726, -0.06682546, -0.1253293, 0.094627194, -0.10289053, -0.038079757, 0.12955643, 0.066630684, 0.0660275, -0.0943395, 0.07358206, 0.08180925, 0.07576742, -0.036919016, -0.0632715, -0.079081364, -0.09047046, -0.029585341, -0.09162973, -0.06349141, 0.13880847, 0.072600745, -0.0600391, 0.1342411, 0.087299734},
{-0.09978694, 0.026992097, -0.08005641, -0.07880847, 0.01982221, -0.07401947, 0.098023176, -0.05939785, 0.056549683, -0.102913976, 0.008560859, 0.022849783, -0.0870228, -0.01802516, -0.10464159, -0.034551136, -0.055047765, -0.034665197, -0.012641922, -0.08955251, 0.018036917, -0.04467451, 0.07975413, -0.0079576075, 0.08677876, -0.03788259, 0.046003535, 0.096482605, -0.1071673, 0.041281536, 0.09262852, -0.046919927, 0.09779222, 0.060264036, 0.013137974, 0.104417846, -0.106040806, -0.0072255284, 0.08797869, -0.013027191, -0.06594905, -0.094502665, 0.09699397, -0.03396584, 0.036675796, 0.04586619, -0.0716418, 0.0022541583, -0.09264316, 0.104621485, -0.089400865, -0.07727875, 0.009361334, -0.09953601, -0.099570476, 0.018887669, 0.03657627, -0.070675164, -0.075342104, -0.013191961, -0.03776682, 0.09786777, 0.009019583, 0.014112987, 0.06043583, 0.10368429, 0.061275974, -0.018960558, 0.005379565, 0.059962213, -0.08228313, -0.09400244, -0.097039916, -0.08784285, 0.039050594, 0.06676678, -0.02025424, -0.07597506, -0.011354737, -0.044269614, -0.042265467, 0.0961657, 0.0556563, 0.021560326, 0.06026432, -0.02608604},
{-0.14212446, 0.033897106, -0.041679285, 0.07042209, 0.08289691, -0.08981812, -0.103435926, 0.0792081, 0.1782255, 0.06257825, 0.020468324, 0.10496562, 0.024847416, 0.09106329, 0.06971127, -0.076303326, 0.09457287, 0.060259644, 0.10022757, -0.021753633, -0.08007273, 0.071163915, -0.03771587, -0.018648688, 0.08956425, -0.10414484, 0.028415017, -0.07640892, 0.15237534, 0.021393163, -0.042804256, 0.15354195, 0.007087539, 0.19439109, -0.075864926, 0.18779421, 0.0967387, 0.07047817, 0.07255029, -0.026942844, 0.007466373, -0.049613435, 0.013784551, -0.0589059, 0.11019026, 0.058860682, 0.12829456, 0.16085945, 0.05327223, 0.03155756, -0.049703397, 0.22261639, 0.09075935, 0.07616717, 0.13702674, 0.049584657, 0.1639715, -0.09546618, 0.11148881, 0.07001563, 0.0017680591, 0.0881488, -0.038237125, 0.075061224, 0.014520922, 0.19506493, 0.04089633, 0.07029994, 0.15742229, -0.034511834, 0.07297765, 0.05408808, -0.13822022, 0.12707219, -0.012637348, 0.06110388, 0.014722053, -0.010540651, 0.12264702, 0.11287828, -0.017329497, -0.0032447912, 0.0017741151, 0.12495357, 0.0634751, 0.016569283},
{-0.14052719, 0.024451878, -0.0003708592, -0.02891971, 0.08686066, 0.02667368, 0.03156936, 0.10628195, 0.08202159, -0.1174412, -0.03466535, -0.10081234, 0.1071514, 0.09062152, -0.102215074, 0.05162271, -0.17576139, 0.023967382, 0.026380634, -0.09189882, -0.08089224, 0.06639367, 0.002255378, -0.10095961, -0.02000365, -0.013137391, 0.014586157, -0.06430316, -0.05416214, -0.07214711, -0.03942486, 0.019908873, -0.00054908165, -0.014312752, -0.0018788732, 0.088727064, 0.04646742, 0.13412283, 0.089025974, -0.036672868, -0.03193184, 0.06355982, -0.039562967, -0.041770507, 0.13599633, 0.0024882904, 0.052213635, -0.0046152743, 0.06717425, 0.10582684, 0.024209438, 0.13151692, 0.024671411, -0.045268662, 0.06942253, 0.079127006, 0.029165823, 0.07888001, 0.052724823, -0.037346035, -0.067037165, 0.053419124, -0.08730326, 0.09656113, 0.07897812, 0.097728565, 0.06741108, 0.07333785, -0.013755575, -0.07217648, 0.09717161, 0.038071565, -0.10839391, -0.04710348, -0.111796245, -0.0057052374, 0.04639733, -0.066530906, 0.007314187, 0.0132289855, -0.12716237, 0.0009897089, -0.095696025, 0.0127074495, 0.0614672, 0.073369846},
{-0.21694729, 0.021807952, -0.2544689, 0.11305333, -0.08911646, -0.04351867, -0.0527119, -0.08293118, 0.04022663, -0.17437914, 0.053625774, 0.06512598, 0.20219772, 0.03355183, -0.16586657, -0.030264486, -0.16398731, 0.12634015, 0.057986367, 0.24774954, -0.09047937, 0.14908287, -0.053871483, -0.006284586, -0.011612073, -0.019048177, 0.15807724, -0.06050246, 0.16704747, 0.120194264, 0.12306989, -0.051234506, -0.12988226, 0.16541153, 0.081352845, 0.09555282, 0.071528815, 0.15431312, 0.04660392, 0.018163465, 0.01111674, -0.058975272, 0.08876293, -0.04502919, 0.0010267845, -0.049796186, -0.053994935, 0.10632265, -0.056656342, 0.03453153, 0.031735923, 0.079444975, 0.052391298, 0.07797654, 0.058602184, -0.11478589, 0.1071852, -0.1196896, 0.18547432, -0.01965159, -0.013720569, -0.009990205, -0.053604603, 0.16007859, 0.02920518, 0.053971965, -0.05006156, 0.13571863, 0.040650263, -0.071223825, 0.05111029, -0.09764053, 0.037158605, -0.14260802, 0.013829952, 0.0341354, -0.0717206, 0.111425646, 0.06891314, 0.09130261, 0.040560763, -0.20150748, -0.07396109, -0.012911719, -0.004382388, -0.0060324166},
{0.21995765, -0.12843052, 0.10076153, 0.106096886, -0.09501038, -0.011411756, 0.027113006, -0.0074937847, -0.15964998, 0.049014706, -0.10978213, -0.081808455, -0.2673224, -0.025919484, 0.28049162, 0.023142617, 0.19632715, -0.032176286, -0.14877765, -0.3137361, -0.007779875, -0.14131792, 0.032393236, -0.09930842, -0.07410449, 0.01707436, -0.075013645, 0.051007267, -0.062655814, -0.010081447, -0.0011132474, -0.063864276, 0.04071042, 0.09781404, -0.024355348, -0.07931802, 0.023465741, -0.17188628, -0.017577078, -0.18228385, -0.091581136, -0.0637943, -0.17097501, -0.012959908, -0.16298452, 0.04988876, 0.03405495, 0.059007253, -0.018868586, -0.18096817, 0.0224308, -0.12913917, -0.07867974, 0.059161656, -0.1501674, -0.096164346, -0.086365536, 0.10425168, -0.2172285, 0.110408954, 0.15282468, 0.079746075, -0.08648456, -0.18688744, -0.0050200555, -0.0029944235, -0.08799588, -0.11815853, -0.017574323, 0.09138538, 0.009428617, -0.07663008, 0.12222626, 0.042820968, -0.057875745, -0.030508168, -0.13801627, 0.15465426, 0.12768368, -0.1955041, 0.09032427, 0.2380288, 0.12335981, -0.046756763, -0.0084032165, -0.0659684},
{0.021999948, 0.101524085, -0.023645671, 0.028560152, -0.0799512, 0.026191061, 0.02160028, 0.03815493, 0.053728383, -0.14464271, -0.0922855, -0.06823486, -0.08881381, 0.038533032, 0.052062724, 0.12058455, -0.1917943, -0.07331494, -0.0621613, -0.09808139, 0.000634673, 0.089749925, -0.09103442, -0.03683555, -0.036759507, -0.03437361, 0.018570935, -0.087817244, -0.037034553, -0.028986396, 0.08099469, 0.0102820955, 0.026357707, -0.016346581, -0.14699519, 0.0412229, 0.072340004, 0.027342135, 0.11682152, 0.07504695, 0.08226344, -0.108625926, 0.087185524, -0.03478599, -0.014144721, 0.04755441, 0.067362465, -0.06782952, -0.0139472205, 0.08097678, 0.031327344, -0.0111275455, -0.10556804, -0.121458545, -0.015790015, -0.03297226, 0.11577588, -0.09994373, 0.116685934, 0.046441123, 0.04225328, 0.03567387, 0.042365257, 0.048009384, -0.0010056174, -0.008493674, 0.03509778, -0.015927775, 0.006551641, -0.1163841, 0.10271477, 0.034409005, 0.0367653, -0.08927921, -0.0801272, -0.066945925, -0.060670946, -0.0881833, -0.11029721, -0.0082908245, -0.11837036, 0.11481529, 0.09349778, -0.06935948, 0.09786338, 0.07412942},
{-0.0073235137, 0.019431422, -0.047417477, -0.032051638, 0.034386486, -0.00810311, 0.07425787, 0.09389798, 0.040587436, 0.01933929, 0.05771326, 0.016594028, -0.13169642, -0.0039040127, 0.122722775, 0.050245233, 0.15718205, 0.041992962, 0.01661695, -0.0662081, 0.031532515, 0.13048002, -0.072421506, -0.09885953, -0.044068538, 0.06618429, -0.06396632, -0.02277357, -0.066020966, -0.10377081, -0.05633652, -0.075018525, -0.02463463, 0.018921494, 0.05062389, -0.051727038, 0.061219204, 0.09984144, 0.009119145, -0.011137157, 0.043727227, 0.004822895, -0.023073608, 0.09407802, -0.07757672, 0.026591716, 0.0013914634, -0.07866374, 0.048119027, -0.03781571, -0.014195843, 0.054555397, 0.033989877, 0.07875031, 0.072305046, 0.007424816, 0.064057864, 0.0956428, 0.09459008, 0.11925225, 0.10013757, -0.07557142, 0.048331577, 0.086807735, -0.05483143, 0.07879309, -0.10409784, 0.041524775, -0.02983301, -0.111253425, -0.04938028, 0.060021922, 0.089304104, -0.07878811, 0.07920122, 0.016095638, -0.06435201, 0.07553655, 0.05990903, 0.041094895, 0.018497702, 0.20451593, 0.014437378, 0.101169445, -0.041118506, -0.05586678},
{0.13791274, -0.1428631, 0.034511607, -0.05270032, -0.11902537, -0.0957199, 0.06581994, 0.07175952, 0.082232624, 0.18555765, 0.11229266, -0.074985646, -0.12214929, -0.04580585, 0.06808639, 0.0040640035, 0.3779441, 0.04294935, 0.029141743, -0.009906444, -0.117406845, -0.0026079947, 0.07784678, 0.17518958, 0.09260869, 0.06450284, 0.100552365, -0.012206274, -0.036189914, -0.011865114, 0.07526898, 0.098226994, -0.0057528587, -0.020491645, -0.027608529, 0.066666365, -0.094020076, 0.072783306, 0.039829396, 0.1830192, 0.06761112, -0.02810497, -0.08280354, -0.09414963, -0.08202535, -0.083842926, 0.322172, 0.07716748, 0.03805402, 0.08752126, -0.066809446, -0.0947152, 0.05873831, 0.13986504, 0.13245302, 0.052612927, 0.0779983, 0.0022838162, 0.00011533998, 0.0836898, 0.17358802, 0.23155205, 0.08554095, 0.061872557, 0.047469854, 0.100565545, 0.06549586, 0.26055643, 0.08480604, 0.12052369, 0.17037912, 0.092979185, 0.22873384, 0.21717906, -0.2595223, -0.04992842, 0.14475235, 0.044423778, 0.08182143, 0.0677792, -0.00808072, 0.20828508, 0.107036844, 0.14857382, 0.17790142, 0.25144044},
{-0.1559, 0.10416156, -0.11363507, -0.0108327735, -0.013320729, 0.08929153, 0.07040082, 0.051557355, 0.07972117, 0.0952661, 0.026694946, -0.06595976, -0.038338024, 0.06484957, -0.06066359, -0.028151644, 0.025005907, 0.023325443, 0.00045280892, 0.11861509, 0.02209912, 0.090957396, 0.008107102, -0.010553347, -0.040898003, 0.021359662, -0.018289635, -0.03633367, 0.051390942, -0.076185815, -0.11098016, 0.022800252, -0.0069957534, 0.08763555, 0.10598996, 0.0023920194, -0.1053585, -0.04187073, 0.05984914, -0.07893941, -0.11708008, -0.029498542, 0.015475459, 0.07624087, -0.01225398, -0.02592216, 0.05058398, -0.09308491, -0.03356809, -0.031380374, 0.044540677, -0.06977607, -0.016160462, -0.033496633, -0.021386417, 0.06915931, -0.12209998, 0.0007082462, -0.042824663, -0.10739277, -0.053202935, 0.038065802, 0.030302526, -0.11019422, 0.10127908, -0.08169881, 0.07413749, 0.071010455, 0.050605904, 0.12460333, -0.08791181, -0.09017884, 0.03466939, 0.033222947, -0.09604887, -0.0435625, -0.12136616, -0.096611336, -0.043705106, -0.15382428, -0.07024818, -0.0019150809, 0.01427918, 0.027257795, -0.13021888, 0.053791765},
{0.218087, -0.03469072, 0.063943826, 0.114870735, -0.06500474, -0.2538179, 0.044790894, 0.19288935, 0.06090232, 0.19655001, 0.12805624, 0.056482118, -0.125892, 0.043936443, 0.18518472, 0.060380585, 0.36449766, 0.16094226, -0.07381648, -0.23502156, -0.014241934, 0.082801454, 0.062473424, 0.07667207, 0.2285904, 0.08943275, 0.18881245, -0.092074834, 0.012042132, 0.0408937, 0.15479602, 0.20550333, -0.041980386, 0.1313479, -0.07678719, 0.16365264, -0.077812254, 0.053797618, 0.15404421, 0.020359704, 0.055566747, -0.044715885, 0.030335579, 0.09885116, 0.16481115, 0.04665897, 0.26158425, 0.024563882, 0.049817305, 0.1135363, -0.029293569, 0.116988495, 0.12780347, 0.2037836, 0.22138567, -0.09571714, 0.13358554, 0.024351308, 0.02897805, 0.014448731, 0.24453191, 0.17047887, 0.08192999, 0.12762867, 0.02880951, 0.039816234, 0.15677518, 0.1473806, 0.1317962, 0.07108973, -0.008289302, 0.08243227, 0.15524374, 0.07534001, -0.03811804, -0.09126036, 0.13831712, -0.013657404, 0.039836608, 0.10309107, 0.049420517, 0.2852819, 0.20808151, 0.043383837, 0.13356052, 0.20568436},
{0.15492718, 0.14947283, 0.19827046, -0.1272499, -0.0657023, -0.1344848, -0.06618012, 0.22388987, -0.14398088, -0.13568558, -0.22661562, -0.022378664, -0.26453713, -0.07567285, 0.16596073, 0.15568648, -0.21306346, -0.019629046, -0.020617716, -0.24411291, -0.024792153, -0.07001327, -0.14018878, -0.24754576, -0.0923694, 0.05891319, -0.1271277, 0.021651987, -0.085624956, -0.14748497, -0.1343597, -0.12620047, -0.038378425, -0.034063045, -0.10341771, -0.13403112, -0.019558497, 0.06521512, -0.050950926, -0.2052332, -0.032254703, -0.009608047, -0.03386218, -0.052132633, 0.044578653, -0.1380775, -0.22714359, -0.15928158, -0.09857954, -0.06018496, -0.056048546, -0.019075701, -0.12763983, -0.093302086, -0.021786835, 0.051951207, -0.06258472, 0.09405437, 0.038341645, -0.01106558, -0.2475031, -0.001512893, 0.07322001, -0.07934278, 0.07821362, -0.14938495, -0.12844583, -0.1819173, -0.15051328, -0.026878191, -0.07578883, 0.068380885, 0.0069986433, 0.008514309, -0.09937571, 0.10773279, -0.08807033, -0.059495013, -0.111625, -0.16337585, 0.055801854, -0.19534099, 0.0036471607, -0.08880249, 0.008596493, 0.011236788},
{0.036897954, -0.14101648, -0.07598877, -0.031773727, -0.067702144, 0.070488386, -0.080665305, -0.14578626, -0.17650321, 0.037908364, -0.10605467, 0.065002635, 0.014179285, 0.1022838, 0.057378616, 0.016453145, 0.14143984, -0.07915541, -0.05999636, 0.07242247, -0.050327722, -0.082880355, 0.11309804, 0.10093003, -0.003774244, -0.07112998, -0.15601216, -0.08751834, -0.017554346, 0.076392695, 0.055391397, -0.00682488, -0.040788595, -0.077066526, -0.045190904, -0.11836787, -0.042304322, -0.013707247, 0.056062765, 0.07605567, -0.044032946, -0.01378129, -0.086003676, -0.111356206, -0.19742708, -0.010499809, 0.05889342, 0.076868676, -0.017048031, -0.13873537, -0.019457508, -0.08895826, 0.0772941, 0.022636948, 0.057686377, -0.020233132, -0.10402143, 0.097102135, -0.14322369, -0.08095275, 0.12349765, -0.054643594, 0.03884961, -0.17005898, -0.023854809, -0.022074187, 0.033212155, 0.049287993, 0.048716657, -0.02667404, -0.15270872, -0.07725507, 0.052643448, 0.10236514, -0.118250825, -0.025915384, -0.018387241, 0.03524175, -0.08355103, -0.09964604, -0.121505745, 0.047308546, 0.040412202, 0.10697666, -0.11854316, 0.08198192},
{0.057478707, -0.11628328, -0.01854913, -0.09362146, 0.010245811, -0.001689656, -0.015710393, -0.018594166, -0.045322593, 0.1298116, 0.103369795, 0.047059752, -0.026592353, 0.030943539, 0.07305857, -0.113812, 0.26960012, 0.0918346, 0.038674857, 0.018082522, 0.029206594, -0.12644625, -0.038116317, 0.13714208, 0.002649402, -0.07145908, -0.011249902, 0.025818355, 0.021080883, -0.064034104, 0.032194216, 0.09788985, -0.0065935, -0.094662204, -0.027732363, 0.05553077, 0.037770532, 0.027191406, 0.030238705, 0.08280313, 0.054974213, -0.03042402, -0.020139486, -0.09570401, -0.13983367, -0.016302852, 0.24334352, -0.002084663, -0.056933686, -0.06869904, 0.012079421, -0.036619987, 0.05581734, 0.037099835, 0.049900647, -0.047421884, -0.10619997, 0.07500795, -0.053820383, -0.055304743, 0.10874813, -0.045606375, 0.07904457, -0.056632675, -0.022463026, -0.13254319, 0.0779758, -0.013470812, 0.088964015, 0.048338503, -0.14968477, -0.044833124, -0.11466263, 0.16490181, -0.15823561, -0.085910104, 0.04362865, -0.0749137, 0.047474615, -0.07821388, 0.08395226, 0.16496947, -0.054106444, 0.08564961, 0.05282476, 0.062457897},
